//Numpy array shape [576, 120]
//Min -0.072164930403
//Max 0.072168603539
//Number of zeros 0

#ifndef W11_H_
#define W11_H_

#ifndef __SYNTHESIS__
model_default_t w11[69120];
#else
model_default_t w11[69120] = {-0.045154716820, 0.044839374721, -0.014426618814, -0.068234577775, -0.056455641985, 0.053807362914, -0.051658160985, 0.019343413413, -0.061355002224, 0.035196974874, -0.034657552838, 0.025789454579, 0.016004286706, 0.027348451316, -0.004923172295, -0.060344956815, 0.020862936974, 0.026568263769, 0.009704999626, -0.007196240127, 0.025113366544, -0.056066501886, 0.044705443084, 0.011209852993, 0.050845950842, 0.036736235023, -0.028859157115, 0.060058265924, 0.070631921291, -0.060791701078, 0.053911298513, -0.070985049009, -0.008582524955, -0.054777726531, 0.037932150066, -0.033736702055, 0.008347585797, 0.018278077245, -0.069550588727, -0.069364741445, -0.039248935878, -0.016840312630, 0.040388293564, -0.035543370992, 0.066205605865, -0.071631826460, 0.028460450470, -0.049083016813, 0.018380641937, 0.048499070108, 0.058001577854, -0.065824203193, -0.008072867990, -0.066077634692, 0.001228138804, 0.055390805006, -0.006475381553, 0.025648467243, -0.064616665244, -0.051769003272, -0.070055790246, -0.036552473903, 0.031813941896, 0.030757173896, -0.033536728472, 0.008310340345, 0.041128665209, -0.037078749388, 0.032409019768, 0.013157285750, 0.038108184934, 0.048321947455, -0.011549282819, -0.062641732395, 0.039299130440, 0.058436945081, 0.008028320968, 0.034104071558, -0.008291378617, 0.068550899625, 0.044361591339, -0.071596667171, 0.039329014719, -0.042940065265, 0.040247164667, -0.018876034766, -0.006001502275, -0.028792500496, 0.025130242109, -0.046037834138, 0.040285810828, 0.024695284665, -0.064629979432, 0.062563568354, 0.039667531848, -0.040132414550, 0.024465970695, 0.050288118422, 0.057324483991, -0.059537734836, 0.047134414315, -0.038695167750, -0.006352059543, -0.020866435021, -0.017007060349, 0.062778294086, 0.063814684749, 0.014562480152, 0.042504072189, -0.049620684236, -0.030983008444, 0.057819321752, 0.042851850390, -0.053283333778, -0.036385226995, -0.054171856493, -0.028457026929, 0.039843603969, -0.035462878644, -0.050232645124, 0.060389220715, 0.054593086243, 0.019535258412, -0.024873025715, 0.027825519443, -0.060721755028, 0.047954782844, 0.002494804561, 0.067759305239, -0.014291413128, -0.020674102008, 0.010334044695, 0.050786383450, -0.008223153651, -0.049893267453, 0.059696286917, -0.027851913124, -0.014992125332, -0.065407603979, -0.055921368301, 0.017627157271, -0.061655752361, 0.068983957171, 0.027312301099, 0.009090133011, -0.017653364688, -0.004831880331, 0.061352610588, 0.008905231953, 0.029818207026, 0.057353451848, 0.056560009718, 0.034184649587, 0.048805631697, -0.024919826537, -0.036844931543, -0.019992485642, -0.067871302366, 0.005586154759, -0.046793624759, -0.052479833364, -0.064269781113, 0.024091839790, -0.022264383733, -0.063459739089, 0.047386780381, 0.047820724547, -0.065439589322, 0.063203230500, -0.065338626504, -0.001341991127, -0.046547777951, -0.053599454463, -0.032256212085, -0.000389516354, 0.069908559322, -0.040283676237, 0.038531616330, -0.058276817203, 0.007145531476, -0.016334377229, 0.053993821144, 0.042104899883, 0.015898108482, 0.014318890870, 0.013756193221, 0.070375889540, -0.039318844676, 0.047524221241, -0.024145968258, 0.036527916789, -0.068094447255, 0.065315723419, 0.032848820090, 0.010646276176, -0.066884964705, 0.051835522056, -0.009020015597, -0.012094069272, 0.037323199213, -0.043815474957, 0.055113926530, -0.056931778789, -0.025300189853, -0.057584449649, 0.004257030785, 0.045541033149, -0.015286181122, -0.038034718484, 0.013400532305, -0.050488300622, -0.009912922978, -0.006581299007, -0.015135299414, 0.005024984479, -0.018379542977, 0.000320725143, -0.021207824349, -0.011424914002, 0.051674745977, 0.063114479184, 0.048973068595, 0.055598333478, 0.014771386981, 0.034927539527, -0.061506487429, 0.062850326300, 0.039808712900, 0.022915884852, -0.006163015962, -0.003144018352, -0.010158509016, 0.020882263780, -0.037205044180, 0.011328525841, 0.019578516483, 0.004553563893, -0.004604667425, 0.047298841178, -0.026781864464, 0.018762491643, -0.023887407035, -0.060144741088, -0.070851065218, -0.019243959337, -0.018882401288, 0.025289006531, -0.047060821205, -0.030685562640, 0.014788985252, -0.057662874460, -0.066689565778, 0.071289360523, 0.052222922444, 0.002029649913, 0.055669501424, 0.020761147141, 0.062421336770, -0.019433125854, -0.030803374946, -0.038244102150, -0.023375656456, -0.023547839373, 0.034153699875, -0.059221155941, -0.024093300104, -0.059131838381, 0.058305472136, 0.036437965930, 0.001809678972, 0.053570926189, 0.008260354400, 0.023901566863, 0.029968380928, 0.021426863968, 0.054878696799, 0.026695199311, -0.061645362526, 0.037792161107, -0.057059329003, -0.031992886215, -0.008209727705, -0.017158236355, -0.063429974020, 0.043780647218, -0.035929430276, -0.070666611195, 0.006651848555, -0.011312402785, 0.006314933300, -0.017492417246, 0.052969217300, -0.042301952839, 0.049954675138, 0.069787025452, 0.006888434291, -0.026255331933, -0.031647313386, 0.062904775143, -0.023897353560, 0.052449651062, -0.019532561302, -0.070035360754, 0.046819843352, 0.010028012097, 0.039379514754, -0.009913574904, -0.058789670467, -0.055383287370, -0.000833563507, -0.048857428133, 0.030303858221, -0.018807552755, 0.034313231707, 0.062391951680, -0.058241974562, -0.004093222320, 0.015132166445, 0.067763611674, 0.061760023236, 0.010346904397, -0.055623285472, -0.030627369881, 0.051086440682, -0.051411658525, 0.003558345139, 0.049869380891, 0.048955366015, -0.034720458090, -0.011528600007, 0.036526009440, 0.046540692449, -0.050767973065, 0.053926303983, -0.055788807571, 0.066924601793, -0.026701357216, -0.035875506699, -0.008852697909, 0.017418377101, 0.028865404427, 0.047042258084, 0.064346373081, -0.061106286943, -0.042056813836, 0.033716142178, -0.014925155789, 0.011019013822, 0.066930443048, 0.017063170671, -0.058031179011, 0.003873310983, -0.003920435905, -0.062492053956, 0.031799949706, -0.009726267308, -0.014667578042, -0.067652575672, 0.047479003668, -0.068664617836, 0.040996260941, 0.056405499578, -0.014275409281, 0.056296363473, 0.014876328409, 0.027340054512, -0.059486012906, 0.015543103218, 0.034988395870, -0.008516915143, 0.058773875237, -0.048917628825, -0.026173293591, -0.023692339659, -0.036905564368, 0.001144088805, 0.066204190254, 0.043126620352, -0.006202071905, -0.056615557522, 0.010294973850, 0.054510921240, 0.008524537086, -0.031290866435, -0.055676691234, 0.050643324852, -0.005746535957, 0.025397218764, 0.067116633058, -0.063300527632, 0.051048867404, -0.067349307239, -0.059241905808, 0.026378341019, -0.060003478080, -0.014635864645, 0.017638847232, 0.016866192222, -0.049117483199, -0.045097108930, 0.005508348346, 0.032406702638, -0.060600470752, -0.052404880524, 0.046040102839, -0.059496439993, 0.053944230080, -0.032962862402, 0.009273581207, 0.022433780134, -0.065633542836, 0.016649700701, -0.056097336113, -0.048613507301, 0.018010519445, 0.052253395319, 0.070266559720, -0.048189282417, 0.000257961452, 0.006464831531, 0.006736524403, -0.023173466325, 0.044435165823, -0.037265591323, 0.029432505369, -0.067718870938, -0.031005930156, -0.065515883267, 0.005251780152, 0.047111220658, -0.030884742737, 0.028205953538, 0.028154060245, -0.028715070337, 0.036648742855, -0.045496918261, -0.018059883267, 0.037607170641, -0.048720326275, 0.012968569994, 0.017753146589, -0.030861582607, 0.004501722753, -0.024249449372, 0.036234378815, -0.005617521703, -0.013567987829, 0.071717217565, -0.036556225270, -0.010046306998, -0.018070999533, 0.069446623325, 0.009042434394, -0.066650867462, -0.038579918444, 0.050873517990, 0.056556716561, 0.009395718575, -0.011218663305, 0.013233445585, -0.031011469662, -0.036409489810, -0.015269301832, -0.046885557473, -0.072054311633, 0.063029900193, -0.004257857800, 0.024222172797, -0.061196930707, 0.019381590188, -0.059135518968, -0.055405158550, 0.011682875454, -0.042443111539, -0.002602845430, 0.050263360143, 0.069048047066, -0.036681987345, -0.065481849015, -0.021264277399, -0.006165802479, -0.064216993749, -0.014265324920, -0.054602690041, -0.064816616476, -0.027689587325, -0.007987290621, 0.051154941320, -0.017213638872, 0.008134759963, -0.025476142764, -0.050676070154, 0.025080844760, 0.007504306734, 0.023010417819, -0.069665320218, -0.036095507443, 0.059382855892, -0.028209168464, 0.032401762903, 0.029151611030, -0.007176645100, -0.064363658428, 0.058149427176, -0.004681445658, 0.063277304173, -0.026168871671, 0.022400900722, -0.031425144523, 0.003274463117, 0.023024730384, -0.012343373150, -0.054933428764, -0.005597099662, 0.071556240320, 0.071803092957, -0.048890925944, -0.035933766514, 0.038705646992, -0.064047008753, -0.039973154664, -0.001586809754, 0.000077292323, 0.016771145165, -0.038080949336, 0.006938524544, -0.056808955967, -0.000660158694, 0.037403553724, -0.056295417249, -0.032078575343, 0.031186632812, -0.038853604347, -0.069227024913, -0.053411729634, 0.006137154996, -0.003335095942, 0.067321419716, 0.060785964131, 0.002303071320, 0.000356152654, -0.060439176857, -0.056588649750, 0.052743121982, -0.001817010343, 0.013810046017, -0.017614461482, 0.033798180521, 0.052186034620, 0.011938303709, -0.059606820345, 0.053995907307, 0.000807017088, -0.038492560387, -0.022282414138, 0.014261767268, 0.041759729385, 0.033361226320, -0.013776149601, -0.022912237793, 0.010459825397, 0.002125300467, -0.011688206345, 0.054021507502, -0.065407119691, 0.058205857873, -0.004036463797, -0.071467675269, 0.028403893113, 0.044935211539, 0.025694437325, -0.049008619040, 0.011143282056, 0.061767131090, 0.028688043356, 0.000199526548, -0.061964917928, 0.022235065699, 0.050352744758, -0.060809321702, -0.018139496446, 0.026559866965, -0.040101770312, 0.017878428102, -0.071579292417, -0.010621979833, 0.016459725797, -0.038177426904, 0.060022622347, -0.016021512449, -0.020222656429, -0.004943430424, -0.025873713195, -0.001371845603, 0.057981759310, -0.009660333395, 0.021859124303, -0.046151772141, 0.033891297877, 0.058916896582, 0.041276864707, 0.017631739378, 0.047735534608, 0.045410491526, -0.030462171882, -0.025428257883, -0.054757766426, -0.005562119186, 0.008401684463, 0.019390076399, 0.020735546947, -0.058427769691, 0.005735985935, -0.058041296899, 0.006379336119, -0.013322245330, -0.039436072111, 0.055087372661, -0.039946965873, -0.024576146156, -0.013992950320, 0.027388356626, 0.018762573600, 0.051498860121, -0.045147404075, -0.037934679538, 0.003887124360, -0.005089178681, 0.036689266562, -0.015162795782, -0.045614849776, -0.008598409593, 0.029424764216, 0.067549064755, -0.047602601349, -0.048715561628, -0.009188823402, 0.061103343964, 0.003834284842, -0.015546150506, -0.001606993377, 0.041750192642, -0.070179603994, -0.002358630300, -0.030039686710, 0.002689339221, -0.069462284446, 0.009175866842, -0.030507426709, -0.033294979483, 0.012411959469, 0.038584753871, -0.011301029474, -0.025303285569, -0.058876752853, -0.007134884596, -0.034307487309, -0.069268062711, -0.002179652452, 0.026309341192, -0.001547731459, -0.033069729805, -0.063861384988, 0.017970651388, -0.022120967507, -0.052621562034, -0.020086091012, 0.049238376319, 0.022239997983, -0.040167428553, -0.052091468126, -0.006505437195, 0.052663944662, 0.005934029818, 0.021933794022, 0.060283631086, 0.015119671822, -0.010048437864, 0.047862671316, -0.047190405428, -0.067786045372, -0.020901948214, -0.064273856580, -0.061034932733, -0.070252045989, 0.033676341176, -0.010171309114, 0.049965776503, 0.007865950465, 0.017911687493, -0.065710641444, -0.041310381144, -0.017757620662, 0.000962786376, 0.016627073288, 0.032607138157, -0.018106065691, -0.019556820393, 0.065886974335, -0.049501858652, 0.010035134852, -0.039335329086, -0.049402676523, 0.015569552779, 0.067743778229, -0.027514118701, 0.007745504379, -0.023221023381, -0.051142759621, 0.067599609494, -0.015563204885, -0.049852058291, 0.035052388906, 0.036670885980, 0.034940250218, -0.021094676107, -0.011118005961, 0.056261777878, -0.009313695133, -0.059487991035, 0.002276562154, -0.008185110986, 0.004384405911, 0.045914202929, -0.028273124248, -0.048091776669, -0.032803978771, -0.029592234641, 0.004030749202, 0.068252012134, 0.051641277969, -0.032615635544, 0.054490670562, -0.007390692830, 0.050851561129, 0.010603807867, 0.069957092404, -0.014922231436, -0.037285223603, 0.070083662868, -0.046438604593, 0.060969054699, 0.009462147951, 0.030981682241, -0.046490892768, 0.067045837641, -0.004532799125, -0.069022014737, -0.008008226752, -0.013607371598, -0.007828094065, 0.020971462131, 0.025824315846, -0.018238022923, -0.061967309564, 0.057334899902, -0.021105568856, 0.009740836918, -0.022954188287, -0.040572158992, 0.065596014261, -0.028687816113, -0.054856121540, 0.028617784381, -0.002454660833, 0.013716325164, 0.054380178452, 0.041178628802, -0.007233679295, 0.017442584038, 0.047773420811, 0.057325765491, 0.059865951538, 0.013695642352, -0.018030960113, 0.033463276923, 0.058470502496, 0.070893973112, -0.013708803803, 0.033096380532, -0.029044229537, -0.059060789645, 0.019392140210, -0.061504699290, 0.005158849061, 0.043098449707, 0.003009587526, -0.038860108703, -0.050602633506, -0.040219254792, -0.058026205748, 0.010492794216, -0.007861234248, -0.025736235082, -0.024752922356, -0.054982312024, 0.056635454297, -0.011018190533, 0.053575843573, 0.052749477327, -0.041270289570, -0.000389464200, -0.001088753343, -0.067056663334, 0.027269326150, 0.016115598381, 0.065052896738, 0.055995851755, 0.032010301948, 0.014676079154, 0.061035946012, -0.039268001914, -0.003777526319, -0.002629205585, 0.030621640384, -0.059336025268, 0.031764678657, -0.022543385625, 0.061212420464, -0.048402506858, -0.051459975541, 0.068727597594, -0.041999980807, 0.002229258418, 0.067469239235, 0.000448964536, -0.065790325403, -0.007086962461, 0.057803809643, 0.003268279135, -0.048930484802, 0.017857469618, 0.039931975305, 0.044333457947, 0.034147143364, 0.057461410761, 0.046293780208, 0.065110743046, -0.005784869194, -0.021049696952, 0.017809063196, -0.062605991960, -0.072031423450, 0.034662403166, -0.044312015176, 0.070272341371, 0.036497622728, 0.005514957011, -0.002355068922, 0.037142686546, 0.031404443085, 0.017089150846, 0.042315080762, -0.006345368922, -0.023394051939, -0.008198663592, 0.038592495024, 0.047757387161, 0.045951008797, -0.007126145065, -0.053415223956, -0.019382003695, 0.036279343069, 0.054746821523, 0.057009577751, -0.063983999193, 0.056257113814, -0.059229139239, 0.043530791998, -0.037826228887, 0.033982962370, 0.071418926120, 0.038535386324, 0.013508662581, -0.017101403326, 0.064376085997, -0.017755605280, -0.037334933877, -0.029781609774, -0.055072613060, -0.006040915847, 0.068579629064, 0.028594486415, 0.051498085260, -0.058988627046, 0.063919126987, -0.038225568831, 0.005446091294, 0.000967152417, 0.012528873980, -0.018162157387, 0.003905363381, -0.033230919391, 0.068108767271, 0.066701501608, 0.028966866434, 0.039407938719, -0.020572859794, 0.025470569730, 0.051561459899, -0.060602448881, 0.020927913487, 0.009798549116, -0.020485725254, -0.042704582214, -0.033180952072, 0.056021794677, -0.022707052529, 0.060218632221, 0.050446294248, -0.027717083693, 0.022430270910, 0.006934463978, -0.068250790238, -0.012325048447, -0.009097337723, -0.047338876873, -0.060330208391, -0.063300721347, 0.052092343569, 0.015716388822, -0.048122387379, 0.025109991431, -0.046850182116, -0.030330888927, -0.032040875405, -0.039532516152, -0.009228229523, -0.050150915980, 0.023022338748, -0.052564557642, -0.066242247820, 0.060705810785, 0.016170158982, -0.005539886653, -0.048263341188, -0.017697449774, 0.056514054537, 0.043694444001, 0.052304431796, 0.046935476363, 0.030096814036, -0.010768510401, 0.022400639951, -0.016781758517, 0.001450397074, 0.051841974258, 0.061353489757, -0.060265220702, 0.058215737343, 0.027655087411, -0.035558048636, -0.016201283783, -0.023434486240, -0.046423032880, -0.005216889083, -0.067352458835, -0.049694359303, 0.053078070283, -0.048517361283, 0.057327374816, -0.011749617755, 0.011822313070, 0.040022984147, -0.015863146633, -0.008257634938, 0.052526116371, -0.049297824502, 0.067563980818, -0.063509739935, 0.021681293845, -0.010141834617, 0.023055620492, 0.050662115216, -0.067327454686, -0.066186226904, -0.002877660096, -0.049075912684, -0.068809233606, -0.070761851966, 0.069300279021, 0.002873651683, -0.050156507641, 0.062780067325, -0.067652642727, 0.012700133026, 0.019215807319, 0.071759566665, -0.051620546728, -0.010521959513, 0.050339706242, 0.048225194216, 0.017920389771, 0.041970588267, 0.031988054514, 0.001886092126, -0.002478495240, 0.032893523574, -0.069222413003, 0.018165275455, -0.027539633214, -0.008756466210, 0.035836845636, -0.012073475868, 0.053411737084, 0.048368901014, 0.060138732195, -0.061772808433, 0.050597026944, -0.058000050485, 0.059929788113, -0.014249686152, 0.035152629018, -0.022601783276, 0.018171519041, -0.020853355527, -0.042611375451, -0.020296953619, 0.032151751220, -0.035480465740, 0.015659146011, -0.058118466288, 0.023771248758, -0.055443115532, 0.058892995119, 0.057847142220, -0.059825699776, 0.024412602186, 0.015180893242, 0.069948390126, -0.003500565886, -0.014699097723, -0.040701154619, 0.020389281213, -0.036452401429, -0.058474518359, 0.047332391143, 0.068537443876, 0.062085777521, 0.056279122829, -0.022551782429, -0.038903828710, -0.026118423790, 0.039222560823, -0.002403177321, -0.056527890265, -0.027339715511, 0.051477685571, -0.070524401963, 0.019906319678, 0.030150234699, -0.054115936160, -0.061956193298, -0.009352974594, 0.070559263229, -0.004113376141, 0.051217518747, 0.066212385893, 0.021558679640, 0.063509926200, 0.039473414421, 0.066439554095, 0.054497107863, -0.045287035406, 0.031874865294, -0.047542136163, -0.063528515399, -0.000060632825, 0.022025249898, -0.013603776693, 0.064166024327, 0.063429832458, 0.000466652215, 0.026069112122, -0.000773206353, -0.038057584316, 0.007803089917, -0.039914753288, -0.027264177799, -0.054088287055, 0.029135420918, 0.054392755032, -0.044880792499, 0.068775117397, -0.056806892157, 0.004180304706, 0.066703692079, -0.045727342367, 0.055410012603, 0.039177976549, -0.014883808792, 0.015686333179, -0.068867616355, 0.021048218012, 0.068839594722, -0.047338277102, -0.030076079071, -0.050727069378, -0.060587134212, 0.039145082235, -0.047712702304, -0.059425927699, -0.057985961437, -0.038523826748, -0.008233472705, -0.064493000507, -0.018285598606, 0.059514284134, -0.003249719739, -0.068213015795, 0.019167736173, 0.058729097247, -0.019371319562, 0.052156127989, -0.038440287113, 0.039613559842, 0.065452501178, 0.021729141474, 0.023991867900, -0.064671121538, -0.037053145468, -0.070034228265, -0.023433830589, 0.015679709613, -0.058115299791, 0.037125565112, -0.004383705556, -0.065621614456, 0.062995672226, -0.002767115831, -0.006765753031, -0.059366412461, 0.005443908274, -0.027507647872, -0.006850376725, 0.041866511106, 0.053856149316, 0.019262537360, 0.032159015536, -0.071052119136, 0.042289718986, 0.070383071899, -0.019981492311, 0.069825842977, 0.017732374370, 0.027716808021, -0.052718229592, 0.033850729465, -0.050501599908, 0.017460927367, 0.007363349199, -0.071278557181, 0.047781512141, -0.034286461771, -0.019991986454, 0.007546596229, -0.031050302088, -0.010450277478, -0.000644616783, 0.026907406747, 0.014257721603, -0.013257049024, 0.012434378266, 0.016440160573, 0.018537431955, 0.037276141346, -0.006022423506, -0.014994498342, -0.000507280231, -0.055511839688, 0.030165292323, -0.012694194913, 0.056813433766, -0.001844905317, -0.012594673783, -0.058492586017, 0.036169938743, 0.017570309341, -0.021113965660, -0.021075386554, 0.030365675688, -0.015404440463, -0.059668209404, -0.021323539317, -0.066596806049, -0.017912030220, -0.041791625321, 0.038424439728, -0.002272740006, 0.000457018614, -0.035432595760, -0.011457830667, 0.017139688134, -0.053778722882, 0.057687312365, -0.009033851326, -0.008426375687, 0.061180472374, -0.063097834587, -0.004732787609, 0.004694677889, -0.059105373919, -0.066730156541, 0.013578496873, 0.037737645209, -0.011197239161, -0.038704853505, 0.008769571781, 0.023724481463, -0.000419527292, -0.030418898910, -0.027055844665, -0.023016851395, 0.031185925007, -0.010461099446, -0.039222851396, 0.048292972147, 0.001066364348, 0.001112200320, -0.020437289029, -0.055494405329, 0.050808094442, -0.062454972416, -0.013839349151, 0.005284868181, 0.049953043461, -0.052571903914, 0.009181909263, -0.025707483292, -0.070176988840, 0.008934289217, 0.016149371862, -0.047826986760, -0.058715082705, -0.005413658917, 0.043524563313, -0.046747665852, -0.004789069295, 0.057716563344, 0.019397489727, -0.067490398884, -0.002345643938, 0.053154394031, 0.031590513885, -0.071540057659, 0.071248143911, -0.006583936512, 0.000743262470, 0.001955986023, 0.032905407250, 0.006348893046, 0.012076504529, 0.046053528786, 0.044705271721, 0.004357345402, 0.007382325828, -0.017164722085, -0.050821721554, -0.033100858331, 0.063005715609, 0.041813373566, -0.042170837522, -0.014180723578, -0.043935939670, 0.062757715583, -0.029122706503, -0.068042710423, -0.035246852785, -0.034417178482, -0.051659397781, -0.016628984362, 0.044225417078, -0.057350203395, 0.009120292962, 0.069850474596, -0.018363904208, 0.060308799148, -0.067310117185, -0.057682197541, 0.070814862847, 0.055203020573, 0.064519003034, 0.017085827887, -0.027455393225, 0.004375979304, 0.033002026379, 0.020850397646, -0.042795360088, -0.026963993907, -0.005608282983, -0.021547719836, -0.009560793638, -0.051966514438, 0.034066580236, 0.057959809899, 0.042651601136, -0.019160144031, -0.006964281201, 0.030206777155, -0.006324410439, -0.022166322917, -0.021161418408, -0.000008843839, -0.012349259108, 0.031364403665, -0.050716936588, -0.059364106506, 0.020332470536, 0.024116359651, 0.043282248080, 0.038586422801, 0.069100961089, 0.012785471976, -0.056843973696, 0.010535553098, -0.064021736383, 0.029401861131, -0.063057385385, 0.061179712415, -0.053141266108, 0.059801176190, -0.040345586836, 0.020139947534, 0.018854439259, 0.039037697017, 0.036049872637, -0.058401923627, -0.070358261466, -0.050100587308, 0.028391554952, -0.063437476754, 0.007910117507, 0.059319898486, -0.021874364465, 0.053228050470, 0.022325828671, 0.001123197377, -0.042855393142, -0.000507056713, -0.002253070474, -0.026911154389, -0.044500097632, 0.002326458693, -0.064983293414, -0.013260766864, -0.028790261596, 0.011832118034, -0.025054860860, -0.059781894088, 0.033718720078, -0.030926398933, -0.051517531276, 0.026227839291, 0.032448187470, 0.060564711690, 0.007834032178, -0.038525976241, 0.025350242853, -0.016413748264, 0.043586805463, 0.023387201130, -0.013365432620, -0.038713302463, -0.011823929846, -0.014070637524, -0.069283545017, 0.068845838308, 0.052011594176, -0.030534595251, 0.009586036205, -0.036283951253, -0.011191785336, -0.057345263660, 0.062380209565, 0.071312874556, 0.028062395751, 0.035669937730, 0.043410092592, 0.011786319315, 0.048330172896, 0.012249544263, -0.035093355924, 0.023168340325, -0.020734149963, -0.056938245893, -0.051384046674, 0.039442837238, -0.034594472498, 0.016025833786, -0.047180339694, -0.035268843174, 0.002492003143, 0.005467377603, 0.045326776803, 0.034526370466, -0.061551570892, 0.027416020632, 0.031621679664, -0.063237912953, -0.003444060683, -0.022642716765, 0.010436080396, 0.039988413453, 0.029397472739, -0.061217300594, -0.045196820050, -0.006500452757, 0.015289999545, -0.021189894527, 0.048925325274, -0.018192045391, 0.036016218364, 0.055956885219, 0.070162400603, 0.032408453524, -0.057937182486, -0.056472830474, -0.033162508160, 0.007696792483, 0.059477612376, 0.001403369009, 0.049173921347, 0.016803115606, -0.054244760424, 0.047879539430, -0.070690803230, -0.047581329942, 0.030916228890, -0.032258898020, 0.015175752342, -0.019175354391, -0.068253457546, -0.014081459492, -0.069687709212, -0.000549793243, -0.041397616267, 0.056232437491, 0.014401584864, -0.035559803247, 0.010304041207, 0.067406252027, 0.035284809768, -0.013816688210, -0.030711114407, -0.018190994859, -0.001690059900, -0.055968046188, -0.065816603601, -0.041850075126, -0.039940737188, 0.055649846792, -0.028585232794, 0.065270900726, -0.041152201593, 0.058712184429, -0.014803420752, 0.054157465696, 0.055298715830, -0.011740617454, -0.033412791789, -0.051540572196, 0.019830211997, 0.027023009956, 0.007028974593, 0.063374787569, 0.020596444607, 0.023869134486, 0.001076601446, 0.062812000513, -0.050528716296, -0.017506320029, -0.021479118615, 0.049927286804, -0.051610328257, -0.024576198310, -0.001997731626, 0.013674683869, -0.020203694701, -0.021208927035, 0.057377621531, 0.059229433537, 0.019599251449, -0.031940460205, 0.018016576767, 0.042813889682, 0.026785619557, -0.044350352138, 0.067770287395, -0.064610332251, 0.041161835194, 0.053648591042, 0.056616544724, 0.028909176588, -0.048887379467, 0.041909679770, 0.069446787238, 0.040634460747, 0.048741817474, -0.048587627709, -0.018875863403, -0.015987340361, 0.052280910313, 0.058421194553, -0.001364417374, 0.060064390302, 0.059396952391, -0.027129091322, 0.020304232836, -0.004093982279, 0.035316318274, -0.002934925258, -0.004888415337, -0.071423314512, 0.034221902490, -0.005143724382, -0.021770164371, 0.036084510386, -0.009996801615, -0.040742415935, -0.062032382935, -0.051426682621, -0.052659757435, 0.053820177913, -0.049587149173, -0.055792491883, -0.029169145972, 0.036690883338, 0.024184525013, 0.052961304784, 0.003782324493, -0.036354787648, -0.009529583156, 0.051993377507, 0.027357973158, -0.032252788544, -0.020902480930, 0.065762817860, 0.000342734158, 0.039060369134, -0.069619156420, -0.051235638559, 0.009613394737, -0.002467535436, -0.000384837389, -0.001445442438, -0.006995409727, 0.033521242440, -0.053298339248, -0.001607075334, -0.064424604177, -0.049365773797, 0.050096184015, -0.059971079230, -0.070160485804, -0.055381394923, 0.000365808606, -0.039755854756, -0.028793513775, 0.006822086871, 0.057418361306, -0.069877959788, -0.055981159210, -0.037934385240, -0.000049971044, 0.038532033563, 0.056152731180, -0.007494822145, -0.026380371302, -0.022021997720, 0.034216962755, -0.067932829261, -0.022838231176, -0.009562514722, 0.008325152099, -0.027770388871, -0.033760223538, -0.014239154756, 0.004479490221, 0.062822625041, -0.033091548830, 0.027499370277, 0.064358606935, -0.047014433891, -0.029456254095, 0.023795560002, -0.015143401921, -0.065495319664, 0.069281637669, -0.062479112297, -0.010019671172, -0.002234816551, -0.012927480042, 0.058038845658, 0.050225347281, 0.038584545255, 0.071611210704, -0.034839872271, -0.007793471217, -0.058431535959, -0.023245111108, 0.014835856855, 0.054326936603, 0.039498016238, -0.024281229824, 0.029932007194, 0.011091232300, -0.001469679177, -0.048451267183, -0.053597591817, 0.025225512683, 0.018448315561, -0.052024446428, 0.054763719440, -0.063216611743, -0.049317128956, -0.039888031781, 0.041295617819, 0.071979612112, 0.060366451740, -0.004416599870, -0.047508344054, 0.018012993038, 0.032748267055, -0.047094926238, -0.003250718117, 0.066280633211, -0.007519409060, -0.050660826266, -0.004597164690, -0.009795092046, 0.067384302616, 0.040408164263, -0.016942035407, 0.006899192929, 0.017111316323, 0.055625423789, 0.041112042964, 0.000202812254, 0.019807912409, 0.042039103806, -0.032443057746, 0.038704805076, 0.059335291386, 0.042716935277, -0.004713654518, -0.011059157550, 0.052842199802, 0.046783141792, -0.040420293808, -0.048880755901, -0.058813001961, -0.059580270201, 0.036735996604, -0.054789651185, 0.056721821427, -0.007898554206, -0.052939433604, 0.069149419665, 0.061494439840, -0.037605814636, -0.055889878422, 0.032189466059, -0.054798461497, -0.015932537615, 0.062305778265, 0.032150529325, -0.000791303813, 0.019493706524, 0.016328766942, -0.057848483324, 0.068481951952, -0.005772396922, 0.020237572491, -0.020541612059, -0.069588273764, 0.069136157632, 0.029122911394, -0.035473391414, 0.056698769331, -0.011155497283, -0.047612767667, 0.006398260593, 0.007985532284, 0.031921051443, -0.002181716263, -0.059782512486, 0.072055861354, 0.011711642146, 0.042391076684, -0.042896226048, -0.039125926793, -0.023877635598, -0.052009098232, 0.022357657552, 0.052990287542, -0.055565334857, 0.016793563962, -0.056994631886, 0.044634565711, 0.003371283412, -0.023671641946, 0.066048651934, 0.041614159942, -0.017980873585, 0.052705302835, 0.022643886507, 0.011301077902, -0.032723400742, -0.034592717886, 0.051284231246, -0.026343911886, -0.061030782759, 0.042072728276, -0.060414157808, -0.010285403579, -0.017741274089, -0.000513218343, 0.066441312432, 0.023795165122, 0.056691065431, -0.071849808097, 0.003399498761, 0.058943510056, 0.003282427788, -0.043914325535, 0.066923469305, -0.051892563701, 0.019892022014, 0.020723879337, 0.044868022203, 0.051086805761, 0.043167583644, -0.018965642899, 0.013751029968, -0.058350149542, 0.005611859262, -0.014381382614, -0.053306031972, 0.015025295317, 0.055878400803, -0.065330311656, -0.005000382662, 0.026176512241, -0.004434905946, 0.058228462934, 0.061660468578, -0.028260014951, -0.059060513973, -0.051630593836, -0.038502834737, -0.053775679320, 0.034543178976, 0.063656702638, 0.039732009172, 0.023007079959, 0.054836317897, 0.024801425636, -0.017354335636, -0.051244035363, -0.031206261367, 0.017624765635, -0.010078601539, 0.048060767353, 0.037176616490, -0.036361999810, 0.044288992882, 0.072090402246, -0.043515913188, 0.026730522513, 0.060119718313, -0.062564335763, 0.022117197514, -0.016487047076, 0.048524774611, 0.020634628832, -0.069572687149, -0.061769902706, 0.003205895424, 0.009004853666, 0.022778488696, 0.008298724890, -0.008828319609, -0.022405717522, 0.047096177936, -0.056689649820, -0.010799031705, -0.058313675225, -0.034404635429, -0.014805935323, 0.063232168555, -0.018416743726, -0.056991707534, 0.048419967294, -0.022111196071, 0.008374668658, 0.000131472945, 0.057789787650, -0.025712557137, 0.040683329105, -0.008875481784, -0.036642618477, 0.056393459439, -0.031971327960, 0.059611156583, 0.004275836051, 0.031507030129, 0.027193203568, 0.008276753128, -0.064927272499, 0.036083444953, -0.063426665962, 0.068566143513, -0.054423652589, -0.053813360631, -0.035207897425, -0.065965004265, -0.042643427849, 0.031472548842, 0.047607988119, -0.035811480135, 0.062136739492, 0.069131553173, 0.047665126622, 0.040137387812, 0.059262186289, -0.026600819081, -0.017833705992, 0.046242780983, -0.042729392648, 0.049630925059, 0.030563980341, 0.019523598254, 0.029341690242, -0.041231524199, 0.010823138058, -0.052869215608, -0.063876628876, 0.014021217823, -0.042864341289, -0.056393958628, -0.021146982908, 0.025659233332, -0.027555894107, -0.006369970739, 0.049897141755, 0.012291856110, -0.063822828233, -0.059767905623, 0.010458104312, 0.059563979506, 0.004560723901, 0.061928674579, -0.038960490376, 0.020692594349, 0.065879315138, 0.050108194351, -0.004595138133, 0.031486712396, -0.064451754093, -0.069943651557, -0.065330162644, 0.049157783389, -0.061589181423, -0.063170671463, -0.000434786081, -0.030498150736, 0.042021207511, -0.050819847733, -0.029805179685, -0.056026034057, 0.058369487524, 0.003583006561, 0.041317865252, -0.025542285293, 0.055799081922, -0.004265688360, 0.051904603839, 0.045896500349, -0.063713535666, 0.045176118612, -0.022160507739, -0.015022631735, 0.013267114758, -0.061258681118, -0.003613941371, 0.060411453247, 0.067806020379, 0.050536580384, 0.009655892849, 0.064120203257, -0.069214582443, 0.005958758295, 0.006128430367, -0.021010123193, -0.058069463819, -0.046837069094, -0.010449036956, -0.027278337628, -0.068888641894, -0.071558937430, -0.014942895621, -0.069693371654, -0.047077700496, -0.054154805839, 0.041201911867, 0.049336656928, 0.000724866986, 0.067269921303, 0.027285583317, 0.001539453864, 0.059147134423, 0.048452459276, 0.025763764977, 0.048110775650, -0.028405476362, -0.007308326662, 0.012395247817, 0.002770274878, -0.069300189614, -0.018059231341, 0.020908743143, 0.038731954992, -0.031911171973, 0.034431286156, -0.038668651134, -0.033672865480, 0.069314375520, -0.043564330786, -0.001366786659, -0.038920689374, -0.059641145170, -0.055463075638, 0.067220076919, -0.036709636450, 0.061854287982, -0.039473529905, 0.029787920415, -0.023172449321, -0.060947727412, -0.035393089056, -0.001125954092, -0.001102305949, 0.029203541577, -0.069908775389, -0.029218479991, 0.005412593484, 0.035812377930, -0.064737915993, 0.055802941322, 0.013373225927, 0.041417062283, -0.050141382962, -0.053196169436, -0.043449133635, 0.003417551517, -0.001932531595, -0.033606827259, -0.045409612358, -0.059897657484, 0.051667280495, -0.064146757126, 0.042546749115, -0.038080744445, -0.030352775007, 0.011330038309, -0.043505210429, -0.064734905958, 0.069084167480, -0.034972358495, -0.037095129490, 0.010513387620, -0.066038474441, -0.009548440576, -0.026816245168, -0.026035126299, 0.070489391685, 0.051967240870, -0.004640422761, -0.050549242646, -0.021686058491, 0.060887590051, 0.060265585780, 0.042714253068, -0.051852867007, 0.013358585536, -0.041779838502, 0.031562499702, 0.010471507907, 0.041935041547, -0.011616334319, -0.033298850060, 0.009940035641, -0.023927722126, 0.055419608951, -0.047024998814, -0.052994251251, -0.039664145559, 0.049669444561, -0.011682562530, 0.046896241605, 0.049007877707, -0.052408874035, 0.004536688328, 0.021933816373, -0.013303007931, 0.008405797184, -0.029838889837, 0.069798678160, 0.038209617138, -0.009487651289, 0.033184804022, 0.032957457006, -0.032789628953, 0.061570778489, -0.057726986706, -0.025538567454, 0.054735884070, -0.018419291824, -0.013134714216, 0.051575876772, -0.011791203171, -0.034037984908, -0.049679528922, -0.004124246538, 0.030634321272, -0.017867378891, -0.038800451905, 0.059813961387, 0.067798346281, -0.020300205797, -0.037969488651, 0.040270276368, 0.004669636488, -0.026555310935, 0.052836373448, -0.069989591837, 0.034581996500, -0.053155697882, 0.038225501776, -0.064142502844, 0.024958595634, 0.018084540963, 0.049619115889, -0.002531714737, 0.001454040408, -0.024702869356, -0.049269519746, -0.049884632230, 0.025608718395, -0.040805287659, 0.068695351481, 0.020976744592, -0.026161558926, -0.033702649176, -0.056728191674, 0.064130440354, 0.054651930928, -0.048911109567, -0.045367971063, -0.013133268803, 0.048722252250, 0.050230927765, 0.008529908955, -0.058996729553, -0.036901541054, -0.027010161430, -0.036393918097, 0.008892804384, -0.011613015085, 0.011224806309, 0.022585846484, -0.011358462274, -0.071842394769, 0.053458914161, -0.071805246174, -0.023852825165, -0.041012298316, -0.061261642724, -0.008961200714, -0.011642660946, 0.036945894361, 0.008487321436, -0.061460308731, -0.023017764091, -0.001573316753, -0.020967021585, 0.061215713620, 0.051652409136, -0.059746827930, -0.007347829640, -0.061516072601, -0.002282634377, -0.046739064157, -0.008037269115, -0.057478852570, -0.047920744866, -0.032054364681, -0.002598471940, 0.009260386229, 0.013184837997, 0.051174730062, -0.009881898761, -0.012861527503, 0.033223368227, 0.061090797186, 0.024672485888, -0.042386382818, 0.064208090305, 0.047938175499, 0.051602616906, 0.035769961774, -0.014601230621, 0.057502508163, -0.061434876174, -0.027420464903, 0.058482185006, 0.050478830934, 0.046027146280, 0.009212948382, -0.040514621884, -0.015850551426, -0.050453662872, 0.030884161592, -0.034660134465, -0.066585481167, -0.069386012852, 0.066981330514, -0.009329713881, -0.038150876760, -0.030285134912, -0.011739514768, -0.054690938443, -0.050616264343, -0.003072679043, 0.058833897114, -0.048493422568, 0.066028371453, -0.013416036963, 0.043717622757, 0.071005403996, -0.040137354285, 0.016187056899, 0.015559092164, 0.071002796292, -0.031166482717, 0.042964808643, 0.041328348219, 0.030833415687, -0.027541648597, -0.051651433110, -0.061371814460, -0.022179521620, 0.037233330309, 0.021598085761, 0.005217194557, 0.071000292897, -0.034054141492, 0.012635417283, -0.012671019882, -0.026091165841, 0.006754241884, -0.042851865292, -0.066138565540, 0.024834290147, 0.067331343889, -0.008827388287, -0.012068279088, -0.043327331543, 0.007873125374, 0.034758694470, 0.068213209510, 0.001440912485, 0.046173714101, 0.008602000773, 0.066698387265, -0.054984737188, -0.071960464120, 0.047197557986, -0.001984119415, 0.056554079056, 0.020514786243, 0.011917002499, -0.028784070164, -0.013577293605, -0.033792261034, 0.060167178512, 0.070513948798, 0.015084370971, 0.017917998135, -0.052830569446, -0.047642655671, 0.071915015578, -0.043462228030, -0.020057938993, 0.006671346724, 0.025479033589, 0.042195647955, 0.024660058320, 0.024387337267, 0.003760248423, 0.013672173023, -0.052669875324, 0.010101884604, 0.014255292714, 0.026342637837, 0.039515636861, 0.055206179619, -0.024079967290, -0.006892666221, 0.039379671216, -0.014975607395, 0.028093338013, 0.070367559791, -0.033097069710, 0.036416694522, 0.068275123835, -0.008522629738, -0.062114011496, 0.012306794524, 0.044369556010, -0.059985857457, -0.014893859625, -0.023261733353, 0.045982412994, 0.006675183773, 0.033494934440, -0.069904610515, 0.027894414961, -0.039939876646, 0.029778115451, 0.058144554496, -0.007613942027, -0.069707803428, 0.069888681173, 0.021899625659, 0.068440347910, -0.043425302953, -0.047065809369, -0.064747244120, 0.064368337393, 0.058085247874, 0.034580849111, -0.057488471270, -0.002098195255, 0.032086417079, -0.033267430961, 0.010545447469, -0.054261483252, 0.065011307597, 0.015630654991, 0.060517802835, -0.021623618901, 0.005814433098, 0.002279996872, -0.024775896221, -0.055265031755, 0.053109586239, -0.063636429608, 0.067579835653, -0.005877472460, 0.038961157203, -0.063923276961, -0.051370948553, 0.027216106653, 0.039397098124, 0.014358207583, -0.040957856923, -0.031696885824, 0.030443280935, 0.028348676860, 0.046495251358, 0.043666794896, -0.013842668384, -0.057480677962, -0.031505841762, 0.037514947355, 0.038459114730, 0.044788964093, 0.058572471142, 0.022962689400, 0.000473447144, -0.066541641951, 0.011836372316, 0.048629820347, 0.020123586059, 0.007246658206, -0.033107087016, 0.001602724195, 0.068583413959, -0.011252127588, -0.018339764327, -0.053899306804, -0.056497141719, 0.052439242601, 0.041964530945, 0.067339152098, -0.018972028047, 0.051772341132, -0.033527351916, 0.045187994838, -0.067139096558, 0.041956789792, 0.041058495641, 0.024076834321, -0.041187770665, -0.037080571055, 0.006410084665, 0.058102339506, 0.039634823799, -0.053309008479, 0.020574644208, -0.008990094066, -0.046025633812, -0.011511687189, 0.046258382499, 0.033585593104, 0.059736490250, 0.038281969726, -0.063558399677, -0.065656222403, -0.007029116154, -0.013912890106, 0.060914158821, 0.045577354729, 0.009178176522, -0.026207018644, -0.037309315056, -0.011651109904, 0.064850300550, 0.006938561797, 0.060604378581, -0.044329673052, -0.019270971417, -0.040158689022, -0.054722651839, -0.041978951544, 0.015173219144, -0.067242026329, 0.005024299026, 0.052804395556, 0.067254155874, -0.009511843324, 0.002505004406, 0.055790305138, -0.055053509772, 0.059598520398, 0.005955696106, -0.018488854170, 0.005967326462, -0.048331718892, -0.006688825786, 0.054450988770, 0.032443709671, 0.014161162078, -0.030927777290, -0.029052231461, -0.020958814770, -0.046493388712, -0.041196197271, -0.031688161194, -0.017962098122, 0.050702445209, -0.049246840179, 0.002413056791, 0.036665774882, 0.032352842391, 0.027004770935, -0.038564451039, -0.013403546065, 0.062295109034, -0.024234358221, 0.036808021367, -0.070635005832, -0.016580410302, -0.056265477091, -0.069702059031, 0.032142221928, 0.006306409836, 0.061412572861, 0.029724657536, -0.008974812925, -0.006473161280, -0.007837660611, 0.056601434946, 0.000634692609, -0.004345849156, 0.001067481935, 0.052767716348, -0.041778154671, -0.026780419052, 0.055992379785, 0.026793844998, 0.063455030322, 0.005029939115, -0.022567663342, 0.009547077119, -0.022374674678, 0.063766241074, -0.010013286024, 0.042402587831, -0.010585207492, -0.021592475474, 0.032571844757, -0.055013541132, 0.042989775538, 0.045210175216, 0.012622907758, -0.059531420469, 0.016791306436, -0.017143093050, 0.055288687348, -0.060775596648, 0.020388633013, -0.026900280267, -0.011947661638, -0.018334101886, -0.012706447393, 0.052821516991, 0.026573739946, -0.052340343595, 0.060904592276, -0.014012340456, -0.068274945021, -0.046827193350, -0.023038189858, -0.001831725240, 0.019378907979, -0.006559550762, -0.037820376456, 0.067885443568, -0.029727634043, 0.054253473878, -0.051788240671, 0.017122156918, 0.048016704619, 0.029199913144, 0.067889824510, -0.046172026545, -0.014831982553, -0.001395091414, -0.028078936040, 0.019816190004, -0.042477697134, 0.003832787275, -0.033857747912, -0.046220824122, 0.050192244351, 0.060594260693, 0.021274343133, -0.038020540029, -0.042386639863, -0.005257152021, 0.026335254312, -0.037741262466, -0.051323562860, -0.005085602403, 0.071738868952, -0.029604107141, 0.041337415576, 0.043689750135, 0.045170083642, 0.046712271869, 0.071091234684, 0.056687161326, 0.062784016132, 0.060954004526, -0.018150232732, 0.017833188176, 0.046275608242, 0.022756725550, -0.068908520043, -0.034975472838, 0.064045354724, 0.050147816539, 0.044050291181, -0.062736816704, -0.053104564548, -0.030584715307, -0.062104098499, -0.063520200551, -0.023989424109, 0.030977897346, 0.033054299653, 0.050554111600, 0.053085118532, -0.026743032038, 0.066012546420, 0.058437496424, -0.043875940144, 0.015743061900, -0.028956994414, -0.011503908783, -0.052776180208, -0.003233097494, -0.000231496990, -0.038500495255, -0.009476445615, -0.004332996905, -0.004511736333, -0.065353356302, -0.003452718258, 0.007295899093, -0.070599958301, 0.046401865780, 0.054399877787, 0.070025414228, 0.015121862292, -0.015759907663, 0.039642170072, -0.069983586669, -0.071123771369, -0.030785977840, -0.066613808274, 0.038560114801, 0.049608275294, 0.069067299366, -0.051888380200, 0.052205733955, -0.045626461506, -0.044370759279, 0.058319270611, 0.066121175885, -0.018109608442, -0.013158526272, 0.068479403853, 0.024805299938, 0.039846614003, -0.020619712770, 0.050255939364, 0.038540534675, -0.007441259921, -0.009216703475, 0.000973209739, 0.048858731985, 0.005936130881, 0.052679702640, 0.062817990780, 0.062660470605, -0.010962821543, -0.048017218709, -0.004599623382, 0.041950352490, -0.016053136438, -0.000182732940, 0.006224565208, -0.024793256074, 0.026619181037, 0.053779944777, -0.048812344670, 0.043128885329, 0.057441040874, -0.017890676856, 0.056517258286, -0.004995182157, -0.041833575815, -0.030196264386, 0.045485436916, -0.025829922408, 0.016255281866, 0.040682211518, -0.044716760516, 0.070608496666, -0.005255810916, -0.015546083450, -0.026919275522, -0.042928349227, 0.000898376107, 0.061239823699, 0.051715046167, 0.003662049770, -0.033195648342, -0.056440982968, -0.035909317434, -0.003732047975, -0.068153962493, 0.024566151202, 0.022818669677, -0.027926847339, 0.029966540635, -0.019609369338, -0.063765101135, -0.019524145871, 0.018280863762, 0.050594650209, 0.032515063882, -0.019873712212, -0.037957873195, -0.035516306758, -0.033749055117, -0.049333214760, 0.020392842591, 0.005318753421, -0.033792708069, -0.031873162836, 0.033458076417, 0.028683066368, 0.062118798494, -0.069006301463, 0.041507117450, 0.027259826660, -0.025518178940, 0.019471392035, 0.056947037578, 0.054726123810, -0.055591572076, -0.008781015873, -0.021430924535, -0.010925002396, -0.054766148329, 0.009683631361, 0.060091257095, -0.071746073663, -0.050517529249, -0.008794888854, 0.036164231598, -0.044241145253, -0.050690885633, 0.003932312131, -0.045052923262, 0.033246248960, -0.035209465772, -0.007581166923, 0.063920646906, 0.068486541510, 0.069502070546, -0.039804928005, 0.016187757254, -0.012056957930, -0.047868713737, 0.041760809720, -0.056044653058, 0.028530672193, -0.067620843649, -0.024500936270, -0.044806666672, -0.021633047611, -0.039818294346, 0.025704488158, -0.064841136336, -0.022977259010, 0.056793913245, -0.041140880436, 0.067159190774, -0.034080021083, 0.010329417884, 0.051707230508, 0.004697337747, 0.026335500181, 0.009309820831, 0.013811454177, -0.063890226185, 0.030677922070, -0.056191556156, 0.071992039680, -0.028744254261, -0.065794490278, -0.069693282247, 0.057215496898, -0.010683938861, -0.061459653080, -0.041221562773, -0.069648653269, 0.011169262230, 0.055971249938, 0.046889550984, 0.040104232728, 0.064419150352, -0.036236617714, 0.026580274105, -0.064871795475, 0.028782881796, -0.028173759580, 0.019372589886, -0.026871010661, 0.016184195876, -0.054240167141, 0.037323459983, 0.034546867013, 0.063715770841, -0.001030489802, 0.061446174979, 0.037997826934, -0.036957994103, -0.008720606565, -0.022864781320, -0.026053760201, -0.050954557955, -0.044897790998, 0.031244911253, -0.003180131316, -0.061267938465, 0.028796389699, 0.067649886012, -0.057483807206, -0.056905847043, -0.003012046218, 0.037928864360, -0.061754036695, -0.009233444929, 0.064994111657, -0.050930175930, 0.006711021066, -0.033273659647, 0.034842312336, -0.012874551117, 0.004123218358, 0.065826267004, 0.046661809087, -0.017920047045, -0.005256652832, -0.001537851989, -0.039000578225, -0.036520536989, 0.037441909313, -0.019537016749, -0.055956177413, -0.015373744071, 0.058838874102, -0.033284690231, 0.042991459370, -0.045909717679, -0.066502496600, 0.006263703108, 0.001255311072, -0.042340353131, -0.055646941066, 0.050948239863, 0.044974684715, 0.044941268861, 0.049005329609, -0.024959608912, 0.067866951227, 0.058558031917, -0.049597144127, -0.025261338800, -0.001288950443, -0.019996099174, -0.002653293312, 0.060899928212, 0.054009690881, -0.066802993417, 0.033650465310, 0.035354889929, -0.061454027891, 0.027810238302, -0.028892934322, 0.058816879988, 0.067227795720, 0.063372775912, -0.010366566479, 0.049366869032, -0.031891729683, -0.036592528224, 0.020159609616, 0.014113552868, -0.069226682186, 0.060337573290, -0.048888172954, 0.038491874933, -0.049848858267, 0.008120290935, 0.037134513259, 0.007933259010, -0.012988835573, -0.007528014481, -0.020896561444, -0.047581605613, 0.044831290841, -0.026467315853, 0.044141791761, 0.018553897738, -0.010278813541, -0.058415360749, -0.057733647525, -0.019408829510, 0.006253622472, 0.025417760015, 0.062591820955, -0.030882935971, -0.008278146386, 0.069081053138, -0.034763921052, -0.034376226366, 0.063690885901, -0.016774844378, -0.058235693723, 0.046598829329, -0.013581044972, 0.047819912434, 0.064237073064, -0.068649612367, -0.035768311471, 0.043633826077, 0.005845710635, -0.046648524702, -0.011038821191, -0.000996612012, 0.051656574011, 0.035042271018, -0.060893442482, -0.021453652531, -0.070883326232, -0.007128946483, -0.006694316864, -0.038818914443, 0.066006213427, 0.062419533730, 0.007640093565, 0.016583286226, 0.004218176007, -0.010507710278, -0.051947809756, 0.019194126129, -0.053134672344, -0.068865880370, 0.044855132699, -0.053499482572, 0.006909184158, -0.040600307286, -0.008161790669, 0.040700279176, 0.006124213338, 0.040073312819, 0.047459736466, -0.004310056567, 0.031622946262, 0.068464621902, -0.071602076292, 0.023362599313, -0.027696885169, 0.010386012495, 0.018241114914, -0.022049337626, -0.012346524745, 0.040247254074, 0.035290285945, -0.055824287236, 0.050126709044, -0.001940451562, 0.017371058464, -0.039912242442, 0.004118241370, -0.007637843490, 0.037229456007, 0.044949218631, -0.036050580442, 0.035236544907, 0.034572966397, 0.043401680887, -0.012853045017, -0.068640924990, 0.070764690638, 0.052387505770, -0.029271543026, 0.012078173459, -0.011779777706, -0.012722242624, -0.042324990034, 0.006839022040, -0.011052895337, 0.022286474705, 0.043155267835, 0.070734456182, -0.015925895423, 0.027528569102, -0.070522271097, -0.052318438888, -0.065170295537, -0.021918810904, 0.071322232485, -0.036528747529, 0.021134510636, -0.049517497420, -0.062421213835, 0.070715665817, -0.068206928670, -0.066375225782, -0.034330699593, -0.067791014910, 0.006486959755, -0.001010581851, 0.015557162464, 0.066219881177, 0.021322555840, 0.070776790380, 0.019395701587, 0.001125022769, -0.066619209945, 0.068803161383, -0.019866794348, 0.004219815135, 0.027409091592, 0.070611611009, -0.056456521153, -0.041393898427, -0.058382414281, 0.053788349032, -0.050082415342, -0.024403065443, -0.050097525120, 0.042832389474, 0.067433848977, 0.024182789028, 0.022484950721, -0.003101862967, 0.046621970832, -0.008279122412, 0.058074161410, 0.027996912599, -0.022915095091, -0.018060039729, 0.016602844000, -0.056968152523, -0.014489404857, -0.030745096505, 0.001571804285, 0.054086208344, 0.036086648703, -0.069612070918, -0.029387116432, 0.041667237878, 0.046822272241, -0.015282463282, 0.038914993405, -0.067993946373, 0.003273271024, -0.034540463239, -0.066239908338, -0.045545026660, 0.047484375536, -0.038856457919, -0.072149991989, 0.065899565816, 0.067942023277, -0.009146913886, 0.056226894259, -0.002046041191, -0.055568292737, -0.024068076164, -0.021169506013, 0.016702234745, 0.008750252426, 0.028468020260, 0.012877993286, -0.051497437060, 0.056841909885, 0.012131996453, -0.060308940709, -0.006829731166, -0.016121465713, 0.019165046513, 0.004707649350, -0.015313573182, -0.013558283448, 0.055157572031, -0.066099077463, -0.061037030071, -0.021427877247, 0.067003339529, 0.016552604735, 0.001391291618, 0.044789731503, -0.041164487600, -0.071586281061, -0.018354542553, 0.065209031105, 0.059445485473, -0.029533956200, 0.006458878517, -0.036277912557, -0.029838096350, 0.070127338171, 0.063994243741, 0.048461973667, -0.000608384609, 0.035035125911, 0.031151682138, 0.034128576517, 0.057237118483, -0.029860429466, -0.029846340418, -0.065096788108, 0.047488898039, 0.070358082652, 0.021955147386, 0.025047823787, 0.044505521655, 0.057954847813, -0.015706583858, 0.016185402870, 0.028933830559, 0.004900977015, -0.019168008119, 0.054336696863, -0.045694909990, 0.020659305155, 0.002908550203, -0.062790945172, 0.046722799540, -0.007113061845, -0.065295949578, 0.012928634882, 0.006446748972, 0.017672829330, -0.037688989192, -0.025788471103, -0.034539259970, 0.024337634444, 0.067933306098, 0.054304420948, -0.053555436432, 0.041859760880, -0.059725061059, 0.014730826020, -0.041100069880, -0.050040021539, -0.045340888202, -0.070495583117, -0.065323688090, -0.033715538681, 0.053512334824, -0.044892095029, 0.020271331072, -0.019306812435, 0.031680643559, -0.035137902945, 0.054482445121, -0.015504170209, 0.023195005953, 0.047883443534, -0.018142353743, -0.051740460098, -0.035731934011, 0.039462901652, -0.057704463601, 0.003842391074, 0.044834680855, -0.058683317155, 0.065908595920, 0.030670076609, -0.018009178340, -0.007760629058, 0.041649930179, -0.003971613944, -0.024786219001, 0.053584069014, 0.054433554411, 0.061280637980, 0.011342458427, 0.014879852533, -0.055482741445, -0.004829280078, 0.059653282166, 0.002014949918, -0.029657635838, -0.048374302685, 0.001290909946, -0.020457644016, 0.026612259448, 0.014033727348, -0.039892181754, 0.031902745366, 0.012759633362, 0.046018168330, -0.037427332252, -0.038357060403, -0.070343084633, -0.031389527023, -0.028278216720, -0.026249758899, -0.051338739693, -0.065532468259, -0.071752749383, 0.027585424483, 0.040025956929, 0.061927929521, -0.045436576009, -0.048850387335, -0.036555983126, -0.030515633523, 0.062743499875, -0.049655165523, 0.018533423543, -0.062875717878, -0.053877010942, 0.037455037236, -0.056746721268, -0.035993058234, 0.010961480439, -0.037340749055, 0.066162586212, 0.024895876646, 0.024385742843, 0.029291436076, -0.064252406359, 0.051103755832, 0.048033013940, 0.035541512072, -0.071283839643, -0.056465379894, -0.010800305754, 0.052790686488, -0.026366900653, -0.055111892521, -0.010141868144, 0.000973194838, -0.027539946139, 0.003107331693, -0.057846173644, -0.071164116263, -0.062957093120, -0.032392591238, 0.049678444862, 0.043358609080, 0.008237794042, 0.024732224643, -0.014502257109, 0.047290958464, -0.044773094356, -0.042534582317, 0.057966247201, 0.007012717426, -0.012160211802, 0.040009871125, -0.019912254065, 0.007544174790, 0.031044296920, -0.032387427986, -0.050125364214, 0.000415429473, 0.053697943687, 0.057455763221, 0.066755563021, 0.047413520515, 0.040335141122, 0.011798791587, 0.046792574227, 0.037105180323, -0.054966792464, 0.013592697680, 0.071652486920, 0.016682773829, 0.061400339007, 0.024799585342, -0.022723879665, -0.016938354820, -0.009685195982, -0.019728470594, 0.007740803063, 0.061838239431, -0.058993808925, 0.064021512866, -0.034559905529, 0.070538759232, 0.036162391305, 0.009008191526, -0.042802602053, 0.065176278353, 0.032082580030, 0.035870581865, -0.002247154713, 0.060581862926, -0.012905471027, -0.043261602521, -0.069102413952, 0.010382726789, -0.030034113675, 0.044833593071, -0.057637583464, 0.043063335121, -0.036836069077, 0.061455190182, 0.017247550189, 0.002961732447, 0.005290046334, -0.008724771440, -0.061432726681, 0.032726615667, 0.052198849618, -0.011272724718, -0.045455947518, 0.057778403163, -0.034790437669, -0.006166867912, 0.071537256241, 0.021630071104, -0.021798226982, 0.037562213838, -0.043481513858, -0.059672873467, -0.071440592408, -0.002363726497, 0.044350765646, -0.069347813725, 0.071967929602, -0.045588284731, -0.023190293461, -0.034387823194, -0.044898994267, 0.034136474133, -0.029422804713, 0.051497191191, -0.024057991803, -0.064311906695, 0.058406606317, -0.031328015029, 0.011394456029, -0.050654321909, 0.051021695137, -0.000087082386, -0.039761170745, 0.068880766630, -0.061270900071, -0.043942544609, 0.064505025744, -0.046537645161, -0.003551393747, 0.053883358836, 0.071422830224, -0.045630455017, -0.040795221925, 0.062668159604, -0.067703418434, -0.067344285548, 0.060362264514, -0.026650562882, 0.015911698341, -0.013022698462, -0.005486063659, 0.014859758317, -0.032953001559, -0.062349155545, 0.006496988237, 0.070282176137, -0.030208930373, 0.026346407831, 0.012097857893, -0.026438511908, -0.023044142872, -0.015597876161, -0.052636757493, -0.000467620790, 0.010220691562, 0.000123851001, 0.020099699497, -0.065092019737, 0.061204984784, 0.030056878924, 0.021977879107, 0.001957021654, -0.070330075920, 0.027189038694, 0.051792435348, 0.022951692343, -0.013141818345, -0.041372772306, 0.043519735336, 0.000736400485, -0.014755863696, -0.039967373013, 0.045561954379, 0.058758869767, -0.030772902071, 0.045651227236, 0.055731996894, -0.020480237901, -0.044894158840, -0.018142800778, 0.027370892465, 0.040590636432, 0.021753855050, 0.046305097640, -0.054980576038, -0.038992870599, 0.061216205359, 0.051636412740, 0.025111608207, 0.025970913470, -0.015413988382, -0.012982282788, -0.031456544995, -0.026380956173, -0.000693485141, -0.061540592462, -0.023601144552, -0.048804238439, 0.071860164404, -0.070017777383, 0.051858820021, -0.011099282652, -0.041691727936, -0.000030383468, 0.045312330127, 0.070613518357, 0.012850843370, -0.067972131073, 0.022966988385, -0.028950404376, 0.050748370588, -0.050506141037, -0.061859391630, 0.069356158376, 0.071832880378, -0.004789017141, -0.022213209420, -0.029606189579, -0.018269129097, 0.047707505524, 0.036021344364, -0.054089128971, 0.053101763129, 0.066545084119, 0.025488205254, 0.053263694048, 0.035042203963, -0.002837158740, 0.070913076401, 0.065931707621, -0.005881637335, -0.048916082829, -0.071539476514, -0.023116458207, 0.010836765170, 0.056442633271, 0.053147956729, -0.021537292749, 0.049111820757, 0.024418160319, 0.020155124366, 0.010134674609, -0.069028429687, -0.029526490718, 0.057366520166, -0.065690904856, -0.058804586530, -0.046223677695, 0.072078883648, 0.052937835455, 0.018366813660, 0.054296314716, -0.002449244261, 0.025047965348, -0.019220694900, 0.046938724816, -0.019326515496, 0.028510794044, 0.021169401705, 0.006788671017, -0.052046388388, -0.018305521458, -0.011419426650, -0.053633607924, -0.018849328160, -0.037953175604, -0.048636082560, -0.044912692159, -0.017871644348, -0.041436471045, -0.069356106222, -0.026559885591, -0.060134347528, -0.041179426014, -0.070834547281, 0.000812023878, 0.037636026740, 0.022524528205, 0.068971395493, -0.032770011574, -0.001858823001, -0.007733613253, 0.029212318361, 0.031793363392, 0.036993265152, -0.022775996476, -0.048212841153, 0.055920451880, -0.062966160476, 0.052706353366, 0.069335386157, -0.054935596883, -0.019053570926, -0.064278192818, -0.028445273638, -0.022562690079, -0.049147166312, 0.020811408758, -0.045323632658, -0.008819252253, 0.054097205400, 0.024056479335, -0.033314663917, -0.064853630960, -0.039551734924, 0.020490236580, 0.054019972682, -0.035752065480, 0.033058337867, 0.035655163229, 0.048838466406, -0.021910104901, 0.029837474227, 0.063261419535, 0.002470351756, -0.049482479692, 0.058362156153, 0.010745741427, -0.048293039203, 0.066959649324, 0.047003664076, -0.058765716851, -0.067432418466, -0.044011130929, -0.036592513323, 0.031713180244, 0.032548844814, 0.064308255911, 0.036497242749, 0.019454032183, -0.036821600050, 0.013667367399, -0.064571358263, 0.066661208868, 0.016759268939, -0.043182779104, -0.026364818215, 0.064377292991, -0.001883961260, 0.005504697561, 0.061564803123, 0.063492983580, 0.026786200702, 0.019519604743, 0.033866330981, 0.001624330878, -0.030363149941, -0.013937097043, 0.027394793928, -0.041872341186, -0.022571671754, -0.053701743484, 0.012071631849, 0.047103509307, 0.034243308008, -0.015909962356, -0.071690462530, -0.057425532490, 0.052843049169, -0.035579416901, 0.049772202969, 0.001034326851, -0.023994430900, -0.053989656270, 0.070250257850, -0.001048743725, 0.015682734549, 0.039200723171, 0.035708345473, -0.027810584754, 0.009118482471, 0.070164158940, -0.050476633012, -0.054802659899, -0.027415368706, 0.066044926643, 0.004430674016, -0.005806788802, 0.009642675519, 0.004525229335, -0.033595249057, -0.021778974682, -0.044565051794, 0.006765909493, 0.048916839063, 0.032922871411, -0.039345446974, 0.014739520848, 0.049116589129, 0.057759210467, -0.058383651078, 0.047292508185, -0.049032345414, -0.040928639472, 0.039519697428, -0.065281860530, 0.034864857793, -0.005832277238, -0.044702172279, -0.047508738935, -0.034815542400, -0.000614270568, 0.027375966311, -0.051893129945, -0.069572612643, 0.043332323432, 0.012878507376, -0.028500612825, 0.053365513682, 0.033079467714, -0.032262079418, 0.057817354798, -0.018015593290, 0.040668547153, -0.007058277726, 0.060644179583, -0.011794112623, 0.066675767303, -0.003795757890, 0.051691055298, -0.063908174634, 0.007360696793, -0.011611036956, -0.016993895173, 0.005426928401, -0.009475208819, 0.037902675569, -0.048580057919, 0.063085466623, 0.066683456302, 0.040465012193, 0.024598993361, -0.006215579808, 0.014219008386, 0.046064555645, 0.060549899936, 0.030813455582, -0.064523920417, -0.012413833290, 0.001546062529, -0.045046590269, -0.043248645961, 0.018961839378, 0.054799050093, -0.051317200065, -0.043363720179, 0.035480462015, -0.046207368374, -0.021771334112, -0.017637055367, -0.062426701188, -0.061392650008, 0.056911900640, 0.049908787012, -0.014593880624, 0.062679320574, -0.025157757103, 0.049421504140, -0.044737204909, 0.062006264925, -0.006778724492, 0.019089564681, 0.006549611688, -0.006238549948, 0.024870291352, -0.049452111125, -0.062996909022, 0.011584386230, 0.022389866412, -0.024212334305, 0.063104391098, 0.065374806523, 0.017222039402, -0.016850896180, 0.028806641698, 0.019392207265, 0.036862134933, 0.005645208061, 0.048920318484, -0.012412648648, 0.049768038094, -0.041136011481, -0.053990520537, -0.016731068492, 0.054377511144, 0.005050398409, 0.039512455463, -0.006082504988, 0.026822246611, -0.044448204339, 0.069383710623, -0.006270058453, -0.002059824765, -0.069752469659, 0.050758093596, 0.029630675912, -0.058927528560, -0.055602036417, -0.038779255003, 0.051985301077, 0.048741005361, 0.055424794555, 0.020893618464, 0.060457661748, 0.030389904976, -0.056075707078, -0.028043419123, 0.066736683249, -0.010108266026, -0.035000063479, 0.036190740764, -0.020773794502, 0.005472108722, 0.008244112134, 0.012103021145, -0.019156619906, -0.029887340963, 0.061858862638, 0.053401976824, -0.025909502059, 0.044188804924, -0.068772539496, 0.005091644824, 0.040900766850, 0.017346590757, 0.017885960639, -0.069900393486, 0.041045986116, -0.053104646504, -0.008218348026, -0.039224728942, -0.038268622011, -0.026138108224, -0.034353774041, 0.061835944653, 0.059374451637, -0.054243832827, 0.061788305640, -0.052397999913, 0.001576550305, -0.062971092761, 0.034624189138, -0.067229591310, 0.016579121351, 0.037291660905, 0.012380316854, 0.069797635078, -0.027473770082, -0.013495773077, -0.051609396935, 0.024768792093, -0.064227692783, 0.033119373024, 0.030704490840, 0.033745683730, 0.016291685402, 0.068331345916, 0.011398226023, 0.041646987200, 0.015096858144, -0.057614129037, -0.023329507560, 0.030926778913, 0.054703101516, -0.041349492967, 0.063915893435, -0.040690898895, 0.033887960017, 0.035598188639, -0.059991709888, 0.010116800666, -0.062534257770, 0.049037627876, 0.039389081299, 0.016719751060, 0.071633905172, -0.051404587924, 0.049892924726, 0.056808486581, -0.037531431764, 0.070071861148, 0.071686923504, -0.067858427763, 0.025494538248, 0.038370206952, -0.021678417921, -0.033585369587, -0.046494506299, -0.038178063929, -0.012311078608, 0.017518125474, 0.060672938824, 0.036350794137, 0.005538269877, -0.059732958674, -0.006313137710, -0.051677413285, 0.058684319258, 0.059659317136, -0.050714664161, 0.061970740557, -0.007636569440, 0.061132192612, 0.067463278770, 0.040926389396, -0.050858959556, 0.010907068849, 0.016441777349, 0.035513140261, 0.011477150023, -0.064463384449, -0.067330539227, 0.071700796485, 0.004260867834, 0.014908641577, -0.016265343875, 0.025027953088, 0.069349154830, -0.047144927084, -0.021302804351, 0.015362784266, 0.040148846805, -0.036763664335, 0.029585920274, -0.042403485626, 0.051886521280, 0.007253229618, 0.064744144678, -0.048578303307, -0.050530504435, -0.064393579960, 0.008711948991, 0.068502321839, -0.062735661864, -0.058551535010, 0.017835445702, 0.029186509550, 0.046572089195, 0.024065084755, 0.025334656239, -0.049622900784, -0.035956237465, 0.035899817944, 0.015756949782, -0.055525600910, -0.004442855716, 0.068301334977, -0.045550271869, -0.070326939225, -0.026401691139, 0.071116834879, -0.040253013372, 0.044917128980, 0.010597325861, 0.044319622219, 0.027002573013, 0.066301718354, 0.064616546035, 0.064679101110, 0.058473303914, 0.033799402416, -0.011126540601, 0.054070740938, 0.026698090136, 0.046866737306, -0.039829187095, -0.046340376139, 0.027213692665, -0.070921786129, 0.047341026366, 0.006567172706, -0.005648300052, -0.012791357934, -0.057629875839, 0.036306388676, -0.030082926154, 0.024621292949, -0.066796384752, 0.059434473515, 0.035928830504, 0.059081196785, 0.052397675812, 0.012381814420, -0.007368579507, -0.026758294553, -0.032580640167, 0.022624649107, -0.016627933830, 0.053573280573, 0.059405848384, -0.029871579260, 0.066960036755, -0.043471276760, -0.057687222958, 0.021721072495, 0.030307605863, 0.048423565924, -0.002247564495, 0.017929509282, 0.055131763220, -0.054024688900, -0.029191896319, 0.061922371387, -0.021500643343, 0.071874052286, -0.052492961287, 0.043700724840, -0.034581206739, -0.065790653229, 0.003492258489, 0.062014788389, -0.071277372539, -0.066159076989, -0.036919966340, -0.034360516816, -0.029728941619, -0.062482107431, 0.013372227550, 0.005021356046, -0.052959717810, -0.014410857111, 0.021635182202, -0.052385766059, 0.034716241062, -0.038419175893, 0.066215455532, 0.004589267075, -0.013557989150, -0.069880954921, 0.008582286537, -0.005594395101, -0.051133207977, -0.071319490671, 0.029348917305, 0.011516831815, 0.029344908893, 0.052149519324, 0.040289632976, -0.043637804687, -0.021003723145, -0.009450554848, -0.060701366514, -0.062549471855, -0.006848514080, 0.064822718501, 0.010484449565, 0.026873834431, -0.002942584455, 0.031414732337, -0.068595774472, -0.017773620784, 0.020234078169, -0.035721506923, 0.026345737278, 0.041952885687, 0.054545417428, 0.019242033362, -0.070370577276, 0.020032495260, -0.025917708874, 0.010763831437, -0.035031843930, -0.019618369639, -0.056648731232, 0.068653732538, -0.002280361950, -0.029298782349, 0.065389215946, -0.015314467251, -0.043711379170, 0.038221746683, -0.063122235239, -0.051008619368, -0.025277201086, 0.041691310704, -0.025120347738, -0.001079559326, -0.023688107729, 0.048043392599, -0.022894788533, -0.031269308180, 0.058104425669, -0.043231010437, 0.009991884232, -0.051811054349, 0.059726446867, -0.027213849127, -0.024275895208, 0.039815194905, 0.032126873732, -0.032622847706, 0.056999742985, 0.054267555475, 0.056137174368, -0.039546333253, -0.017161212862, 0.007930420339, -0.001348994672, -0.022507939488, 0.051301158965, -0.008200578392, 0.033532962203, 0.014419443905, -0.062390964478, -0.064693301916, -0.009569242597, 0.066914007068, -0.008329249918, -0.063641279936, -0.064488746226, 0.053300023079, 0.014685750008, -0.041292294860, -0.059952788055, 0.041148781776, -0.033593490720, 0.047054298222, 0.041618600488, 0.010931983590, 0.039241403341, 0.049010887742, 0.048308938742, 0.037963703275, 0.030817344785, 0.031327292323, -0.001190163195, -0.034811981022, -0.014504477382, -0.016715239733, -0.030876141042, -0.004602946341, 0.059629723430, -0.011085193604, -0.025989718735, -0.042966149747, 0.035400353372, -0.066048197448, 0.029732212424, -0.048800300807, 0.004652172327, -0.053271051496, -0.028382282704, -0.051541518420, -0.038280632347, 0.045949235559, 0.031133480370, -0.055031590164, -0.059591695666, -0.025777719915, -0.002635933459, 0.070100203156, -0.055409342051, 0.029852598906, 0.060230389237, -0.071933969855, -0.014945168048, 0.066902846098, 0.027905203402, -0.016659010202, 0.048986442387, 0.035691983998, 0.037435472012, -0.043647125363, 0.013424523175, -0.030462276191, 0.024018056691, 0.028843894601, 0.018754161894, 0.051996439695, 0.016332328320, 0.012658424675, -0.049985889345, -0.032721456140, -0.061245553195, -0.054809920490, 0.070347741246, -0.008947916329, 0.024644762278, 0.033056035638, 0.030621245503, -0.057730481029, -0.070790208876, 0.061436399817, -0.013675045222, 0.060420796275, 0.026265762746, -0.061554528773, -0.052880328149, -0.025393191725, 0.056450903416, -0.047746755183, -0.048040434718, -0.052562765777, 0.055361226201, -0.027725290507, -0.012087978423, 0.057203739882, -0.032146573067, 0.069164544344, -0.068519398570, -0.038615003228, 0.016833946109, 0.025226049125, 0.026786148548, 0.025683224201, -0.033977795392, -0.044933184981, 0.043556161225, 0.026412084699, 0.026938684285, -0.057877540588, 0.068829223514, -0.044134069234, 0.052561409771, -0.044662289321, 0.051911555231, 0.068045347929, 0.033778980374, -0.002267763019, 0.044199056923, 0.058790683746, -0.030076198280, -0.030814096332, 0.009963028133, -0.001072593033, 0.016180910170, 0.012024216354, 0.010684765875, -0.043390151113, -0.037552025169, 0.008236467838, -0.019408434629, -0.066458448768, -0.030937585980, 0.020916864276, -0.069713465869, -0.071723535657, 0.053065434098, -0.050680767745, -0.029688246548, 0.062972307205, 0.034687027335, 0.070113942027, 0.061165720224, -0.068572871387, 0.032304063439, -0.013407830149, 0.010105580091, -0.000686809421, -0.052695050836, -0.035206176341, -0.005625486374, -0.047240681946, 0.005562014878, -0.034790970385, 0.029123462737, 0.048772133887, 0.041309610009, 0.008506506681, -0.050962917507, -0.030527520925, 0.001100413501, 0.041269637644, -0.003801509738, -0.069331847131, -0.010720469058, 0.027691565454, -0.032014239579, 0.045470088720, 0.034510418773, -0.056309439242, -0.000419989228, -0.021592233330, -0.044246114790, -0.018397610635, -0.003340512514, -0.050240870565, 0.026369735599, -0.031314197928, -0.027571689337, -0.022244352847, -0.010522492230, -0.006969511509, 0.026714071631, 0.029898494482, -0.058366790414, -0.027036212385, 0.026192888618, 0.065661489964, -0.059091057628, 0.030392862856, -0.064316324890, -0.000917375088, -0.049449391663, -0.003567107022, -0.041082430631, 0.013092800975, 0.063883632421, 0.041648380458, -0.046182092279, 0.004575915635, 0.004569843411, -0.066164635122, 0.022032953799, -0.028029739857, 0.011835753918, -0.031522259116, -0.000545889139, -0.006698697805, -0.000292815268, 0.036147542298, -0.050228945911, 0.045210428536, 0.042036145926, 0.011114373803, 0.068235665560, 0.012569479644, -0.003084808588, -0.037884727120, 0.056608587503, 0.009494081140, -0.012995563447, -0.012473180890, -0.002702705562, 0.015783205628, -0.063320934772, -0.039926592261, 0.029263250530, -0.013762228191, 0.002967208624, 0.042268812656, 0.059162393212, 0.062774389982, -0.024148169905, -0.045278567821, -0.040787357837, -0.071878425777, -0.038683500141, -0.029888391495, 0.021192841232, 0.070127531886, -0.067140787840, -0.023969843984, 0.050386212766, 0.063474461436, 0.065446436405, -0.052918627858, -0.029308054596, 0.040907353163, 0.057565629482, -0.020138002932, -0.010653983802, 0.021919652820, 0.033782541752, 0.028947062790, 0.033485054970, 0.068644836545, 0.022850774229, -0.006275147200, 0.064788311720, 0.000644825399, 0.018293254077, 0.040422461927, 0.060480579734, 0.036464445293, 0.020521134138, 0.037639021873, 0.062612369657, -0.018042884767, 0.053191781044, -0.046993561089, 0.044175848365, -0.046637199819, -0.060232028365, -0.014738570899, 0.057090505958, -0.019881799817, 0.004537165165, -0.011189308017, -0.018463235348, -0.008611343801, 0.062018617988, -0.066874571145, 0.013654053211, 0.072117283940, 0.024606257677, -0.056056559086, -0.068180225790, -0.043756164610, 0.054862141609, -0.065612703562, -0.013702593744, -0.034722421318, -0.046125672758, 0.038568735123, 0.038269668818, 0.011820212007, -0.014936409891, -0.007070995867, -0.051601223648, 0.056936144829, 0.067302495241, 0.030205212533, -0.029981080443, -0.019781485200, -0.029993727803, 0.057072177529, 0.043026909232, 0.049674764276, -0.003691263497, 0.064056351781, 0.063314363360, 0.051440842450, -0.027644369751, 0.036339491606, -0.015412285924, 0.029518984258, 0.035825707018, -0.002836368978, -0.035590533167, 0.027942508459, 0.014955200255, 0.015530891716, 0.018705762923, -0.018353529274, 0.021138861775, -0.021159511060, 0.043035082519, -0.011347055435, 0.021628610790, -0.008524902165, -0.031030826271, 0.055865973234, 0.043469853699, -0.061891395599, -0.002961717546, 0.023549854755, 0.032382145524, -0.007825560868, 0.038464069366, 0.014458447695, 0.031488634646, 0.053068414330, -0.010317597538, -0.041119046509, 0.024180211127, -0.006277248263, -0.047604560852, -0.036749657243, -0.032920293510, -0.041031964123, -0.003403373063, -0.038526836783, -0.041980449110, -0.009509071708, 0.034977778792, 0.042093373835, -0.032886002213, -0.002084225416, 0.031593732536, -0.036890648305, 0.059451356530, 0.037577338517, 0.046565517783, -0.001172080636, -0.037325970829, 0.027140498161, -0.028841126710, -0.042279236019, 0.052574224770, 0.029128715396, -0.016263246536, 0.070471912622, 0.056761592627, 0.053325712681, 0.036881871521, 0.040351554751, -0.059303350747, 0.035381235182, 0.063229799271, 0.071506515145, -0.065306551754, -0.049403384328, -0.061909358948, 0.009036339819, -0.050005830824, 0.034588485956, 0.069721654058, -0.028832316399, -0.059356532991, 0.001799978316, -0.006993204355, -0.000248044729, 0.070634350181, -0.009164854884, -0.031399987638, -0.059935010970, -0.008457660675, -0.047830291092, -0.063314639032, -0.025664947927, -0.026134371758, 0.013904683292, 0.035059042275, 0.027282074094, 0.052376389503, -0.061268113554, 0.027480408549, 0.020973511040, -0.065007127821, 0.039856180549, 0.050662785769, 0.069727152586, 0.057722106576, 0.015079550445, 0.036568202078, -0.039373509586, -0.005132369697, 0.042066983879, -0.065381020308, 0.035993263125, -0.022818427533, -0.070951171219, 0.009797945619, -0.009132236242, -0.033848457038, 0.071573063731, 0.037234947085, -0.064616866410, -0.046105556190, 0.021813005209, -0.035265661776, -0.017388541251, 0.039000511169, -0.064142301679, 0.052100002766, 0.038080692291, -0.023512963206, 0.023012168705, 0.021477498114, 0.004870645702, 0.037921480834, -0.046440135688, 0.065859958529, 0.063774034381, 0.033154249191, -0.002455949783, 0.030432924628, 0.006180271506, -0.056990191340, 0.029867827892, -0.065105773509, -0.029047980905, -0.052657164633, 0.045899353921, 0.027350842953, -0.036363735795, 0.034158758819, 0.064347013831, -0.054254308343, 0.061943411827, -0.063405558467, -0.070401653647, 0.071896687150, -0.039801862091, -0.011134143919, 0.046447366476, -0.009663842618, 0.026653714478, 0.052993491292, -0.052957102656, -0.019383829087, -0.057713326067, -0.027364026755, 0.059779360890, 0.060342669487, 0.001559086144, 0.052875697613, -0.039940290153, -0.046678304672, 0.006025604904, -0.019099701196, 0.026914767921, 0.015381850302, -0.051037199795, 0.049460031092, 0.057180896401, 0.009776718915, -0.071957401931, 0.066238328815, 0.045845240355, -0.012662932277, 0.038219287992, -0.060354623944, -0.062733873725, 0.035325229168, -0.057992741466, 0.069173082709, 0.014932535589, 0.017202489078, 0.049002096057, -0.059886664152, -0.032920930535, -0.006090149283, 0.062626242638, 0.049339391291, -0.020446512848, 0.061309367418, 0.028673514724, -0.002060323954, 0.058743506670, 0.025048941374, 0.059615030885, 0.057572692633, -0.054270122200, 0.071724146605, -0.004634283483, -0.036417040974, -0.003416359425, 0.004567757249, -0.058373875916, -0.071425966918, 0.024280026555, -0.067180037498, 0.056284114718, 0.007802024484, -0.014243748039, -0.069617435336, -0.048027046025, 0.032692722976, -0.025670763105, -0.064453117549, -0.057419180870, 0.064724773169, 0.021445788443, 0.022101201117, 0.014024332166, -0.047216884792, 0.001926049590, -0.025939080864, -0.009585328400, -0.008213117719, 0.045879207551, -0.009719572961, -0.048927456141, -0.006368353963, -0.042480468750, 0.019245795906, 0.063725352287, 0.003466159105, -0.031138453633, -0.056567776948, 0.009868718684, -0.001651331782, 0.056677579880, -0.017907522619, 0.052054248750, 0.009342461824, -0.025160990655, -0.003054045141, 0.027267947793, 0.008799239993, -0.012314159423, 0.070417791605, -0.011283308268, -0.016803715378, 0.006617091596, -0.023394532502, -0.071804039180, 0.032273970544, 0.064666420221, 0.034477248788, -0.069406934083, 0.061532333493, -0.034272972494, -0.036292001605, 0.025614619255, -0.021553415805, 0.046042069793, -0.035953588784, -0.049907565117, -0.065967448056, 0.043519556522, 0.019145451486, -0.028311219066, -0.071603052318, -0.050523728132, -0.042241159827, -0.064150266349, 0.052229396999, 0.067205205560, -0.054966084659, -0.010411337018, -0.050570942461, 0.011092178524, 0.028482630849, -0.016312077641, 0.067304551601, 0.019293956459, -0.045732025057, -0.003157407045, 0.032537519932, 0.023359879851, 0.031827427447, -0.055479850620, 0.044898062944, 0.070546716452, -0.030942332000, 0.071371927857, 0.069562897086, -0.040688112378, 0.041918799281, -0.035668838769, -0.050714544952, 0.043115481734, 0.025366231799, -0.065883584321, -0.015780504793, -0.039129815996, -0.068944841623, 0.041321843863, 0.047566451132, 0.061837121844, -0.050290599465, 0.030681505799, 0.066586643457, 0.027559235692, 0.025117456913, 0.006492055953, -0.002399154007, -0.047173298895, 0.062200635672, 0.043961919844, 0.003405094147, 0.060365855694, -0.069769337773, -0.067122854292, -0.062036480755, -0.000418014824, 0.059618189931, -0.032801777124, -0.055407032371, 0.002531938255, -0.000825479627, 0.005768045783, -0.017112087458, -0.033233586699, 0.013932861388, -0.010251630098, 0.050558000803, -0.054206043482, 0.004641883075, -0.026329509914, 0.029440455139, -0.015809167176, 0.026456408203, -0.024228680879, 0.053890630603, 0.065823018551, -0.035158429295, 0.043802812696, -0.014797724783, 0.042499274015, -0.010718628764, 0.069831818342, -0.031670954078, 0.023033767939, 0.045858718455, 0.057918280363, 0.006290517747, -0.001410335302, 0.011953078210, -0.064917705953, -0.000537611544, 0.057272061706, 0.023515231907, -0.003101639450, 0.016014821827, 0.039525255561, 0.010602951050, -0.023077540100, 0.061711952090, -0.016428735107, 0.061557322741, 0.023081377149, 0.000640802085, -0.016933381557, 0.063513889909, 0.068013802171, 0.059915259480, -0.016028739512, 0.024435572326, -0.003413416445, -0.002888657153, 0.070958957076, 0.022407263517, -0.025168284774, -0.045166328549, 0.012249819934, -0.026419036090, 0.025134235620, 0.016801580787, 0.066735863686, -0.016896922141, 0.026984728873, 0.007329866290, 0.026562914252, 0.022365950048, 0.065540865064, -0.033114846796, -0.027292225510, -0.071835130453, 0.012272618711, 0.008707769215, -0.072087466717, -0.030758105218, 0.061869531870, -0.016091112047, 0.061439320445, 0.010107219219, 0.066328242421, -0.058451339602, 0.064692869782, 0.036793552339, -0.048955418169, 0.054779738188, -0.014148648828, -0.019582357258, 0.039797730744, 0.031176872551, 0.040786467493, 0.020075663924, -0.041122745723, 0.032132789493, -0.052213996649, 0.065882533789, -0.067435204983, -0.046228773892, 0.051086597145, -0.001267023385, -0.001688390970, -0.009011477232, -0.027140360326, -0.038396015763, 0.022076353431, -0.008159577847, 0.052233301103, 0.055028766394, 0.019506096840, 0.009314469993, -0.035867832601, -0.022131189704, -0.055174574256, -0.029578693211, -0.040344003588, -0.040346447378, -0.054579697549, -0.057005282491, -0.013834357262, 0.039057530463, -0.053118534386, -0.056359767914, 0.013589635491, -0.056910905987, -0.025369651616, 0.054636985064, 0.049803331494, 0.069476678967, -0.055283218622, 0.021257497370, -0.029813699424, 0.023272745311, 0.069671332836, -0.047609224916, -0.045500546694, -0.036534938961, -0.010506901890, -0.068769797683, -0.002508550882, 0.002732284367, 0.064828589559, 0.032583840191, 0.031503796577, 0.026565201581, -0.068900272250, -0.003767043352, 0.031337685883, 0.000494614244, 0.056483656168, -0.036222454160, 0.056425392628, 0.045895829797, -0.018223654479, -0.020095605403, 0.048006244004, 0.030553281307, -0.014855213463, -0.020681325346, 0.029391042888, 0.004281409085, -0.008968152106, -0.047662392259, 0.060541033745, -0.064858704805, 0.069247499108, 0.053228929639, -0.040393434465, 0.013706944883, 0.007507726550, 0.033855840564, 0.020344309509, -0.047263685614, -0.031153440475, -0.016584075987, -0.060092672706, -0.030450318009, -0.067051365972, 0.042943917215, -0.061664994806, 0.000826768577, -0.031058337539, 0.034649431705, -0.070181190968, -0.002384938300, -0.051217779517, 0.030614607036, -0.042809229344, 0.020635955036, -0.054090179503, 0.071748092771, -0.032832559198, 0.055072247982, 0.008216455579, 0.030668012798, 0.071687966585, 0.057063221931, -0.034819170833, 0.020969584584, 0.037960417569, 0.031754456460, -0.049211241305, -0.069918185472, -0.039074737579, -0.009413354099, 0.061140596867, 0.054420888424, 0.036271184683, 0.007534086704, 0.027157828212, 0.003863982856, 0.022950626910, 0.028596691787, 0.021986432374, -0.068488530815, -0.023729383945, -0.049304705113, 0.038743585348, 0.056230455637, 0.022864542902, 0.051565334201, 0.052620321512, -0.048574846238, -0.043784830719, -0.011461924762, 0.003372177482, 0.038417421281, -0.006400220096, 0.031230732799, -0.067128516734, -0.061624608934, -0.057022713125, -0.054182868451, 0.060046479106, -0.029545228928, -0.004372932017, 0.054463893175, 0.012441553175, 0.025882922113, 0.008282579482, 0.001990571618, 0.030557855964, -0.065997801721, 0.047194048762, 0.006106577814, 0.004040867090, -0.060742303729, -0.023406419903, -0.067915759981, 0.010291241109, -0.071994878352, -0.016487270594, 0.036288507283, 0.062040701509, -0.014780707657, 0.041255064309, 0.030859157443, 0.004095256329, -0.062225148082, -0.049025222659, -0.033887550235, -0.057045940310, -0.008650660515, 0.024841554463, -0.062133524567, -0.059176556766, -0.013137415051, -0.068276166916, 0.067791000009, -0.059508398175, 0.053854867816, 0.025811165571, 0.037870272994, 0.013621479273, 0.014992505312, 0.058592543006, -0.002916567028, -0.001217074692, 0.037614673376, 0.011635214090, -0.006386488676, -0.024285580963, 0.057383149862, 0.023191392422, 0.051895208657, 0.004919752479, -0.037370532751, -0.022961430252, -0.002423226833, -0.010295711458, -0.068119175732, 0.002921007574, -0.036358505487, -0.071905300021, 0.001759335399, 0.039364874363, 0.034538380802, 0.064545035362, 0.008652709424, 0.071612074971, 0.058112964034, -0.039878517389, 0.010089941323, 0.056555360556, 0.019065372646, 0.066218897700, 0.055948257446, -0.023294616491, 0.052082054317, 0.050965860486, -0.062599435449, 0.032330788672, -0.031656071544, -0.019299052656, -0.003094241023, -0.022684168071, -0.051432497799, -0.018443223089, -0.056376770139, 0.011337302625, 0.036343157291, 0.042795687914, 0.005580507219, -0.001327268779, -0.010517813265, 0.042626053095, 0.002041399479, 0.065934151411, -0.011483587325, 0.027186661959, 0.023990787566, -0.014269404113, 0.029978036880, -0.014549456537, 0.036924682558, -0.059893287718, -0.051834389567, -0.051894009113, -0.046129129827, 0.059593677521, -0.062785334885, 0.012241326272, -0.005929522216, 0.036787442863, -0.019799053669, 0.065853402019, 0.066692978144, -0.043673954904, 0.055826976895, -0.070793651044, 0.005163222551, 0.023368790746, -0.014293976128, -0.039128370583, -0.065564833581, -0.011742733419, 0.036979675293, 0.026366621256, -0.017503619194, -0.024785187095, 0.040105655789, 0.027173653245, -0.038671679795, 0.029012069106, -0.069688998163, -0.043594181538, 0.051087319851, -0.001134090126, 0.040363013744, -0.051418870687, 0.045464344323, 0.041763320565, -0.021361410618, 0.025029860437, 0.055686190724, 0.068086266518, 0.030590087175, 0.023434430361, 0.030616424978, 0.006769262254, -0.046278879046, 0.047096319497, -0.031316470355, -0.014883466065, -0.027049340308, -0.045196339488, -0.070656217635, 0.039944760501, -0.048835590482, 0.043522998691, -0.068102069199, -0.059649955481, -0.007372021675, 0.048233181238, -0.024101026356, 0.024950951338, 0.060999944806, -0.009596012533, -0.010235074908, 0.066804945469, -0.008435286582, -0.054954987019, 0.054485082626, 0.016149841249, -0.041222233325, -0.017695643008, -0.064452476799, 0.061702877283, -0.070889644325, -0.053248114884, 0.026236921549, 0.025728143752, -0.055445093662, 0.038397327065, 0.061172172427, 0.028737023473, 0.038834176958, -0.060658145696, -0.070570617914, -0.008088491857, 0.047527663410, -0.037680901587, 0.020314745605, 0.071754768491, -0.061725921929, 0.029714591801, -0.000222340226, 0.070547357202, -0.045067377388, -0.030593320727, -0.011876668781, 0.071689233184, 0.036146193743, 0.029803790152, 0.025469675660, 0.044338859618, 0.000250592828, 0.027623519301, 0.007198423147, 0.039103917778, -0.067886009812, -0.017779935151, -0.032523188740, -0.038267657161, -0.062875807285, 0.007945820689, 0.035397805274, -0.049148797989, -0.014652881771, -0.010762743652, -0.031645264477, -0.003849737346, 0.000622041523, 0.002986200154, 0.022927485406, -0.013999041170, -0.048998624086, 0.059882536530, 0.015502415597, 0.051112681627, -0.018125269562, 0.025751791894, 0.022585347295, -0.002487093210, 0.052034653723, 0.022627592087, 0.025374054909, 0.033386066556, 0.031982079148, -0.012355986983, -0.064600646496, 0.066206052899, -0.026096723974, 0.055623307824, -0.049846656621, -0.018625181168, 0.053994908929, 0.041205041111, 0.030496016145, -0.041128456593, -0.040432993323, -0.021990165114, -0.046878211200, -0.028138313442, -0.031179487705, -0.003925807774, 0.045583307743, 0.003672786057, 0.063555300236, 0.056109100580, 0.058267563581, -0.072009950876, 0.012644089758, -0.054875113070, 0.023860633373, 0.046004295349, -0.043981738389, 0.030094109476, -0.071693614125, -0.060463577509, -0.007916361094, -0.027783378959, -0.025753337890, -0.008206598461, 0.013242565095, 0.015073217452, 0.034900657833, -0.032062243670, -0.047308370471, -0.050134655088, -0.001402765512, -0.062707595527, -0.030710510910, -0.035001661628, 0.018644385040, 0.008539974689, -0.030107703060, 0.051182262599, 0.038484714925, 0.051323756576, 0.020855814219, 0.045931890607, 0.059648916125, 0.004161432385, -0.005729153752, 0.039940856397, -0.011327404529, -0.028082288802, 0.018822953105, 0.026737578213, -0.021205399185, 0.058742493391, 0.055055975914, 0.029110282660, 0.012064702809, -0.016906745732, -0.051913760602, 0.044261515141, -0.013498250395, -0.006908409297, 0.056812524796, 0.042191483080, 0.014488771558, 0.016647689044, -0.007317990065, 0.000978730619, 0.005731992424, -0.054872103035, 0.015429027379, 0.006194397807, 0.045370779932, 0.029886312783, 0.000015847385, 0.050016686320, -0.071837648749, -0.050585582852, -0.061928577721, 0.058007612824, -0.065402634442, 0.035113796592, -0.060143262148, -0.034066308290, -0.012341342866, 0.001600831747, -0.004457980394, -0.034638520330, 0.017717115581, 0.026001691818, -0.060852438211, 0.032694302499, 0.047120735049, -0.070269525051, 0.056884422898, 0.031275175512, 0.057755067945, -0.005751974881, -0.001411318779, 0.004965230823, -0.018018160015, -0.016805917025, 0.057269200683, -0.017776563764, 0.031464911997, 0.068377196789, -0.006807275116, 0.020252287388, -0.069527983665, 0.048385798931, 0.051013641059, 0.051552958786, 0.041228547692, 0.026860825717, 0.055387452245, -0.015039391816, 0.022646896541, 0.070149108768, 0.038545161486, -0.063570395112, 0.039841145277, -0.002857483923, 0.008749425411, -0.041842319071, 0.007384337485, 0.056594550610, 0.068134173751, 0.031840026379, -0.041053630412, -0.038632173091, -0.050494007766, -0.047000683844, -0.027324795723, -0.031772181392, -0.062717132270, -0.072120502591, 0.026061981916, -0.033261597157, -0.041121043265, -0.003423556685, 0.050337433815, 0.061207413673, -0.000758439302, 0.005808442831, -0.041973687708, -0.025234460831, -0.043154045939, 0.043850921094, 0.054291442037, 0.032487623394, 0.061747327447, -0.008223839104, 0.047347843647, 0.022836372256, -0.016869839281, 0.050727240741, -0.007342860103, 0.052614159882, 0.032976314425, -0.000359371305, -0.059299547225, 0.050888121128, -0.057638373226, 0.033130913973, -0.000080764294, 0.067341312766, 0.048972174525, -0.033804599196, 0.000738307834, 0.004522010684, 0.023988172412, 0.056722506881, 0.032420635223, -0.045125119388, 0.049323119223, 0.070582479239, -0.056918837130, -0.057874359190, -0.064570821822, 0.049673281610, -0.054030179977, -0.004519596696, -0.007922261953, 0.017407089472, -0.034377224743, -0.033746387810, -0.057996626943, 0.004494324327, 0.020138636231, 0.047615163028, 0.070555001497, 0.013296589255, -0.004704393446, 0.038542494178, -0.058235727251, -0.039485611022, -0.005419045687, 0.071626245975, 0.034365408123, 0.021617680788, -0.070211850107, 0.041969589889, -0.070699289441, 0.065447956324, -0.027952279896, 0.057954236865, 0.016798175871, -0.032141275704, 0.002523422241, -0.014727834612, -0.029972773045, 0.012512855232, -0.070021390915, -0.016612604260, 0.022218890488, -0.016836442053, -0.047862760723, 0.005797311664, -0.031022068113, -0.019540064037, -0.022770162672, 0.026944674551, -0.027483403683, 0.049391821027, 0.007688462734, 0.063582211733, -0.055755376816, -0.054277367890, -0.001293472946, 0.008318975568, 0.041905581951, 0.013425342739, -0.031072206795, 0.016492590308, 0.002134278417, -0.005283594131, -0.045153494924, -0.051255237311, 0.067061156034, -0.034450385720, -0.054171461612, 0.032095231116, 0.028741277754, 0.067156031728, -0.047462627292, 0.038663111627, 0.048523642123, 0.019226752222, 0.006853699684, -0.069041609764, 0.056618139148, 0.062358513474, -0.056696206331, 0.068287745118, 0.016839005053, 0.009121291339, 0.012291878462, -0.012968361378, 0.048373028636, 0.017395026982, -0.036396447569, -0.017223086208, 0.042535476387, 0.016543351114, 0.047409489751, -0.002459309995, -0.042326245457, 0.049200847745, 0.028021760285, -0.024163141847, 0.012490421534, -0.008808292449, 0.019846938550, 0.019344322383, -0.052368335426, 0.065617144108, 0.004545167089, -0.007564611733, -0.030598636717, 0.055014058948, 0.063418045640, -0.017091028392, -0.055386178195, -0.000948809087, 0.043624021113, 0.019505374134, 0.004772223532, 0.054422989488, -0.068378649652, -0.053270347416, -0.000512577593, -0.007619418204, 0.007139220834, -0.065849721432, -0.034646179527, 0.008554801345, -0.066875375807, 0.044386021793, -0.062309905887, 0.042384371161, -0.032668236643, 0.030898064375, 0.029568612576, -0.024430580437, -0.038651823997, -0.067713290453, -0.015131324530, 0.042477697134, 0.031998068094, -0.029895566404, 0.000175312161, -0.023550093174, 0.008146427572, -0.040459834039, -0.063457898796, 0.040001578629, 0.000355809927, 0.067037850618, -0.004945367575, -0.013414092362, 0.016840659082, -0.011285938323, 0.013913504779, -0.000499986112, -0.070490956306, -0.069034472108, -0.021292444319, 0.030423872173, -0.056880176067, -0.017250977457, -0.068389832973, -0.029134888202, -0.027287613600, 0.029050871730, 0.060927510262, 0.047618277371, 0.019028604031, 0.006918750703, 0.014773257077, 0.033789046109, 0.021756075323, -0.004423245788, 0.009125247598, 0.026219353080, -0.026790056378, 0.041801452637, 0.034764610231, -0.050833303481, 0.025643236935, 0.003182128072, 0.001980163157, 0.020624943078, 0.042095802724, -0.015113584697, 0.041811451316, -0.031392727047, 0.030120760202, 0.012081943452, -0.063458241522, -0.032879669219, -0.013670366257, -0.041066739708, -0.023346561939, -0.053555317223, -0.003820054233, 0.056247293949, -0.024915456772, -0.065324053168, 0.050605870783, 0.033282473683, -0.071529068053, -0.010649871081, 0.050433337688, -0.030837908387, 0.035057552159, -0.057910613716, 0.023492209613, -0.009839657694, -0.008457727730, 0.041811294854, -0.015591491014, -0.062525928020, 0.058297172189, -0.022524286062, 0.062414944172, 0.003623798490, -0.061985634267, -0.058540865779, 0.033450126648, 0.050852298737, 0.056013435125, -0.068482071161, 0.021380752325, -0.055989693850, -0.021330453455, 0.049570873380, 0.007996164262, -0.015223138034, 0.053930222988, 0.020990148187, 0.071784600616, -0.051738392562, -0.007575586438, 0.044128336012, -0.042160116136, 0.047451563179, -0.051649644971, 0.040537588298, -0.060484137386, -0.009844973683, -0.070720829070, 0.001487061381, 0.051200799644, 0.068721383810, 0.025648117065, -0.059173252434, -0.069731034338, 0.022426947951, 0.065576300025, -0.067193470895, 0.010521598160, 0.014530152082, -0.027328167111, -0.026801448315, -0.060601916164, 0.008967652917, 0.049448192120, 0.034725449979, 0.010503292084, 0.067671969533, -0.007576070726, -0.004522986710, -0.045573331416, -0.061006970704, -0.000195793808, -0.058149129152, -0.065431006253, -0.048419833183, -0.000293195248, -0.057821124792, -0.040648486465, -0.052825838327, -0.057639028877, -0.002414368093, -0.068024866283, -0.020065698773, 0.016040287912, -0.061559967697, 0.002175867558, -0.011116456240, 0.054887309670, 0.019909173250, -0.014644522220, -0.070172443986, -0.005964055657, -0.011654566973, -0.060708388686, -0.035796511918, -0.028518471867, -0.034251276404, -0.044588848948, 0.039602167904, -0.067228816450, 0.039026781917, -0.045456737280, -0.030707210302, 0.012140370905, 0.006333842874, -0.032485403121, -0.047413967550, -0.062971867621, 0.058062225580, -0.057216558605, -0.038762204349, -0.059132248163, -0.045510441065, -0.011012014002, 0.017731979489, -0.005856841803, 0.016135610640, -0.020957197994, -0.033559113741, 0.040598109365, -0.038478158414, -0.027040839195, 0.026785790920, 0.028637968004, 0.033754199743, -0.033641394228, 0.051037438214, 0.049318432808, -0.062307909131, 0.027351945639, -0.018678832799, 0.051260210574, -0.049062903970, -0.059415776283, -0.069163426757, 0.006786949933, 0.000838175416, 0.026510417461, -0.061792612076, -0.048709072173, 0.027109265327, -0.068944148719, -0.044568270445, -0.023092612624, -0.066146858037, 0.048543378711, -0.007835581899, 0.042085066438, 0.017418242991, 0.040877573192, 0.005644395947, 0.041240021586, 0.057549655437, 0.022762112319, -0.057650692761, -0.039939168841, -0.012905333191, 0.051692053676, -0.033100944012, 0.050839170814, 0.038853585720, -0.049961507320, -0.055811762810, 0.027548737824, -0.069245971739, -0.037934061140, -0.010427255183, 0.017185434699, 0.062440231442, 0.009709164500, 0.044076099992, 0.028169907629, 0.013519346714, -0.001377664506, 0.068500578403, 0.028444498777, -0.064420491457, 0.015339024365, 0.018671929836, -0.011160090566, -0.020187657326, -0.049721289426, 0.005508206785, -0.006964042783, -0.037355892360, -0.016022216529, 0.024210922420, -0.057193540037, -0.048672437668, -0.043546795845, 0.019810326397, 0.051909990609, -0.064508572221, -0.015945322812, -0.049526065588, -0.015760682523, 0.062303036451, 0.017831414938, 0.055617943406, 0.065405726433, 0.024130985141, -0.016092937440, -0.034652423114, 0.046202622354, -0.052113696933, 0.007890000939, 0.024769358337, -0.051971763372, 0.069860622287, -0.000049814582, 0.037979401648, -0.046166606247, -0.018875189126, 0.005398176610, -0.040119081736, 0.025442399085, -0.010641317815, 0.037209123373, -0.032714866102, 0.051553338766, -0.071777939796, 0.028918191791, -0.070116460323, 0.013362385333, 0.042316131294, -0.022451363504, -0.054816991091, -0.069398730993, 0.020701959729, 0.021735906601, 0.030847869813, -0.010677400976, 0.041555725038, 0.013703368604, 0.016098991036, -0.066656596959, 0.044234775007, -0.009192183614, -0.015326615423, -0.059613373131, 0.067119345069, -0.068912133574, -0.057245761156, -0.050202399492, 0.048960402608, 0.046584375203, 0.069641068578, -0.001670740545, 0.053072884679, -0.034934058785, 0.062397450209, 0.000524602830, 0.021768480539, 0.047082103789, 0.048210881650, -0.001193523407, -0.019233219326, -0.036594733596, 0.008485257626, -0.007334768772, 0.060009166598, -0.064135521650, -0.049746170640, -0.053026735783, 0.001344248652, 0.020205006003, 0.011008158326, 0.018992953002, 0.022734992206, -0.036511607468, -0.033438943326, -0.050682231784, 0.059092059731, 0.038863807917, -0.022230967879, -0.040816627443, -0.056354418397, -0.020147360861, 0.025389008224, 0.067052349448, -0.007556319237, 0.047143757343, 0.058467224240, 0.006763949990, -0.067189201713, 0.020652301610, 0.041463397443, 0.061437472701, -0.014554738998, 0.029916025698, -0.009322464466, -0.056863795966, 0.010974638164, 0.051001377404, 0.069324657321, 0.031881645322, -0.024429701269, -0.036478828639, 0.061369985342, -0.028022479266, -0.013894114643, 0.029184922576, 0.014366619289, -0.055156700313, 0.051249094307, -0.059364553541, -0.043225347996, 0.009993463755, -0.026781745255, -0.053552754223, 0.013148233294, 0.023113861680, -0.036615502089, -0.007282011211, 0.013249292970, -0.060634277761, -0.071077123284, 0.009208783507, 0.057366803288, 0.048025876284, 0.043210670352, 0.037794381380, -0.003912404180, -0.070996835828, -0.047197181731, 0.048946261406, -0.040495812893, -0.066274188459, 0.057541504502, 0.032526575029, -0.024865470827, 0.017044246197, -0.000638529658, -0.032006822526, -0.066980972886, -0.065907672048, 0.011714860797, 0.039626963437, 0.041154921055, 0.036648280919, 0.071433857083, -0.065029785037, 0.050537332892, -0.023639481515, -0.040349956602, 0.024588502944, 0.032048702240, -0.055836297572, 0.062670141459, 0.063746646047, 0.034483902156, 0.053933456540, 0.060536369681, 0.003605835140, -0.005224496126, -0.044275283813, 0.043826058507, 0.061488315463, 0.013104721904, -0.058727588505, -0.008624389768, 0.029846616089, -0.000058017671, -0.016638189554, 0.055756807327, -0.009060002863, 0.002664238214, -0.030968006700, 0.025907486677, -0.016050849110, -0.053230136633, 0.012052640319, 0.029704853892, 0.063160061836, -0.034058805555, -0.021189071238, 0.020597122610, 0.054620876908, 0.025953650475, -0.001235626638, -0.047902815044, 0.013440504670, 0.033799007535, -0.049715436995, -0.042433854192, 0.056513398886, -0.033645402640, 0.016140185297, 0.024764500558, -0.013364642859, 0.017288535833, -0.057264029980, 0.040330894291, 0.071457937360, -0.017892241478, -0.071851000190, -0.060201454908, -0.036013089120, -0.065590098500, -0.006812229753, -0.044878639281, 0.000855900347, -0.064524970949, -0.020152576268, -0.059545304626, 0.057859987020, 0.047695860267, -0.068045340478, 0.043894827366, 0.042426832020, 0.028796650469, 0.013390414417, -0.007609501481, -0.041983634233, 0.024704970419, -0.044417940080, 0.056003734469, -0.026685871184, -0.059480868280, -0.017038874328, -0.046535439789, 0.052697889507, 0.023205213249, -0.065556868911, -0.033915046602, 0.067581817508, -0.034547396004, -0.067701853812, 0.041199781001, -0.016810633242, -0.050832942128, 0.066064611077, -0.030061900616, -0.022070020437, 0.002775907516, 0.031064294279, -0.054471127689, 0.047106072307, 0.018526025116, -0.054343454540, 0.047003045678, -0.017654053867, -0.066741153598, -0.015299413353, -0.010260060430, -0.050876058638, -0.066264621913, 0.050183951855, 0.046453401446, 0.002329282463, 0.051338434219, 0.054279670119, 0.071137189865, -0.052965071052, -0.001201421022, 0.028193600476, 0.057687327266, 0.039658032358, -0.070827081800, 0.038950562477, 0.048020727932, -0.024622928351, 0.011085085571, 0.012125611305, 0.058185294271, 0.009251780808, -0.046017184854, 0.000831976533, -0.016397178173, -0.067191682756, -0.007020406425, 0.026378273964, -0.018615461886, -0.046153269708, -0.000070944428, 0.045846156776, 0.068186163902, 0.061665698886, -0.014087155461, 0.008814841509, -0.056784078479, -0.006696186960, -0.028612624854, -0.003409631550, -0.020320370793, 0.055302485824, 0.041819401085, -0.003244742751, 0.017450742424, -0.036283243448, 0.049137011170, -0.029340781271, 0.043814614415, 0.020107768476, 0.034858949482, 0.013974092901, -0.033579625189, 0.066231414676, 0.028111211956, -0.040249142796, -0.025965441018, 0.067375734448, -0.022029634565, 0.069673001766, -0.037689916790, 0.052445471287, -0.052233628929, -0.005299754441, -0.034092806280, -0.012057010084, 0.059252992272, -0.033195525408, 0.002938106656, -0.060705911368, -0.000572711229, -0.070217646658, 0.016632147133, 0.052267968655, -0.061107195914, -0.039556413889, -0.037816144526, -0.040040548891, -0.017707340419, 0.048375338316, 0.048680424690, 0.059414938092, 0.036529310048, -0.031960021704, 0.066937476397, -0.025504980236, -0.014094967395, -0.061256032437, -0.024009779096, -0.050559669733, -0.004373669624, -0.027811150998, 0.018839128315, 0.032416284084, -0.069001622498, -0.040505312383, 0.047588147223, 0.006653979421, -0.047903832048, -0.055795587599, -0.048259366304, 0.071932092309, -0.034701205790, 0.045804634690, -0.063488200307, -0.010700251907, 0.021076299250, -0.069939866662, -0.071839593351, 0.042318001390, -0.016146171838, 0.025766842067, 0.041898220778, -0.012364022434, -0.004262194037, -0.040527336299, -0.020361617208, -0.032523512840, 0.054511815310, 0.065163582563, -0.012626968324, -0.026675239205, 0.048219911754, -0.004842579365, 0.035478293896, 0.020352169871, 0.067492529750, 0.049061700702, -0.043931014836, 0.054141595960, -0.046341575682, -0.046230424196, -0.055836211890, -0.025655243546, 0.046687513590, 0.052725605667, 0.058304488659, -0.018225528300, 0.049414210021, -0.035953208804, -0.063351735473, 0.052013881505, 0.049596302211, -0.046632178128, -0.050994649529, -0.019512653351, -0.052922740579, -0.062775954604, 0.038791656494, -0.061988767236, 0.016155891120, -0.023025505245, 0.015999302268, 0.012874141335, -0.002353899181, -0.015923574567, -0.053849857301, 0.018176905811, 0.065227001905, 0.019967712462, -0.036292914301, -0.018708083779, -0.009167350829, -0.046755891293, -0.046701468527, -0.028048787266, 0.070544317365, 0.005308479071, 0.062328726053, 0.019836083055, 0.033374644816, -0.026803977787, -0.029538620263, -0.048078492284, -0.067421026528, 0.018238484859, -0.066147804260, -0.049957655370, 0.041980929673, 0.060136839747, 0.014395132661, 0.048824131489, 0.013997443020, 0.069021821022, -0.064484395087, -0.066010691226, 0.055488660932, 0.032690055668, 0.046686597168, 0.044763050973, 0.035144783556, 0.010308578610, -0.010487493128, -0.027366846800, -0.061637688428, -0.046856530011, 0.068441033363, -0.067627020180, 0.018862113357, -0.009102210402, -0.032569557428, 0.022171281278, 0.056479662657, -0.063838861883, 0.057850569487, -0.052787154913, -0.009707443416, 0.024651437998, 0.014099285007, -0.024510435760, 0.066048011184, -0.031242687255, 0.018534556031, 0.013179384172, 0.049112215638, -0.009063184261, 0.050953060389, 0.054662391543, -0.018701080233, 0.022454686463, 0.044901661575, 0.061562716961, -0.027190208435, 0.021441504359, 0.071215808392, 0.055675253272, -0.056366428733, -0.033493883908, -0.035406444222, 0.061961323023, 0.000071182847, -0.003283359110, 0.014226302505, -0.068983227015, 0.024603933096, 