//Numpy array shape [120, 84]
//Min -0.158113807440
//Max 0.158032074571
//Number of zeros 0

#ifndef W14_H_
#define W14_H_

#ifndef __SYNTHESIS__
model_default_t w14[10080];
#else
model_default_t w14[10080] = {0.1097553521, 0.0791229159, -0.0421740264, 0.1043406278, -0.0791502446, 0.0157035589, -0.1007861048, -0.1115490645, 0.0636989176, 0.0668028742, -0.1372733563, -0.0227517039, -0.0896882191, -0.0988200456, -0.0732036456, -0.0797878951, -0.1557234526, 0.0133294612, 0.1355784386, -0.1135270745, 0.0407515913, -0.0585997924, 0.0846847296, -0.1350471377, 0.1420953125, -0.1395935118, -0.1554853320, -0.1553354859, 0.0973239988, -0.0872477293, 0.0822275877, 0.0834452063, 0.1283559054, 0.0829316974, 0.1490577608, 0.1486038417, 0.1515165418, -0.0986015499, -0.0968322307, -0.0797564164, 0.1461074799, 0.1466019601, -0.1078718752, -0.0244581103, 0.1004069597, 0.0753416866, -0.0771565437, 0.0903343409, 0.0108772516, -0.0039857030, 0.1119123548, 0.0458276868, -0.1481863409, 0.0047276616, 0.0148379207, -0.0609312207, -0.0818444267, 0.1010638624, 0.1287365407, 0.1382874697, -0.0572906062, -0.0638595819, 0.0841861814, 0.0291558355, -0.0727593079, -0.0399760529, 0.1307194382, 0.0982413441, 0.1243734807, -0.0643508881, 0.0722817928, -0.1093653291, -0.1291645467, -0.0173126310, 0.1157430857, -0.1473315507, -0.1421037614, -0.1254365146, -0.0600698367, 0.1565764695, 0.0624680966, -0.0688363761, 0.0804267079, 0.0780502707, -0.1326718330, 0.0375843495, -0.0351381302, 0.0309672207, -0.0154768825, -0.1488055140, 0.1374201030, -0.0412878022, -0.1416159719, 0.0273789763, 0.0088223368, 0.0464513451, -0.1241054684, 0.1257765442, -0.0578698218, -0.1300441772, 0.1129464954, -0.1473896056, 0.0231365561, -0.0993861854, -0.0125818849, 0.0712833852, -0.1035492867, -0.1552584618, 0.1079209000, -0.0844177976, 0.0473033041, -0.0256345272, 0.0107553005, 0.0310209095, -0.0504525378, -0.0951496884, -0.0955184400, -0.0053026825, -0.0260490179, -0.1511224359, -0.0370480269, -0.0184787512, -0.1171768159, 0.0607623011, 0.1120356172, 0.0933613330, -0.0818216950, 0.0188627392, -0.1570448279, 0.0671770871, -0.0811863467, 0.1424078792, 0.1158437580, 0.1345155388, -0.0355595499, 0.0008870959, -0.0828048810, -0.0264642537, -0.1085217446, -0.1166251153, 0.1521116346, 0.1399811953, 0.0112243742, -0.1025090665, -0.0048959404, 0.0287263095, -0.1488517672, 0.1282067150, -0.0864889249, -0.1177446544, -0.0296895206, -0.1489511728, -0.1158681139, 0.0204553008, -0.0058685690, -0.1463451982, 0.0196641833, 0.1538781673, -0.0214491487, 0.0997330099, -0.1217676252, 0.0860715359, -0.1335917562, 0.0017197132, 0.0467715114, -0.0831913874, 0.0489294231, -0.0295170844, 0.0220734924, 0.0486170650, 0.0973051935, -0.0864798725, -0.0059287697, -0.0744807199, 0.0015556514, 0.0610359758, -0.1462810487, -0.1426789165, -0.1238453910, 0.0862604380, -0.0076019615, 0.1412862688, -0.1153071821, -0.1184396371, 0.0068640411, -0.1140284091, -0.1493945718, -0.0459012687, 0.1542680115, -0.0788421407, -0.0270116180, -0.0050436705, -0.0620191246, -0.0830133855, 0.1062570363, 0.0081599504, -0.0161514729, -0.0475202203, -0.1078106612, 0.1042426080, -0.0443570018, -0.0746546164, 0.0306284875, 0.0980725139, 0.0697346628, 0.0144300312, -0.0672323555, 0.0694038272, -0.0878593326, 0.1452419907, -0.1159117669, -0.0985891074, -0.0798635483, -0.0987478197, -0.0473324507, -0.0888090804, 0.1374912709, -0.1208034456, -0.0611638874, 0.1526261717, -0.1272820681, 0.0156695992, 0.0427988917, 0.1071771532, -0.1473415792, -0.0353928879, 0.0088393688, 0.1558040529, -0.0584792346, -0.0413454771, -0.0887010023, -0.0547982454, 0.0977046341, -0.0081448704, -0.0809550360, 0.1414497346, -0.0379960388, 0.0739974380, -0.0149328709, -0.1441408545, -0.0326090902, -0.1371608675, 0.0960235745, -0.0291948169, -0.0328308344, 0.0652854741, 0.1216457933, -0.1127690971, 0.0049245805, -0.1140467376, -0.1023620442, 0.1149740070, -0.0804499686, 0.1120485216, -0.1153552458, -0.1190773249, 0.0668640584, 0.0552101284, 0.0220917016, 0.0913407505, -0.0184740871, 0.0971599072, -0.0777644515, 0.0684814602, -0.0177436620, 0.1290037483, -0.0790170953, 0.1057481319, -0.1211896911, -0.0225434750, -0.1001325846, -0.0756940022, -0.1189783290, -0.1335795075, 0.0492490232, 0.0886954516, -0.0312956125, -0.1516316831, -0.1410253942, 0.0922799557, 0.0324726999, -0.1004590094, -0.0974400640, 0.1479919702, 0.0697124302, 0.0111245513, -0.1218800843, 0.0635204911, -0.0069785267, 0.0446598232, 0.1044117957, -0.0012961030, 0.1521901637, -0.1085476801, -0.1377911270, 0.0179105401, 0.1397562772, 0.0337028503, -0.0530052483, 0.0473039150, 0.0159648061, -0.1525369138, -0.1067419797, 0.1112132519, 0.0987448245, 0.1104968041, -0.0442356169, -0.1319717169, 0.0124894530, -0.1569670886, 0.0856607556, -0.0550282374, -0.1565727443, -0.0286321044, 0.1051832587, -0.1201382726, 0.0060023069, 0.1513738781, -0.0409364626, 0.0540139228, -0.0677588359, 0.1329021901, 0.0760629773, 0.1105196625, 0.1544850022, -0.0065753907, 0.0691615939, -0.1132849082, -0.0175937414, 0.1429055780, -0.1163129061, 0.1238297373, -0.0851044878, 0.0862063468, 0.1001294106, 0.0797717571, -0.1364892870, 0.0102628618, 0.1298373789, 0.0840972960, -0.0636701509, -0.1349937171, -0.0715031177, 0.1186518818, 0.1233899742, -0.1275209188, 0.1281316131, 0.0359308720, 0.1563053280, -0.1305152029, -0.0526851267, -0.0898790807, 0.0130435675, -0.0543209612, 0.1353099495, 0.1456086785, 0.0648077428, -0.0956407338, 0.0898940414, -0.1518940181, 0.0158796757, 0.0488384515, -0.1150677651, 0.0009050369, 0.0690802336, -0.1147491485, 0.1555000395, 0.0959538966, -0.0405077711, -0.1084285975, -0.0447547883, 0.1306046695, -0.0197385997, 0.0654003471, 0.0497170240, 0.0300193727, -0.0869260207, 0.0249673724, -0.1391704679, -0.1036704779, -0.1179209948, -0.0064088404, -0.0058559328, -0.0259729773, -0.0703337491, 0.1256115586, -0.1035157293, -0.0204128474, -0.0966138095, -0.0012700260, -0.0853698775, -0.0428721085, -0.1304789037, 0.0953225046, -0.1286767423, -0.0870708972, 0.1330329627, -0.1361809224, 0.0712033957, 0.1394291073, -0.0533587411, -0.1482778341, -0.0942502320, 0.1459421068, -0.1358048916, 0.0101593882, -0.1364251673, 0.0766588598, 0.0734145641, -0.0865427181, 0.1530712694, -0.0648942962, 0.0376534462, -0.0240962952, 0.0241139382, 0.1090641469, 0.1028204113, 0.0723681599, -0.1109737307, -0.0575412139, 0.0428749770, -0.0417600721, 0.0392642170, 0.1214323789, -0.0965903997, 0.0582265556, -0.0974469930, 0.0846244097, 0.0741507113, 0.0006064028, 0.1370996386, -0.0991740227, 0.0566465408, 0.0375781655, -0.0848858431, -0.0922801718, -0.1351490319, 0.0413813740, -0.1145592630, -0.1108431816, 0.0926827043, -0.0569453314, -0.1080246270, 0.0619972199, -0.1258143485, 0.1463611871, -0.0509808287, 0.0096812993, -0.0383931771, -0.0213237703, 0.0550588816, -0.0641195402, 0.1549568325, 0.0242921710, 0.0428053141, 0.1335666031, -0.0956912041, -0.0438182727, -0.0814391822, -0.1405955702, 0.0457528979, 0.0657699704, 0.1226543337, 0.0005236864, -0.1102304459, -0.0817195028, -0.0365961120, -0.1426518559, 0.0816367120, 0.1134098619, 0.0769535452, -0.1521503180, -0.1125531346, 0.1181892902, 0.0182383955, 0.0160057396, 0.1441206485, 0.0369097590, -0.0937879086, 0.0459374189, 0.0687095672, 0.0683586448, 0.0936419517, -0.0381292626, 0.1420169622, 0.0220859051, 0.0031652898, -0.1383102536, -0.1216586083, 0.0624032170, -0.0561633781, 0.1324613541, -0.1206917837, -0.0688450113, -0.0638901517, 0.1274336427, -0.0694629401, -0.0703603253, 0.1080305427, -0.0671760365, -0.0965105966, 0.1337912828, -0.0580395758, 0.1078947634, 0.0587023646, -0.0981195569, -0.1338984668, 0.1354106814, -0.0226068795, -0.0555412248, 0.0899858773, -0.1102965698, -0.1173175424, 0.1119069606, -0.0943624154, -0.0757401064, -0.0812743306, 0.0525029749, 0.1480491608, 0.1215893179, 0.0834783018, 0.0715433806, 0.0287515670, -0.0878691375, 0.0184037834, -0.0637326166, 0.0011588186, -0.0772550479, 0.0923489779, 0.0775646567, 0.1071203798, -0.1186497658, 0.1154123098, 0.0316930115, -0.0965305418, -0.0009730756, 0.0490104705, -0.1462142020, -0.0787159726, 0.0092238784, -0.1175154150, 0.1006157249, 0.0625873357, 0.1525516957, -0.1130996272, 0.0060416311, -0.1275954396, 0.1247126907, 0.0495855808, 0.0774739981, -0.1287878752, 0.0954616815, -0.0100046396, -0.1424973309, 0.0915230513, 0.1427869648, 0.0851334035, 0.0832524598, 0.1100168079, -0.0327042788, 0.0888150334, 0.1198148280, 0.1315128356, 0.1358698457, 0.0821471065, 0.0018392503, -0.1252771020, 0.1366056949, -0.1258813441, 0.0438891053, 0.1356293112, 0.1239179224, 0.0781458020, 0.1146942228, -0.0688362271, -0.0669483095, -0.0858485624, 0.0931722373, 0.1140851825, 0.0136467963, -0.0985309035, -0.0137072206, 0.0119074434, -0.1250011921, -0.1396305561, -0.0263404548, 0.1450674683, -0.0451359823, -0.0305354446, -0.0653503612, -0.0715906918, 0.1277014464, 0.0862072855, -0.0914046466, 0.0047289729, 0.0435350835, -0.1185397655, -0.1488060504, 0.0011870563, -0.0444528684, 0.0388938040, -0.0379599631, -0.1301990002, -0.1394079179, 0.1189209074, 0.0912052691, 0.0050058216, 0.0884491801, 0.1341918856, -0.0225119144, -0.0101184398, 0.1222697943, 0.1116873771, 0.0982605368, 0.1506824344, 0.1442036480, 0.0780276954, 0.1206273884, 0.1272735447, 0.0158940405, -0.0377721563, -0.0839401707, -0.0123588741, 0.1493072957, -0.0126584023, 0.0061506182, -0.1309125721, 0.0767838657, 0.1502039880, 0.0128672868, 0.0125833899, 0.1094669551, -0.0401942804, -0.0263519436, 0.0653060228, -0.1309358329, -0.1332865208, -0.0241883844, -0.1343891621, -0.0854879096, 0.0240213573, 0.0013313591, -0.1302744299, -0.1068908125, 0.1073719114, -0.0426382720, 0.0385057032, -0.0254438519, -0.1049530208, 0.1259127706, 0.1201687604, -0.1422930509, 0.0148650557, 0.1135014743, -0.1303530335, -0.0070474744, 0.0745538473, -0.1531282961, -0.0718172118, 0.1404286176, -0.1078654677, 0.0467540175, -0.0372117460, 0.0506343246, -0.0350676030, 0.0930434018, 0.1389333159, -0.1483445615, -0.0286320001, -0.0480586141, -0.0222515762, 0.0108418465, 0.1090546995, -0.1189397648, 0.0900170952, -0.0606086031, 0.1377542466, 0.1512311250, -0.0278962255, -0.1397531927, 0.0718988329, 0.0947832316, -0.1279986799, 0.0824926645, 0.0292973518, 0.0490917116, -0.0262096375, -0.1132497787, 0.1579002589, -0.1369919032, -0.0808819011, 0.0564055145, -0.0542928800, 0.1237098426, -0.1006263494, -0.0695228055, -0.0272974670, 0.0649388880, -0.1090167463, 0.1522838324, 0.0225822926, -0.0478132814, 0.0200064331, -0.0855721235, -0.0114071965, 0.0182929486, 0.1240292042, 0.0981954783, 0.1080302745, 0.1039404720, -0.1434239298, 0.0797652304, -0.0704212114, -0.0927841812, -0.1286703050, 0.1119051129, 0.1334856302, 0.0095751882, 0.1572912782, 0.0911249369, -0.0986157209, -0.0162387043, 0.1537335366, -0.1231996343, -0.0513313040, 0.1009379774, -0.0522072762, 0.0804277658, -0.0389015675, 0.0061112642, 0.0045537949, 0.0014243573, -0.0901500061, -0.1254708618, -0.0162442178, 0.1381943971, -0.0614587143, -0.1042059660, 0.0694357604, -0.1419415921, 0.0700592697, 0.1257156879, 0.0935346335, -0.0227681398, -0.0924867466, 0.1525282711, 0.0794625282, 0.0810516626, 0.0875101089, 0.0946359485, 0.0889929980, -0.0909858719, 0.1514792293, -0.0088063180, 0.0157661438, 0.1390645355, -0.0239111185, 0.0833087116, 0.0762369931, -0.0922520086, -0.0731742382, 0.1517430395, -0.0362545773, 0.1173201650, 0.0218094587, -0.0533219799, 0.0883223265, 0.1061113030, -0.1010156497, 0.1300117522, -0.1333750039, -0.1249354780, 0.0496160686, 0.1564509422, 0.1223914474, -0.0223458260, -0.0617183745, 0.0255082846, 0.0130140483, -0.0670454949, 0.0568042397, 0.0395261347, -0.0119245946, 0.1372907907, -0.0716076940, -0.0698518306, 0.1459035724, 0.1437537819, 0.0346803665, 0.0366216004, -0.1321177185, 0.1218261570, 0.1550983936, 0.0169002265, -0.1177817434, 0.0379900485, -0.1478204429, 0.1458957046, -0.1386080235, -0.0339074656, -0.0785888508, -0.0166168511, 0.1219043285, 0.1083792001, -0.1005860493, 0.0878674686, -0.0152148157, -0.1409906447, -0.0889060721, 0.1195636243, 0.0691168755, -0.0664463341, 0.0483513623, 0.1463331133, -0.0962251574, 0.1527122706, -0.0359038040, 0.0885429382, 0.0049970746, -0.1076738536, 0.0776684731, -0.0179746002, 0.1372183412, 0.1342378110, -0.0909821764, 0.0114067793, 0.0240043104, -0.0854166597, -0.0429350957, 0.0880098194, 0.0096230656, 0.0264386833, 0.1299819797, -0.0161141604, 0.0094069391, 0.1480204612, 0.0770927966, -0.1097543314, 0.0540778935, -0.0049432516, 0.1546774656, 0.1185111851, -0.1391558051, 0.0774426311, 0.0275394469, 0.0507007092, -0.1446875334, 0.0351036042, 0.0432794690, 0.0982801765, 0.0056428313, 0.0344536602, 0.0693138540, -0.0637772530, -0.1482677311, -0.0172426701, -0.1122840047, -0.1136001348, 0.0287687629, 0.0333913118, -0.0555764288, -0.0781499818, -0.0974716097, -0.1173254922, 0.1353249997, -0.1211925596, -0.0433538407, 0.0553462952, -0.0730189309, -0.0763857886, -0.0407974347, 0.0287668705, -0.0201853067, 0.1464598924, 0.0408926606, 0.0657920986, -0.1084353402, 0.0307785124, -0.1067932472, -0.0961900204, 0.0772854686, -0.1572751552, -0.0213483125, 0.0346322656, -0.0364311114, -0.0167398602, 0.1224645525, 0.1339793652, 0.0601760298, -0.0772532746, 0.0621348172, -0.1114536077, 0.1255597025, -0.0117511153, 0.0989345759, -0.1495214254, 0.0045215189, 0.0616856962, -0.1065839157, -0.1368529499, 0.0174936205, -0.1056400537, 0.0687998831, 0.0264030248, -0.0111828595, -0.0082144588, 0.0913986117, -0.0449037254, -0.0421637371, 0.0058738440, 0.1415972561, -0.0427574664, -0.0086947680, 0.0206434429, -0.0004604757, 0.0253867507, 0.0661112070, -0.1531620473, -0.0800297558, -0.0811313093, 0.1035669595, 0.1468466967, 0.1403405815, 0.1443985254, -0.0443692580, 0.0652970225, -0.0890864581, 0.1068034023, -0.0771887749, -0.0972334743, 0.0839472264, -0.1569847316, -0.0265099704, -0.0826732814, 0.1540002674, -0.1394328475, 0.0567808151, -0.0772797763, -0.0830245018, -0.0017104000, -0.0900144875, -0.1043171436, 0.0111542195, -0.0176312029, -0.1130935997, -0.1209385842, 0.0121118426, 0.1229215413, -0.0383823961, 0.1237727851, -0.0804670826, -0.0475293025, 0.0064817518, -0.0589672253, 0.0904365033, -0.0598172620, 0.0954318494, -0.0968808234, 0.1355971545, 0.0756154358, -0.0850172192, -0.1110850126, -0.0279781669, -0.0381233022, 0.1244373173, -0.0060563684, -0.0682669580, -0.0803171247, 0.1019151360, 0.0959533900, -0.1541989744, -0.0038150847, 0.0410849899, -0.0718652382, 0.0683772266, 0.1018055528, -0.0841959119, 0.1521984488, -0.0418986902, 0.0851232708, -0.0669518486, 0.0261146426, -0.0363743752, 0.0581444055, 0.1306623071, 0.0842283368, 0.1202039570, 0.0694204271, 0.1110470444, 0.0641972721, -0.1052886397, 0.0967134088, 0.1162702590, -0.1255913824, 0.1408899575, -0.0349906236, -0.0990056992, 0.0568197966, 0.1339997500, -0.1395117044, 0.0002732724, 0.1053380519, 0.1317326874, 0.0614171326, 0.0235269964, 0.0530937612, -0.0035499930, 0.1110458523, 0.0221217126, -0.1127279699, -0.1419735551, -0.1434886903, 0.0484116822, 0.0017614365, 0.0767533034, 0.0665725023, 0.0386003256, -0.0030824691, -0.0640711039, -0.0617176592, 0.0074868649, 0.0971540958, -0.1488819271, -0.1396589130, 0.0041357279, -0.0548049957, 0.0638406128, -0.1109885424, 0.0920274705, -0.1090509370, -0.1216132939, -0.1209310144, -0.1072536111, 0.0764045268, -0.0273218602, 0.1432003826, 0.1276669055, -0.0382764712, -0.0812171474, 0.0265381336, 0.1414677352, 0.1513084620, -0.0236468613, -0.0904182643, -0.0290585458, 0.1068875939, -0.1444997340, 0.0566606373, 0.0689406842, 0.0173251033, -0.1366778910, 0.1155253202, 0.0114716291, -0.0806342363, 0.1460302025, -0.0303737968, 0.0268753022, -0.0970543772, 0.0169617832, -0.0219997615, -0.0630038157, -0.0928234234, -0.1074034870, 0.1513609737, 0.0149688721, -0.0922612846, -0.0230350047, -0.0422992930, -0.0877611339, 0.0148777664, 0.0427739471, -0.0902527720, -0.0208876133, -0.1168620437, 0.0113219321, 0.0588824153, -0.1012963802, 0.1560704559, 0.0089485496, -0.0544051751, 0.0095495582, -0.0191907883, -0.1253522336, -0.1450250447, 0.0557763726, 0.1079880744, -0.0519519150, 0.1166713685, -0.0512170047, 0.0036475211, -0.1167703569, -0.0057616532, 0.0083801001, -0.0254492462, 0.1192010194, -0.1470873058, 0.1439393908, 0.0487145483, 0.0983460695, -0.0102519244, 0.1397598237, -0.0868449733, -0.0112354457, -0.0895356536, -0.1093541011, -0.1266594231, -0.0728296489, -0.0826355442, 0.0916602761, -0.0999260098, 0.1376519948, 0.1373959333, -0.1217914522, -0.1544184536, 0.0385395885, -0.0719277039, 0.0564611852, 0.0437013358, 0.0884963721, -0.0553508103, -0.1020895317, -0.1508662403, 0.0386235416, -0.0621914789, -0.0232400745, -0.1199472994, 0.1342135519, -0.0972677469, -0.0111550093, -0.0553880557, 0.0841318965, 0.1293406039, -0.1126838624, 0.1408569664, 0.1084222347, 0.0450640917, -0.0858089030, -0.0783941820, 0.0386551023, 0.0453066379, 0.0470388234, -0.0495726839, -0.1409625262, -0.0991277695, -0.1022449583, -0.0869550109, 0.0525581986, -0.0242632180, 0.0105772167, 0.0995361954, -0.0666804686, 0.0669568628, 0.1273807138, 0.1205608100, -0.0467383415, 0.0995232016, 0.1212735027, 0.1297228485, -0.0052216798, -0.0714107230, -0.0229306966, -0.0348140448, 0.1368780583, -0.0424057171, -0.1239197254, 0.1442502886, 0.1495767683, -0.0504053459, 0.1512959450, -0.0249872357, 0.1449495703, -0.0553350598, 0.0866149813, -0.1092454195, -0.1464659125, 0.1196204275, -0.1283752024, -0.0466587245, 0.0138139129, -0.0192126483, -0.0612336621, -0.1013247669, 0.0645778626, -0.0803048685, 0.0186084360, -0.1360233873, 0.0492362827, 0.0023785532, -0.1374579519, 0.1507022828, 0.0662082732, 0.1237332672, -0.0765142217, 0.0045182109, 0.0145548135, 0.1344360560, -0.0896000415, 0.1546510905, 0.1379573792, -0.0822887644, -0.0637142584, -0.0469106585, -0.0242439955, 0.1126991957, -0.1027060747, -0.1372986883, -0.0025609583, -0.0051469207, 0.0898479074, 0.1572851688, 0.0700763911, -0.1061273664, 0.1149304360, -0.1403485835, 0.1274047941, -0.0778625011, 0.1115293354, 0.0138458759, 0.1155687720, 0.1093077213, -0.0896347985, 0.0873159617, -0.0123117864, -0.0856229812, 0.0687629431, 0.1081258208, 0.1049930900, -0.0951153040, 0.1269236654, 0.0097893476, 0.1186992675, -0.0384153053, -0.1196767092, 0.1224754304, 0.0697955042, -0.0841656029, 0.1198485345, 0.0524595827, -0.1090599895, 0.1432645768, -0.0379121229, 0.0278878063, 0.0297181606, -0.1392155886, -0.1356755942, 0.0514253527, 0.0171085000, 0.0883889347, 0.1198727041, 0.1479360908, 0.1079980284, 0.0987757891, 0.1327368468, -0.1515929997, -0.1012376845, 0.0472167134, 0.0295340866, -0.0714466125, 0.0088037103, -0.0143120736, -0.0541233495, -0.1158991754, -0.0802627280, -0.0450537652, 0.0221867412, 0.0740014017, 0.1329521388, 0.1416710466, 0.0611404777, 0.1333811730, -0.0081034154, 0.1303015500, 0.0844312161, 0.1414908618, -0.1378219575, 0.0912037641, 0.1439830214, -0.0605038851, 0.0062188506, 0.1464095265, 0.1254735440, -0.0834565908, 0.0804578066, 0.0614166111, -0.0245593637, 0.0256778449, 0.0459146202, 0.0844104886, -0.0351266339, -0.0393521190, 0.0207417309, 0.1063331515, -0.0686498135, -0.0967350453, -0.0588587001, 0.0018649548, -0.0866308138, -0.0205641389, -0.0955377445, -0.0517954305, -0.0754771307, 0.0961954743, -0.1345874965, -0.0993629619, -0.0224587172, -0.0781811178, 0.0370497555, 0.1477372199, -0.0693217292, -0.1402921081, 0.0871358812, 0.0290210992, -0.1076390222, -0.0538171008, 0.0900645554, -0.1015519351, 0.0293513387, 0.0811745077, -0.0295929313, -0.0374006853, -0.0671186596, -0.0729281530, 0.0843799859, 0.0227782428, 0.0813661665, -0.0007538348, 0.1475440413, -0.1518913805, -0.0485028028, 0.0984587520, 0.1564842612, -0.0108599514, 0.1169051379, -0.0539378077, -0.0324953943, 0.0775717050, 0.1352210492, -0.1156304330, 0.0350508243, 0.0502678305, -0.0771360397, -0.0390900522, 0.1199265271, 0.1311632246, -0.0670947656, 0.1039323360, -0.0924477726, -0.0305451006, 0.0206808448, 0.0353209227, 0.1506645530, 0.0181251913, 0.1271842867, 0.1395529360, -0.1006556749, 0.0926759988, 0.1344731599, -0.0203100145, -0.1017017365, -0.0131889582, 0.0613015890, -0.1304089725, 0.0239957124, -0.0297468603, 0.0521430820, 0.1485301107, -0.1305904090, 0.1393121630, 0.0784221143, -0.1203009412, -0.1531965286, -0.0601398796, 0.0139458477, -0.0395162180, -0.0035444051, 0.0900901407, 0.0402693301, -0.0423367694, -0.1273865253, -0.1423037499, -0.0245667994, -0.0066817254, -0.0574346855, 0.0312545896, -0.1490208805, -0.1299273968, -0.1016624570, 0.0106495619, -0.1190569699, 0.0257295221, -0.0426712930, 0.0163128674, -0.1409204453, -0.0570894480, -0.0287945122, 0.1247915477, 0.0293324888, -0.0571384579, -0.1280210465, -0.0997869447, -0.0151644945, -0.0643626153, 0.0007684529, 0.1340428740, 0.1053685397, 0.1552049369, 0.0866734535, 0.0452512652, -0.0078242570, -0.1449558288, -0.0826643854, -0.0098504573, -0.0207030922, -0.1338741928, -0.0235151947, 0.0373042971, -0.0937648416, -0.0121643841, 0.1463976055, -0.0128536373, 0.1158091277, -0.0483690873, -0.0506208241, 0.1471381932, -0.1111554280, 0.0348383188, 0.0780954361, -0.1528229117, -0.0182336569, -0.0593572035, 0.1291971654, -0.0710543692, 0.0302010626, -0.0874768198, 0.0455710888, 0.0719246119, -0.0289935172, -0.0436745286, -0.0314704925, -0.0161466599, -0.0335647985, -0.0131837279, 0.1187412292, 0.0123692304, -0.1039691195, -0.1043080539, -0.0362381414, -0.0147568285, 0.1182913333, 0.0469354987, -0.0591044426, 0.0039680898, 0.1165639013, -0.0132946968, 0.0696731806, 0.1063236445, 0.1207339913, 0.0910912752, -0.1150552854, -0.0946964920, -0.0747052804, -0.0501362234, 0.0511814207, 0.0631390363, -0.1026099771, -0.0841147453, -0.0155545026, 0.1258928329, -0.0697494820, -0.1515988857, -0.1072251052, -0.1479485780, -0.1499752253, 0.0778331757, 0.0694215149, -0.0807689279, 0.0226768851, 0.0937045962, 0.0247256458, -0.1533372253, 0.0881384760, 0.1454656571, 0.0617034882, -0.1157668233, -0.0849425420, 0.0317704827, -0.1455019116, 0.0055342615, 0.0108109862, -0.0959522277, -0.1147271320, 0.0717156529, -0.0181447566, 0.0445682555, -0.1542661935, -0.1521332860, -0.1341372430, -0.0946421698, 0.0939054936, 0.1475543529, 0.0945776254, 0.0577040315, 0.1563766152, -0.0310903490, 0.0192629397, -0.0869557634, -0.0775294453, -0.0099945664, 0.1157970279, 0.0740883946, -0.0455535129, -0.1257391870, 0.0243189037, -0.1563525945, 0.0546011627, -0.0751972273, -0.1413713843, 0.0677269399, -0.1563291103, 0.0371481925, -0.0369558185, 0.1560477763, -0.0548121184, -0.0903178006, 0.0583467335, 0.0281025767, 0.1246797889, -0.0976601392, 0.0507418662, 0.0336931199, 0.1379291266, 0.1010135263, 0.0119291991, -0.0985064059, 0.1316596717, 0.1263310462, 0.0112885237, 0.0964174122, 0.0319608897, -0.1361930668, -0.0100973248, 0.1369327158, 0.0975777358, -0.0141117573, -0.1482902020, 0.1426293403, -0.0965635180, -0.0860138610, -0.0978315473, 0.0466514081, -0.1416918933, -0.0706810951, -0.1511209905, 0.0488032103, 0.0888500512, -0.0883862302, -0.0147246718, -0.0896146297, 0.1064107567, 0.0190521330, -0.1389582753, -0.1044171154, 0.1075625867, -0.1352819949, -0.1334386319, 0.0916453898, -0.0544430614, 0.0938924104, -0.0038246959, -0.1579148471, -0.1523591280, 0.0030560046, 0.1044592708, 0.1536229998, -0.0073033571, 0.0503210574, -0.0389405414, 0.0708260089, -0.0440135449, 0.1445104033, -0.1462725550, -0.1451148093, 0.0972501785, 0.1337026507, 0.0927802175, -0.0272763222, -0.0929189846, -0.1382936984, -0.0987773389, 0.0948346108, -0.1442311406, -0.0467526689, -0.0977275372, -0.0442912206, -0.0721599981, -0.0652650520, 0.0478722751, -0.1289937049, 0.1298648566, 0.0384460241, 0.1009017974, 0.1452680081, -0.1413945705, -0.1109407023, -0.0790256485, 0.1371958703, -0.0493370816, -0.0953563079, -0.1466145068, -0.0769945234, 0.1444834024, -0.1199083626, -0.1012632847, 0.1522855312, 0.1481664330, 0.0974345058, -0.0982666463, 0.1466650516, -0.0212928206, -0.0629966930, -0.0685615242, -0.0938180313, 0.0938183218, -0.0980372280, -0.0158268660, 0.1507058889, 0.0132244676, 0.0613660216, 0.0720454752, -0.0991915539, -0.0932958499, 0.0112728775, 0.0365425497, 0.1449810416, 0.0131092668, -0.1271090657, -0.1184008121, 0.1247351915, -0.1387271434, 0.1409204453, -0.1079003364, 0.0041510016, 0.0131500512, -0.0892529264, 0.0184455067, -0.0040605962, 0.0760948360, 0.0223311931, 0.1442496926, -0.0190191120, -0.0685987696, -0.1391367316, -0.0566169918, -0.0957479477, 0.0465738326, -0.0145098418, -0.0923295170, -0.0873275772, -0.1557276398, 0.1334578842, -0.0725039095, 0.0749164969, -0.1574967057, -0.1222629324, -0.0405966640, -0.0195249021, 0.0416508317, 0.0551025420, 0.0746810734, -0.0282327384, -0.0608749762, -0.1130078286, -0.0156801939, 0.1500837058, 0.0881706327, -0.0032975376, -0.0571920276, -0.1470440030, 0.1214083284, -0.1151039153, 0.1423717886, 0.0019469559, 0.0441046953, -0.1390651762, 0.0481691808, -0.1062565148, 0.0355805457, 0.1215635985, -0.1164949834, -0.1303452253, 0.0433664322, 0.0367339700, -0.0371612310, 0.0309963375, -0.0375119299, -0.0758153498, 0.1424141675, 0.1268117279, -0.1084558517, -0.0210752338, 0.0438868850, -0.0430369228, 0.0416497290, -0.1188948676, 0.0412240922, 0.0936999768, -0.0156511962, 0.1132285148, 0.0404026359, 0.1335574836, -0.1508386135, 0.0729939044, 0.1214148849, -0.1221626997, 0.0562900454, 0.0506690741, 0.0391750187, -0.1424835622, -0.1059713364, 0.1108454019, -0.1259303540, 0.1226485521, -0.1320309788, -0.0882399231, 0.1546325833, -0.1348804832, 0.1491488963, -0.0590180084, 0.1239233762, 0.0114552975, -0.1459030211, 0.0551148653, 0.0440195054, 0.0598664582, -0.0722463578, -0.1007070988, 0.1377880722, 0.1489059478, -0.1488756686, 0.1141030937, -0.0741004273, 0.1290220171, -0.1545274407, 0.1445856839, -0.1070000529, 0.1261854023, 0.1068877429, -0.0582196116, -0.0049190819, 0.1046797484, -0.0345258862, 0.0921366960, 0.1263379008, -0.0751853138, 0.1375954896, 0.1255038828, -0.0631070659, 0.0316976905, -0.1362972558, 0.0017575622, -0.0684138313, -0.0832117498, -0.1522131562, 0.0690623671, 0.0003249496, 0.0693026483, -0.0990932733, 0.0412598252, 0.1378507167, -0.0884990543, -0.1210594475, 0.1203645021, 0.1477138847, -0.0515846312, -0.0441384688, -0.1070837080, -0.0550081432, 0.0304403007, 0.0370146632, 0.1298900098, 0.0699105561, 0.0569932163, 0.1165456027, 0.0200048536, -0.0374255255, -0.0070279837, 0.1366167814, -0.1409349591, -0.0859734118, 0.0896951556, -0.1111960635, -0.0513585955, -0.0199022442, 0.0111025274, -0.0339068994, 0.0256081074, -0.0537155420, 0.1396983713, -0.1380243152, -0.1410880536, -0.0959089845, -0.1504704207, -0.0106987506, 0.1198989600, -0.0931274891, 0.0597914457, 0.0950726420, 0.1557754129, 0.0217113346, -0.1199478656, 0.0454565883, 0.0079897493, 0.1060420424, 0.0893953890, -0.0042450875, 0.0360559821, 0.0091243982, 0.0139261633, -0.1183146313, -0.0637780800, 0.0498188436, 0.0549353212, -0.0002852976, 0.0899539441, 0.1357540041, -0.0200422853, 0.1206260771, 0.0161179304, 0.1207963675, 0.0272915214, -0.1071692407, -0.1345236003, 0.0254490972, -0.0519278646, 0.0186233968, -0.1099802554, 0.0431924909, -0.1314419508, -0.1123016924, -0.0520181879, 0.0884631723, 0.1221490949, -0.0720164105, 0.1147703975, 0.0442408621, -0.0974892974, -0.0038028657, 0.0301697850, 0.0816494972, 0.0225100368, -0.0306323618, 0.0098970383, 0.0054275841, 0.1412754208, -0.1041384190, 0.1442125291, 0.0507185012, 0.1040792614, 0.0097033232, 0.0620518774, -0.1322671175, 0.1413347572, -0.1331741512, -0.0128009766, 0.0337356776, -0.0581579804, -0.0127241611, 0.0129733384, 0.1332118958, -0.0055489987, 0.0449937880, 0.0490633249, -0.0989235640, -0.0269708633, -0.0652652383, 0.1193682700, -0.0726079494, -0.1455786228, -0.0925200358, -0.1083929688, -0.1114904061, 0.0342518985, 0.0042696297, 0.0765891671, -0.1428052038, 0.0246046484, -0.0150947422, -0.0658872798, -0.1037574112, -0.1449510455, -0.1020253003, -0.0048964620, 0.1237163395, 0.1069046110, -0.0184775889, -0.0012802035, 0.0633515716, 0.0038257837, -0.1045987383, -0.0084967762, 0.0405245423, -0.0229537636, 0.1171136349, 0.1509751529, 0.1039454788, 0.1118890792, -0.0598776564, -0.0856547579, 0.1015491635, 0.1134460717, -0.0690322891, 0.0267591923, 0.1561427265, 0.1232974976, 0.0504739881, 0.0689508319, -0.0316742808, -0.0931871682, 0.0014583915, 0.0785112381, -0.1415926665, -0.1393905431, -0.1095045134, 0.1422583908, -0.1197881103, 0.1443356127, 0.0869181007, 0.0690549463, 0.0564545542, 0.1511644274, 0.0396471024, 0.0966856927, -0.0738065019, 0.0013250560, 0.0873996168, 0.0684811175, -0.1433009207, 0.1496699303, -0.0696640611, 0.0982620269, 0.0909185857, -0.1479583830, -0.0125196874, 0.0610536188, -0.0914768055, -0.0243795067, 0.0128965378, -0.0683357939, 0.0542237759, -0.1475041360, 0.0482074469, -0.1364075989, 0.0243821591, 0.1231031567, 0.1471563727, -0.0289898515, 0.0332597494, 0.0528780222, -0.0807589740, -0.0680910274, 0.0254614204, 0.1210448295, -0.1116893291, -0.0587423220, 0.0237915516, -0.0055629462, -0.0321939290, 0.1315778047, 0.1507495195, -0.0993943214, -0.0030419379, -0.0968807489, -0.0834927037, 0.1064510792, -0.0383800194, 0.1066774875, -0.0451052189, 0.0797151327, 0.0392946750, -0.0937839523, -0.0572745427, 0.1540604383, -0.1066639125, 0.1547115594, -0.1559689045, -0.0469266772, -0.1157496348, -0.1198891699, -0.1420763284, -0.0683683306, 0.0677359253, -0.0628306717, 0.0502279848, 0.0717852116, 0.1419093758, -0.0587466583, -0.0637960583, 0.0031480193, 0.0032625049, -0.0709582791, 0.0876896530, -0.1293668747, -0.1188410372, -0.1414086670, -0.1520551741, 0.0939169973, 0.0934146196, -0.0404540896, 0.0187776238, -0.0564958677, -0.0926450044, 0.1332177967, 0.0920767933, 0.0689375252, 0.1041665822, -0.0463188812, -0.1563629210, 0.0007349104, 0.0345063210, 0.1331255585, 0.0196227580, 0.1397314817, -0.0493239611, 0.0424881279, 0.0727968216, -0.0347282887, -0.0738775209, 0.1093642861, -0.0580233261, 0.0795005262, -0.1424733102, 0.0382812917, 0.0748395175, -0.1011126488, -0.1498037726, -0.0830308348, -0.0546657816, -0.0575731099, 0.0903723091, -0.0448214337, 0.0349951386, 0.0933295339, -0.0076249987, 0.0851960629, -0.0854229555, 0.0515114218, -0.0902432725, -0.0374656767, -0.1211258695, -0.0716063380, 0.0089478344, 0.0342923552, 0.1154022068, -0.1511689126, 0.0711967498, 0.1509574801, 0.0389507562, 0.0809434652, 0.0506088734, 0.1351734847, -0.1279902756, 0.0366383344, -0.0684227645, -0.0481564030, -0.1500998586, 0.1317961961, 0.0410415232, -0.1061818749, -0.0401316285, -0.0107436478, 0.0598398000, 0.1194889396, 0.1197803468, 0.0103385895, 0.1099422127, 0.1015671641, -0.0215172023, 0.0389340222, 0.1168643087, -0.1407340765, -0.0488657877, -0.0699133128, 0.0805559307, 0.1127686054, -0.0976119190, 0.1548764855, -0.0112317950, -0.0346267298, -0.1117360443, 0.0546236336, 0.0026465058, -0.0455161929, -0.1384396702, 0.1082798690, -0.0874836817, -0.1287394464, 0.1256376058, 0.0002809912, 0.1278408021, -0.0887751132, -0.0170035064, 0.1049054712, 0.0575763434, -0.0418667570, -0.0792088583, -0.1550907791, 0.0750373155, -0.0941414386, -0.0482847244, -0.0179790407, -0.0082919002, -0.1437810659, 0.0246074647, 0.1318697482, -0.0603121519, -0.1188042834, -0.0597695783, -0.1305820793, 0.1163548678, 0.0220970511, -0.0780681446, -0.0824039355, 0.0609152764, -0.0755337179, 0.1404529363, 0.0694748908, -0.1478129923, -0.0688280091, -0.0361836627, 0.0872366428, -0.0784112588, -0.0056036711, 0.0792938322, -0.1040457562, -0.0885359272, -0.0636330619, -0.0833877549, 0.0932669193, -0.0644658282, 0.1267132014, 0.0663654357, -0.0835832134, 0.1067384332, 0.0011535734, -0.0714743584, 0.0841137618, -0.0207887292, -0.0040406585, -0.1121321246, 0.1171405166, -0.0852777064, -0.0647236034, 0.1377527863, 0.0038827062, -0.0031274110, -0.0289665908, -0.1398932040, -0.1533184052, -0.1228039265, -0.0745000541, 0.1536311358, -0.0688537210, 0.1174481958, 0.0830853134, -0.0851726085, -0.1138679385, 0.1232045442, -0.0540327281, 0.0294628441, -0.0614898577, 0.0957946926, -0.1017380804, -0.1364915520, 0.0139036626, -0.0475679040, 0.0041934103, 0.0932602137, 0.0691143572, -0.0028009117, 0.0094884783, 0.0420556217, -0.0911783502, 0.0614207536, 0.0434857458, 0.0984828025, -0.0412014797, 0.0217934400, 0.0565421283, 0.1391772479, 0.0083271861, -0.0287887752, -0.0902010873, 0.1243576854, -0.0707799718, 0.0693260282, 0.0428677648, -0.0233029127, 0.0337678045, -0.0133610517, 0.1329274327, 0.1059750170, 0.1433675736, -0.1413428485, 0.1531665176, 0.1371215433, -0.0177058131, -0.1536846459, 0.1372938305, 0.0988547951, 0.0648569763, -0.1167027727, -0.0123940408, -0.1363459975, -0.0692694038, -0.0533415452, 0.0096332431, 0.1087599248, -0.0994043201, -0.0787874833, 0.1384274811, -0.0999765620, -0.1482776105, -0.0649592876, -0.0553952605, 0.0629676282, -0.0918541551, -0.1254748106, -0.0881128088, 0.1099559814, -0.1019128859, 0.0514467359, -0.0109368861, -0.1536683589, 0.0938018709, -0.0278886855, 0.0678414255, 0.0171925575, 0.1397116929, 0.0049200207, -0.1549890041, -0.0564633384, -0.0853215903, 0.0643343031, 0.0180069059, -0.0816865936, 0.0712491870, 0.0841732174, -0.0483411551, 0.1538609117, -0.1557366848, 0.1525058001, 0.1408580095, -0.0744881779, -0.0410689339, 0.0314959288, 0.0333357155, -0.1204118058, -0.0128227770, 0.0747071952, -0.1269486696, -0.1552470475, 0.0218263865, 0.1399293989, 0.0755616426, 0.0518042147, -0.0791823193, 0.1350916475, 0.1262580901, -0.1468982548, 0.0484070182, 0.0617556274, -0.0930941701, -0.0679421201, -0.0836348608, -0.0547332540, -0.0904412195, -0.1501383483, 0.0470519811, -0.1107603982, 0.0475247055, 0.0094990432, -0.1360049844, -0.1472251713, 0.0886190534, 0.0979049355, 0.1051369756, -0.0253008008, -0.0681173354, 0.0574619323, 0.0172699541, 0.1223478764, -0.0511883199, 0.1471559554, -0.1081920862, -0.1106985360, 0.0162421018, -0.0818099380, 0.0057252049, -0.0097324997, -0.0588845983, -0.0133739114, 0.0095431507, -0.0306294262, -0.1547811776, -0.0734866410, -0.0278188586, -0.0999959409, -0.1266419291, -0.0106581599, 0.0670628697, 0.1529278308, 0.0569205284, 0.0701773763, -0.0598198250, -0.0974594802, 0.0633710176, 0.1549185067, 0.1317830831, 0.0324568748, 0.0132942498, -0.1019704491, -0.0222497284, 0.0130670071, 0.1513288170, 0.0595518798, -0.0904709622, -0.0585716292, -0.0718354955, -0.0458854735, 0.0943396538, -0.1574792117, 0.1293860227, -0.1444911361, -0.1465838253, -0.1162678599, -0.0179557502, 0.0935841054, -0.0713553876, -0.0421701074, 0.1130187362, 0.1030201167, 0.0248608291, 0.0111188889, -0.1489215493, 0.1285033673, 0.1058612913, 0.0044060200, 0.0901436359, 0.0956444889, 0.1503282934, 0.1318154186, -0.1501303166, -0.1444902718, 0.0773360282, -0.1225879639, -0.1537550539, 0.0507135987, -0.0040354133, -0.1124369055, 0.0949319452, -0.1004932374, 0.0623952299, -0.1421731710, -0.1403754652, -0.0641383529, -0.1041307300, 0.0768588483, 0.0818863064, 0.0825465471, -0.0064143389, -0.1011225954, -0.0589194670, 0.0085110366, -0.0591859818, -0.0427803546, -0.1063994616, 0.1006751806, -0.0416105315, -0.0644928217, -0.0935553536, -0.0721447319, -0.0585895404, 0.1459983140, -0.0722945035, -0.1059386507, -0.1129096001, 0.1488038152, 0.0317087322, 0.0240449905, 0.0944751650, -0.0332390144, -0.0775004551, 0.0098297894, -0.1226152182, 0.1577051431, 0.0457866341, 0.0703632683, -0.0411607996, 0.0180554241, -0.0403831080, -0.1282189935, 0.1089557856, -0.0612460673, 0.0020163953, 0.1216079742, -0.0257379413, 0.1257080883, -0.1045510471, 0.0730269253, -0.0361166000, -0.1246039346, -0.0189717263, -0.0429478437, 0.0587416887, -0.1058235988, -0.0706456229, -0.0383189172, -0.1539045274, -0.0173400789, 0.0510581881, 0.1011065096, 0.0744661242, -0.0953437164, 0.0057084560, 0.1343909651, 0.0323174000, 0.0703197718, 0.1054654866, 0.0096606910, -0.1168392748, 0.1533480436, -0.1244878620, -0.0072331280, 0.1408499926, -0.0241908431, -0.0716156438, 0.0254757553, 0.1383862942, 0.0873291194, -0.1549952924, 0.0155376196, 0.0951335877, 0.0855813920, 0.1325117797, -0.1554414779, -0.1442911178, -0.1578756720, -0.0168672353, 0.1262446791, -0.0699918717, -0.1075679660, 0.0795500576, -0.0945528597, 0.0816015005, -0.0775703490, 0.0559211373, -0.0031508505, -0.1465822458, 0.1335961074, 0.0635678768, -0.1396582276, -0.0280333310, -0.1450110972, -0.0735369995, 0.1342295855, 0.1085394174, -0.1287300587, 0.1503981203, -0.1532011330, 0.1356375962, 0.0568926632, 0.0998603255, 0.0493474901, 0.0132261366, 0.1561219543, -0.1272984594, -0.1322520375, -0.0538481995, -0.0914276838, -0.1353546381, 0.0441210568, -0.0080223531, -0.0355380997, 0.0330819637, -0.0107394606, -0.1414398402, -0.1282221228, 0.1236526519, 0.0154337585, 0.1248982102, 0.1217477471, -0.0649088472, -0.0187012404, -0.0438644141, 0.1024741679, -0.0600759834, -0.1021104157, 0.1049224883, -0.1541635096, 0.0138251036, 0.0447496921, -0.1349411309, 0.0590096712, 0.1287397891, -0.0038777739, 0.0139738917, 0.0577830821, -0.1188052595, -0.0112054795, -0.0277479142, -0.0286825448, -0.0246111602, -0.1256763935, -0.0354874730, -0.1525225490, 0.0093307197, 0.1395137161, -0.0041497946, -0.1023821384, 0.1360918730, 0.0470050871, -0.0331375003, -0.0449780300, -0.1490546167, 0.1158534437, -0.1512520313, -0.1442500204, -0.1017034352, 0.0017571449, 0.1110077649, 0.1080844849, 0.0652993917, -0.0037842393, -0.0855757445, -0.1336476207, 0.0147384703, -0.1562685221, 0.0047288239, 0.0883087218, -0.0272478610, 0.0360760838, 0.1578183025, 0.0058762133, 0.1114869863, 0.1372075826, 0.0336886644, 0.1565411240, 0.0066407919, 0.0763474107, -0.0194966644, 0.0688818097, 0.0591176003, -0.1396425068, -0.0677348599, 0.0621271282, -0.0539405942, 0.0053224117, -0.1012006998, 0.0229783803, -0.0647497624, 0.1123883277, -0.0929777175, 0.0393138230, -0.0628893301, -0.1207046062, 0.0407011956, 0.0196172893, -0.0220793784, -0.1480102539, -0.0298809111, 0.0451427698, -0.0926606879, -0.0073858798, 0.1060494930, 0.1402142793, 0.0294259042, -0.1043680310, -0.0544205606, 0.1567755193, -0.0352719948, 0.1292870790, 0.0021613389, 0.1077915877, 0.0125715882, 0.0639745146, -0.1018288136, 0.1093658954, 0.0505449325, 0.0385550559, 0.1541448981, -0.0192411542, -0.1179689094, -0.0860389695, -0.0219659507, -0.0689724237, -0.1081590950, 0.0655415654, 0.0165244937, -0.0823798403, 0.0348636210, -0.1001579985, -0.1516253501, 0.0756327063, 0.0861845613, 0.0132141858, -0.0814271197, -0.0317914039, -0.0637895390, -0.0520142615, -0.1163292304, 0.1500746459, -0.0171341002, 0.0073317885, 0.1104210764, -0.1469130367, 0.0207376182, 0.0560735464, -0.0829249844, 0.1172666997, 0.0423454791, -0.0305439234, -0.1397431642, 0.1347543448, -0.1545105875, 0.1195750684, -0.0560687557, -0.0842524171, -0.1198380589, 0.0740629882, 0.0007640421, 0.0882641673, -0.0911559984, -0.1478118896, -0.0290676653, 0.0049682409, -0.0015781522, 0.1310079247, 0.0121260434, 0.0561164021, 0.1440116018, -0.1452479511, -0.0190381855, -0.1206522733, 0.0444876254, -0.0217925757, -0.0105798244, 0.0750171840, 0.0590095967, -0.0583975092, 0.1111864001, -0.0890854001, 0.1175379306, -0.1382204890, 0.0892980844, 0.0848550797, -0.0384496152, 0.0592784137, 0.0273998529, -0.1170346588, -0.1513382494, 0.0887331218, -0.0335345268, 0.0388224721, -0.1570542902, 0.1491982192, 0.0156526268, -0.0480011255, 0.1308962852, -0.0157461911, 0.0234487653, 0.1266635507, -0.0185901225, 0.0452376902, 0.0153554976, 0.1413425058, -0.0932674259, -0.1225036681, 0.1436076611, -0.0292434096, -0.1357794851, -0.0016290098, 0.0639912635, 0.0161111802, -0.0461614206, -0.0862780437, -0.0720130131, 0.0775901377, 0.1574905068, -0.0058271289, 0.0763402879, 0.0419050902, -0.0289692283, -0.0337565988, 0.0501432419, -0.0353660882, 0.1374337226, 0.1226559132, 0.1325637549, -0.1170291901, 0.1032282561, -0.0422252193, 0.0120691955, -0.0256638974, -0.0858869702, 0.0067772567, 0.0903210044, 0.0880815983, 0.0676779747, -0.0274405330, 0.1453960091, 0.0481117666, 0.0411060303, 0.0355704874, 0.0166231096, -0.1452689767, 0.0318929553, -0.1357960701, -0.1086734384, 0.1102531701, -0.1409049928, -0.0739669427, -0.0539198592, 0.0974374563, 0.1193421334, -0.1453903615, -0.1103935689, -0.1031895727, 0.0294755846, -0.0604842007, 0.0942221731, 0.1564648896, 0.1578347832, 0.0942119211, -0.1072217524, -0.0191555321, 0.0987613648, -0.1080676019, -0.0877232105, -0.1278906465, 0.0656472296, -0.0863766968, 0.1281716079, 0.1511049420, -0.0669922978, 0.0730444491, 0.0871064067, 0.1083686501, 0.0863654315, -0.0225481838, -0.0546895638, -0.0647871643, 0.0181149840, 0.1398077756, 0.0268317163, -0.0747244656, -0.1412725747, -0.0027759969, 0.1092745513, -0.0992299616, 0.0593376756, -0.0687119365, 0.0024629086, -0.0735238492, 0.1556018144, -0.0660772026, 0.0373856127, 0.1387354285, -0.0641684383, -0.0568761975, 0.1564611346, -0.1208925620, 0.0659727007, 0.0079449266, -0.0503793359, 0.0451940000, 0.1136680394, -0.1352791637, -0.1243172884, -0.1103364527, -0.0786199570, 0.0817770958, -0.1432285011, 0.0508339554, -0.0759005845, -0.0099218935, -0.0576198101, -0.0495534241, 0.0552580804, -0.0537628159, 0.0442760736, 0.1310441643, 0.1562097222, 0.0826757997, 0.1538615078, 0.0455647856, 0.0178465694, -0.0744367242, 0.0416995734, -0.1067413762, -0.0406538844, -0.0705338866, 0.0802869350, -0.1391092539, 0.1226690561, 0.1465561241, 0.0937663466, -0.0007150024, 0.0001753718, 0.1195202917, -0.1145519540, -0.1001367718, -0.0380178243, 0.0759819746, -0.1277462691, 0.0130074471, -0.0899874195, -0.0523834303, 0.1063331813, -0.0211574882, -0.1138898358, -0.0822975859, -0.0830672160, -0.0163665414, 0.0886135399, -0.0197706819, -0.0025017858, -0.0549033061, -0.0104807168, 0.0718280673, 0.1569638401, -0.1330277622, 0.1154653877, -0.0242132694, 0.0081351101, 0.1142634600, -0.0360170826, 0.1573374420, 0.0094762743, -0.0694518983, 0.0657415390, 0.0048846602, 0.1316984445, -0.0840855315, -0.0117273629, -0.0907429457, -0.1149847507, -0.0432069749, 0.0414683372, 0.0451188684, 0.0220556706, 0.0693964511, -0.1157315001, -0.1223825067, -0.1161086634, 0.0677210987, -0.0135103315, -0.0121064782, -0.1226577759, 0.0633075088, -0.0898342207, -0.1104893908, 0.1458485872, -0.0524005517, -0.1238824874, -0.1248833835, -0.0677929148, 0.1526015848, -0.1124542132, 0.0980359465, -0.0977795273, 0.0768597573, -0.1432852447, -0.0917459950, 0.0668947846, -0.0232076496, -0.0839088857, 0.1526674181, 0.0111410618, 0.0514389277, 0.1165133864, -0.0891607925, -0.0638057515, -0.0545564592, -0.0499481112, 0.1444752067, -0.0509392545, -0.0670907646, 0.0311382264, 0.0364872813, 0.1088271588, -0.0586302131, -0.0160740465, 0.0372664779, 0.0294336677, -0.0362626016, 0.0087055117, 0.0809819549, -0.0945150554, -0.0355540067, -0.1196181327, -0.1547650397, -0.0973009616, 0.1147660762, -0.0692042261, 0.1155866534, -0.1158939376, 0.0473749042, 0.1569085866, 0.0697897375, 0.0285416692, -0.0317173302, 0.1344396025, -0.0616096929, -0.1327684522, -0.0992841721, 0.0794505030, 0.0388514251, 0.0515533090, -0.0210454464, -0.0747019276, 0.1547502726, -0.0358206406, -0.0982729793, 0.0044069588, -0.0558398962, -0.1301595718, -0.1148411632, 0.0380533338, -0.1351054907, 0.0402536541, 0.1434847265, 0.0984421819, -0.0458543003, 0.0580343306, 0.1378984898, 0.1368983835, 0.0533886701, 0.0722932965, -0.1386586875, -0.0539223477, -0.1044339612, 0.0538154393, 0.1237473637, 0.0946946293, 0.0715731233, 0.0019418597, 0.1336982399, -0.0312587470, -0.1254420578, -0.1129293442, 0.0699464828, -0.0429536849, -0.1180627346, 0.1567876786, -0.1369318068, 0.0821459740, 0.0740054250, -0.1359045208, -0.1207349151, 0.1442377418, -0.1330734938, 0.0674630702, 0.0281667411, 0.0711682141, 0.1298359782, -0.0524756387, -0.1136078238, -0.0598008633, 0.1018265933, 0.0909549147, -0.0155677348, -0.0026920736, -0.1240479797, 0.0313930511, -0.1054525822, -0.1053479016, -0.0719634444, 0.0936235636, 0.1580310315, -0.1090907827, 0.1194414049, -0.1524400562, 0.0790423155, -0.1355000734, -0.0091117322, 0.1171063930, -0.1442367136, 0.0858417004, 0.1366643757, -0.0591159090, 0.1413375586, -0.0817703903, 0.0346236080, -0.0672645867, -0.0643308759, -0.0619227737, -0.1140883118, 0.1204644293, -0.0051425546, 0.0792201012, -0.0094999820, -0.0535421371, -0.0218985826, 0.0213401318, 0.1264717728, 0.1506051570, 0.1207982749, 0.1326472908, -0.0714814812, -0.1291289628, 0.1350350827, -0.1137628406, 0.0388859212, 0.1126710325, -0.0688478351, 0.1050591618, 0.1075108498, -0.0333234593, -0.1423414946, 0.1226699799, 0.1036307067, -0.0537588596, -0.0153829008, 0.1204909235, -0.0659292787, 0.1041349620, -0.0623203292, 0.0497213304, -0.0359868854, 0.1362664849, 0.0566082448, 0.0724079311, 0.0780811906, 0.0662923753, -0.0720912367, -0.0680600032, 0.0898247212, -0.1052679792, 0.0547354072, 0.0108489841, -0.0616046041, -0.0604880527, -0.0271719843, -0.0853321850, 0.1343883723, -0.0425359979, -0.0448781699, 0.0995726436, 0.0699330270, 0.0331274271, -0.0995812267, -0.0677793473, 0.0428686440, 0.1123743206, -0.1224334762, 0.0407680720, 0.0674698949, -0.1252353638, 0.0153237283, 0.1464269012, -0.1465703249, -0.0225819200, 0.1088637263, 0.1304614097, 0.0692151189, -0.0251856744, 0.1333785504, -0.0254672766, -0.0491031632, 0.0427814126, -0.0518592149, 0.1015174836, 0.1519877762, -0.0146847963, 0.1527856439, -0.0109177381, 0.0552678406, -0.0554889739, -0.0413848013, -0.0678547025, 0.0414365530, 0.0731728524, -0.1448710561, -0.1114895046, 0.0972827226, 0.0628606826, -0.0534894317, 0.0366195142, -0.0367839560, -0.0430432111, 0.0064017475, -0.1014570445, 0.1375683099, -0.0913539454, -0.0391896814, 0.0729260445, -0.1547592431, -0.0417511389, 0.0446922034, -0.0733064860, 0.0867573619, 0.0946589857, -0.0373216346, 0.0532095730, 0.1432967335, 0.1114260107, 0.0872135460, 0.1278388649, 0.0375987142, 0.0961296707, -0.1269693673, 0.1320033222, 0.1387856156, 0.0397988409, 0.0200808942, 0.0125231147, 0.0248090774, -0.0411664546, 0.0359240025, -0.0129931271, -0.0163540691, -0.0971070826, 0.1152922958, -0.1322849840, -0.1105096340, -0.0374293700, -0.1197213456, 0.0768872052, 0.0227894038, 0.1469449550, 0.0520656109, 0.0223792642, -0.0907805339, -0.0379652381, 0.0959418267, -0.1266429424, 0.0874293149, -0.0988207236, -0.1220761389, 0.0252358466, -0.0431419462, 0.1218416244, -0.1092741489, -0.0330651999, 0.0148499012, 0.0470183492, 0.0886887163, 0.1117210239, 0.0593488067, 0.0945386142, -0.0398867428, -0.0712615177, -0.1526610851, 0.1191381961, -0.1543117017, -0.0645399764, -0.0528178215, -0.1231693998, 0.1031403393, 0.0296289772, -0.0506699011, 0.1008385867, -0.0411723331, 0.0658081174, 0.0438115597, -0.0066737086, 0.0332953334, 0.0760726780, 0.1127859205, -0.0596239120, 0.0505360812, -0.0905086994, 0.0007186234, 0.0867802799, -0.0506319031, -0.0203409642, -0.0987418592, -0.1029291600, 0.1227933615, 0.1113629490, -0.0824780092, 0.0248552859, 0.1455716938, -0.1563699692, -0.0649871454, -0.0660824031, -0.0039837807, 0.0939958543, -0.1101062372, -0.1565547585, -0.1490705609, -0.0909628347, -0.1537955403, -0.1228859946, 0.1481936425, 0.0713694096, -0.1577368379, -0.0685399994, -0.1087501943, -0.1341172606, 0.1255284995, -0.0075038671, -0.1116946861, -0.0814014897, -0.0698540136, -0.0305597931, -0.1455990225, -0.0231307894, -0.0551414788, -0.1063432544, 0.0455325544, -0.0991533250, 0.0539193749, 0.0229873210, 0.0924962610, 0.0636672527, -0.1482390463, -0.1548952907, 0.0695729405, -0.0446759984, -0.0828520060, -0.0634931624, -0.1375450790, 0.0942323655, 0.0431438982, -0.1480374783, -0.0759918466, 0.1108951420, 0.0178951621, -0.1353202164, 0.0583222657, 0.1411655098, -0.0576273128, 0.1136905402, 0.0478433669, -0.0761411339, -0.0678645819, -0.1048187017, -0.0880298764, -0.0293580890, 0.1308604628, 0.0640210360, -0.1049513221, -0.0738460422, 0.1261063963, 0.0997852534, 0.1578665823, -0.0266332775, -0.1253128350, -0.0615430474, -0.0997373760, -0.1036029309, 0.1071610600, 0.1006347686, 0.0864928067, -0.0129034072, -0.0995385945, -0.0582489446, 0.0065980107, -0.1254097521, -0.0297083259, -0.1459228396, 0.1239740998, -0.0500210971, 0.0583389699, 0.0229709148, 0.0483597815, 0.1472132951, -0.0329672545, 0.0862050205, 0.0795349032, -0.1297548115, 0.0394833833, -0.0116518587, 0.0525958240, -0.1407516748, 0.1564790756, -0.0693332255, 0.1577568501, 0.0528099090, 0.1426506191, 0.1106267720, 0.0812722594, -0.0229105204, -0.1477726549, 0.0488886684, -0.1488734782, 0.0714691877, 0.1045284420, 0.1008487195, -0.1108685881, -0.1276292950, -0.1553825587, 0.0549223423, -0.1274085343, -0.1131055057, 0.1216153949, 0.0108347982, -0.0159547031, 0.1415197998, 0.0171744376, 0.0077408701, 0.1390033811, 0.1266141385, -0.0365677252, -0.0651421919, 0.1040468365, 0.0730114579, 0.0911699086, -0.0528088510, -0.1505759656, -0.0628772303, 0.1139623970, 0.0115692168, 0.1362655908, -0.0573075637, 0.0051200390, 0.0499314070, -0.0199636221, 0.1095494181, 0.0590670854, -0.1208221763, 0.0693311542, 0.0481983572, 0.1561097056, -0.1317145079, -0.0761289522, -0.1220431924, 0.1262573451, -0.0932244882, -0.0578544438, 0.0932743996, 0.0499596149, -0.0227124691, 0.0221682638, 0.1494421512, -0.1078349799, -0.0959175378, 0.1234087497, -0.1029541939, -0.1202330440, 0.1546104699, 0.1419282407, -0.0008338988, -0.0038989186, -0.0494392365, 0.0267883390, 0.0878444016, 0.0777269751, -0.0652208701, -0.0335318148, -0.0923284963, -0.0711517036, 0.1448760778, 0.1068646461, 0.0588521808, 0.0730956495, -0.1107471660, -0.1506516337, -0.0888537094, -0.1433431804, -0.1378090382, 0.0328656584, 0.0079814643, -0.0268975794, 0.0866147578, 0.0985021144, 0.1045112461, -0.0714950562, -0.0343363881, 0.1464835852, 0.0846785158, 0.0282923728, -0.0884908736, 0.0313694626, 0.0808089972, 0.1565213352, 0.0398113579, -0.0230930895, 0.1236570030, -0.1321157217, 0.0365150571, 0.1371839195, -0.0582415909, -0.0242107809, -0.0005936623, -0.0746846944, -0.0367716327, -0.1031663567, -0.0123898536, 0.1275440603, -0.0148518234, 0.0653641969, 0.0831716806, 0.0000347942, 0.1401700526, 0.0979551524, -0.0469695777, -0.1543309540, -0.0604938567, 0.0505767465, -0.1350822300, -0.0141007453, -0.1228039637, 0.0621151328, 0.0575315952, -0.0045223236, 0.1295344085, -0.0854104012, 0.0622894466, -0.0888134167, -0.1484731734, -0.0571912304, 0.0809736550, 0.0385589749, 0.1382037252, 0.0228443295, 0.0809430927, -0.0901928693, 0.1249139458, -0.0959461555, 0.0541386157, 0.0461945534, -0.0538767353, 0.0214713216, 0.0208942145, -0.1471472085, 0.0646852255, 0.1217665821, 0.1021359116, 0.0531108081, 0.0155198574, 0.0357202142, -0.0202081949, 0.0742334574, -0.1510365605, -0.0421672836, -0.0221463591, -0.1421280801, -0.1553103328, -0.0904961824, -0.0564478040, 0.1357118636, 0.0269220024, 0.0760591030, -0.1351304501, 0.1101928502, -0.0570671335, 0.0111065209, -0.1358110309, -0.1242527813, -0.0856539309, -0.0720047951, -0.0908285603, -0.0071642548, 0.0240245163, -0.1085977405, -0.0161354542, -0.0578257516, -0.0456160530, 0.1121853143, 0.0625078380, 0.0848832130, -0.0760701448, -0.1555200070, -0.0748190880, -0.0074856579, 0.1448350102, 0.0667601973, 0.0626958311, -0.0659079775, -0.1380890459, -0.0138831586, -0.0360781476, -0.0979835391, 0.0151950270, -0.1374468356, 0.1269193441, -0.0189950168, 0.0038778782, 0.1540466696, -0.0770853758, 0.0382486135, -0.0012476742, -0.0477443337, 0.0013875216, 0.1115746349, 0.1403665394, -0.1254382133, -0.0329843014, -0.0251099318, 0.1360057443, -0.0768096521, 0.0149679035, 0.0388793647, -0.0589299425, 0.0936579257, 0.0841275305, -0.1558248699, -0.1516075134, -0.0543030947, -0.1269202828, 0.0718272477, -0.1132135838, -0.0778124407, 0.1500865072, -0.0746708959, 0.1366395801, 0.1257266849, -0.0193864703, -0.1041412428, -0.0850216672, -0.0576703623, -0.0451612398, 0.0587495267, 0.0482899547, -0.0268742144, 0.0122257918, 0.0036979169, 0.1319231242, -0.1111018583, 0.1320602447, -0.1246816665, -0.0279899687, -0.0810734034, 0.0343239456, 0.0738929063, -0.1120683402, -0.0599808320, 0.0644998252, -0.0563951805, 0.0578002632, -0.1274617612, 0.0396290869, 0.1525113136, -0.1525833160, 0.0696904808, -0.0286391526, 0.1226978749, -0.0685730651, -0.1268055737, 0.0327911377, 0.0541072190, -0.0508899838, -0.0480840206, 0.1070872098, -0.1025438607, -0.0428223461, 0.0681360066, -0.1087866053, -0.1185998917, -0.1252149642, 0.0922710449, -0.1533358991, 0.0662223697, -0.1323460490, 0.1426341087, -0.1241763681, -0.0735361725, -0.0155781358, -0.0041969568, 0.0461659133, -0.0260446817, -0.1543416232, -0.0226043463, -0.0769346952, 0.0089359581, -0.1231139898, 0.0040477812, 0.0218652189, -0.0484997854, -0.0693649650, 0.1072963625, -0.0362972841, 0.0203991681, 0.0953388959, -0.1431450397, 0.0726752430, 0.0847514570, 0.0242681205, -0.0222483426, -0.0102152824, -0.0949712619, -0.1126537025, -0.1364313513, 0.0166461468, 0.1077793390, -0.0281276107, 0.0310730785, -0.1245466769, 0.1083195060, 0.0094718933, 0.0940158516, 0.0751346499, 0.0325305015, 0.1532529742, -0.1209808439, -0.1436551213, 0.0270847082, -0.0544525236, -0.0954759941, -0.0871951431, 0.1475468427, -0.0062077940, 0.0160060823, -0.0358573571, 0.0612675548, 0.0772670358, 0.1415620297, 0.0486419797, 0.1028381139, 0.1197899133, -0.1307414323, -0.0349600837, 0.1133898944, -0.0618441328, 0.0894321799, 0.0665345043, 0.0879931152, 0.0332266837, -0.1576167643, 0.0135505944, 0.1239635795, 0.1486163586, -0.0757327601, 0.0895030499, 0.0122801960, -0.1460044980, 0.1391329914, 0.0535626858, 0.0541359782, -0.0010346323, 0.1130620092, 0.0496124923, -0.0129392147, 0.0146875829, 0.1085641235, 0.1534180790, -0.0963589400, 0.0536559373, -0.1578072160, -0.1039287448, 0.0329258293, 0.0868023038, -0.0053091794, -0.1166232675, -0.1468386203, -0.0988915935, -0.0930589586, 0.1218706220, 0.1540630311, -0.1112542301, 0.0974751562, -0.1442939788, -0.0896118432, 0.1136363596, -0.0935084969, -0.0011198670, 0.1384016424, 0.0235881358, -0.1501789093, -0.0618879348, -0.0621421710, 0.1171555668, 0.0551860034, -0.1495190561, 0.1396563202, -0.0881708264, -0.1199462414, -0.0023634285, -0.0062580556, 0.0731614679, 0.0452352315, -0.0436467826, -0.1003365666, -0.0434868336, 0.0860392004, -0.0553617850, -0.1389010400, -0.0335200876, -0.0685873106, 0.0771884322, 0.0728782862, -0.1382924169, 0.0611072332, -0.1246750653, 0.0541556925, 0.0929042548, 0.0302999169, -0.0433093235, 0.1261130720, 0.0512394756, 0.0898020267, 0.1049327403, 0.1488937289, 0.0060709566, -0.0236219913, 0.1070360988, -0.0945754796, 0.0507860184, -0.0146463811, -0.1178668290, -0.1404269189, 0.1372740418, -0.0189308226, -0.1420338452, -0.1363109052, -0.0655877367, -0.0164307058, 0.1546797603, 0.0525150299, 0.0855650753, 0.1277903467, 0.0084971935, 0.0493504554, -0.1447972059, -0.1538949162, -0.0040415227, -0.1243965253, -0.0888069645, -0.1393037289, 0.0845010728, 0.0241799504, -0.0479116663, -0.1194665432, 0.0634981394, 0.0321936756, 0.1118500084, 0.0275581479, -0.0453748330, -0.0268451124, 0.0816476494, -0.1022934765, 0.0689474344, 0.1534684151, -0.0019158870, 0.0186084360, -0.0252819061, 0.0311581343, 0.0552786589, 0.0912313610, 0.1112307459, 0.0341343284, 0.0026907623, -0.1371714920, -0.1285598874, -0.1127358079, 0.0510770380, 0.0443335176, -0.0560503229, 0.0655837357, 0.1089997441, 0.0975469202, 0.1138401181, -0.0399832129, -0.1083464921, 0.0118563175, -0.0925492868, -0.1327996254, 0.0197774619, -0.1166484132, -0.0655954257, 0.1507578939, -0.1133607551, -0.0356856436, -0.0131117553, -0.1051181704, -0.0537640601, -0.0744780004, 0.0993586630, -0.1319304407, 0.0602712929, -0.0136488378, 0.0158013105, 0.0179511160, -0.0267873853, -0.1397593021, -0.0864880159, -0.0163241625, -0.1138160676, -0.0409457386, 0.1506789476, -0.0941859931, 0.1312187463, -0.1374921799, 0.1262781173, 0.0498515368, 0.0771037340, 0.0171747357, -0.1005880535, 0.0210082829, -0.1334229559, 0.0745589733, -0.0289071053, -0.1321851909, -0.1361289322, -0.0310397893, -0.1194160283, -0.0617489889, -0.0096309781, 0.1097850949, -0.0312413573, 0.0882243514, -0.0923261940, -0.1124447510, -0.0673624501, -0.0401527733, -0.0711471066, -0.0519084111, 0.0676609725, 0.0392914265, 0.1006995291, 0.0322487056, 0.0953698307, 0.1142191142, 0.0778345317, -0.1388186812, 0.0864969939, -0.0493962243, -0.0730689913, 0.1140003353, -0.0140150934, 0.1135036200, 0.1333155781, 0.0032865554, -0.0950336158, 0.1404609829, 0.0050207824, -0.0777730867, 0.0374094248, -0.0838522613, 0.0662405044, 0.0379752666, 0.0039075166, -0.0604559705, -0.0434814468, -0.1288805455, -0.0012185276, 0.0305491239, -0.0696422309, -0.0445192158, -0.0094977915, 0.0557661653, 0.0225089341, 0.0843635052, -0.0788302645, -0.0589507148, 0.0446030498, 0.1562750787, 0.0034484714, 0.0687653571, -0.1055803001, -0.1376528442, 0.0758443773, -0.0010159016, 0.1468346268, -0.1205366254, 0.0794760585, 0.0042031705, -0.1493041813, -0.0547611937, 0.1036410481, 0.0392963290, -0.0551325828, 0.1565841585, 0.1354155093, -0.0755360126, -0.0786577985, 0.0894415677, -0.0205589384, -0.0916970298, -0.0432836115, 0.0416000485, -0.1516602635, -0.0666203052, 0.1314735860, -0.0205711424, 0.1395640522, -0.0376982316, -0.0194515437, 0.0337737203, -0.0805202350, 0.1244185418, -0.0706427172, -0.0954697356, 0.0320223421, -0.0520400107, -0.1021092460, -0.0187370926, -0.1304208487, -0.0757675916, 0.0205117315, 0.1340818256, -0.1398119628, -0.0990403444, 0.0651364326, 0.1011451334, 0.0276895314, -0.0370398834, 0.0067530870, -0.0410600007, 0.0569944978, 0.0447641313, -0.1348294765, -0.0361869112, -0.1481079310, -0.0743070841, -0.1343286633, -0.1199694723, 0.0744418502, -0.1503229886, -0.0558074787, 0.0230945200, -0.0216401219, 0.1065808982, 0.0398748368, -0.0183775425, -0.0469783992, 0.0841156542, -0.0334498957, 0.1078781039, -0.1116351262, -0.0877505392, -0.1520639509, -0.1100952625, 0.0067638010, -0.0036541820, -0.0601568371, -0.0930706039, -0.1395175904, -0.0325045586, 0.0793745816, -0.0881604552, 0.1056353003, -0.1367665082, 0.0093677342, -0.1198602915, -0.1150431484, 0.0601607263, 0.0937344879, 0.1202383488, 0.1238816828, -0.0849798247, 0.0234467685, 0.0517893285, -0.1512456685, -0.0655318350, -0.1324420273, -0.0756570622, -0.1484441906, -0.0819018781, -0.0372158960, 0.0499692559, 0.1562924236, 0.1310006231, -0.0000495762, -0.0530620962, 0.1246957332, -0.0803098828, -0.0163598359, -0.0067745447, 0.0753886551, -0.1302973628, -0.1261271238, -0.0253831595, 0.0007954091, -0.1215551645, 0.1482915431, -0.1071693525, 0.0078962296, -0.0896842182, 0.0255523473, 0.1558726281, -0.0950177088, -0.1008776426, 0.0407154411, -0.0887669325, -0.1135478094, -0.1222282127, -0.1372020692, 0.1166991144, -0.1215232015, -0.1324267238, -0.1498761624, -0.0098766088, 0.0052337795, -0.1314567775, -0.1294921339, 0.0956306010, -0.0419423059, -0.1439918727, -0.1190289184, -0.0611185357, -0.0786885619, -0.0610970110, 0.0258489102, -0.0593676120, -0.0399340913, 0.0476413369, 0.0808636248, -0.1459553838, -0.1172033548, 0.1136111468, 0.1454921812, -0.1310373098, -0.1576776057, -0.0510674194, -0.0273979008, 0.0419180989, 0.0702407211, -0.0514272451, -0.1561695635, -0.0647291094, 0.0960710794, -0.1192294657, -0.0987459719, -0.0700414851, -0.0271495432, -0.0010587722, 0.0798567683, -0.0326305032, 0.0379231274, 0.1450574249, 0.0854801387, -0.0287059546, 0.1273593754, 0.0396445096, -0.0071177334, -0.1111850142, 0.0556413084, -0.0580358803, 0.0399144143, -0.0113862455, -0.0837415829, -0.0757985041, -0.1128133535, -0.0387924686, -0.0665000901, 0.0858661681, -0.0953513682, 0.1153247207, -0.1216547638, -0.1385474056, -0.1020688713, 0.1365308017, 0.0336514264, 0.0129759014, -0.0417378694, 0.1369601339, 0.1338596791, 0.0674873441, -0.0924755931, 0.1087225229, 0.0968277901, 0.0133511722, 0.0342263430, -0.1221242398, 0.1544895023, 0.0002301484, -0.0809746757, 0.0012103021, 0.1205476075, 0.1188076884, -0.1496576965, -0.0908198878, 0.1017732471, -0.0568689927, -0.1322561800, -0.1029399484, -0.0997922197, -0.0595302358, -0.0230073780, -0.0505204722, -0.1472979635, -0.0334736481, -0.0740066320, 0.0979032069, -0.1420981139, 0.0826355815, 0.0477614403, -0.0409561023, -0.1136495173, -0.0477896035, 0.1219688505, 0.0379594713, 0.0697890222, -0.0456709787, -0.0887511000, -0.1087704748, 0.1327512115, 0.1417340785, -0.0265258849, 0.0851077288, -0.0858592317, 0.1515938491, -0.1329820454, 0.1553877741, -0.0599059686, 0.1327455789, 0.0360339284, 0.1038902551, -0.1138089001, -0.1432967782, -0.0271086395, 0.1399888247, -0.0927124098, 0.0309398174, 0.1493136436, 0.0574043691, 0.1366365701, 0.1392474920, -0.0635347068, -0.0149630010, 0.0825895220, -0.0027149916, -0.1251213253, 0.0813171566, 0.0120937377, -0.0320576280, -0.0877314657, -0.1400645673, 0.0115930438, 0.1194815487, 0.0784404427, -0.1408389807, 0.0566844344, 0.0235233754, -0.1297816634, -0.0804795623, -0.0256462544, 0.1015670151, 0.0138686746, -0.0097821504, -0.0118076205, 0.1245835274, 0.1115893275, -0.0816837624, 0.1481564194, -0.0062126666, -0.0965619385, -0.0468417853, -0.0269969106, 0.0602096915, -0.1152814329, -0.1564436704, -0.0311415046, -0.1226106510, 0.0602132678, 0.1464784890, -0.0330010355, 0.0192443579, -0.0397584960, -0.0360452756, -0.1494180262, 0.0027713478, -0.0164938867, -0.0279876292, -0.1339586675, -0.0143675357, 0.0772196949, -0.0719592944, -0.0508920550, 0.1443959624, 0.1550118178, -0.1004870981, -0.0132605135, 0.0731019080, -0.1325129420, 0.0794152915, 0.0266084820, 0.0153643191, -0.0267953873, -0.0752284080, 0.1134597212, 0.0238717347, 0.1161485761, 0.0992141217, 0.1074168831, -0.1344468445, 0.0039648563, -0.0009465367, -0.0823810846, -0.0630738586, -0.0846909508, 0.0214875638, 0.1207977980, 0.1119635552, -0.0538298041, 0.1251000017, -0.0494434983, 0.0209060162, 0.0111208111, 0.1509503871, -0.0308787078, -0.0664897189, -0.0163282007, -0.1574650705, 0.0553228408, -0.0306503773, 0.1004738659, -0.0887190923, -0.0044271648, -0.0883032158, 0.0154678822, -0.0659006611, 0.0077804923, 0.0078166127, 0.0536696315, -0.0532708317, 0.0926080495, -0.0073955655, 0.0523996502, 0.0727038234, -0.1474938393, -0.0215915293, -0.0587780625, -0.0250467211, -0.1018899977, 0.0833885819, -0.0584672093, -0.0518807396, 0.1296915561, 0.0775539875, 0.0525275469, 0.0078669786, 0.0232823789, -0.1547454745, -0.0583423972, -0.1513829231, 0.0673486590, 0.0292501897, 0.0035788715, 0.1410502046, -0.0978228003, 0.0065343380, 0.1439630836, -0.0535970256, 0.0106011182, 0.1198255867, 0.0665056258, 0.0216887891, -0.0588232651, 0.0584476888, -0.1275182664, 0.0093351603, -0.0420222580, -0.0672660246, -0.0971723348, 0.0753991008, -0.1179983169, -0.0416195765, 0.0580498576, -0.0531541184, 0.1299192458, 0.0189440250, 0.1423236579, 0.1332689673, -0.0772907510, -0.0058754981, 0.0313733071, 0.0883175433, -0.0943498611, -0.1352776587, -0.0702324957, -0.1535444409, 0.1355531067, -0.0729249492, -0.1417154074, 0.0461611897, 0.0451608598, -0.0360211506, -0.0520566702, -0.1192165017, -0.0965949595, 0.0046090633, -0.1001521498, 0.0063995719, 0.0819024891, 0.0394277871, 0.0028156787, -0.1279778481, -0.0511519015, 0.0720410645, -0.0424760208, 0.1071520895, 0.0681938678, 0.0382066965, 0.0183741152, 0.0360134244, 0.0655935109, -0.1531072706, 0.1292264909, 0.0617821664, 0.0356203169, 0.1147767752, 0.0553621948, 0.0447938740, 0.1146413833, 0.1292170137, -0.1270906329, 0.0720848292, 0.1292219907, -0.0174855143, 0.0591004193, 0.1405180246, 0.0973406285, -0.0226557702, 0.1398258358, -0.1164564937, -0.1349781901, 0.1234364957, -0.0036445707, -0.0951946601, 0.0913771689, -0.1368941963, -0.0992251411, 0.0896268040, -0.0990375578, 0.0212352276, -0.0073733628, -0.0258145332, -0.1545287520, 0.1277128607, 0.0070607066, 0.0177481025, 0.0104591548, 0.0483069271, 0.0272441655, -0.0580061004, 0.0304252505, 0.0286214054, 0.0464254469, -0.1320511103, -0.1499757469, 0.0848627687, -0.0503505692, -0.0705729797, -0.0226655304, 0.1185836345, 0.0430022329, -0.0932595432, -0.0100103319, -0.0336838067, -0.0959944427, 0.0999022871, -0.0158912539, -0.0637833551, 0.0992284566, 0.0792813897, -0.1576350480, 0.0460303128, -0.0646879449, 0.0361115485, 0.1508919746, 0.1301929206, 0.0621804297, -0.0779198781, 0.0130104274, 0.0373233259, 0.0220887959, 0.1494056135, 0.0838981718, 0.1059452444, -0.0903592631, 0.1214421540, 0.1094691902, 0.1309550256, -0.0361864939, -0.1316033751, -0.1391236782, 0.0722560436, -0.0836274326, -0.0272018313, 0.0353107899, 0.1303497106, 0.0706333667, 0.0333958417, -0.0363689065, -0.1273452491, 0.0677327961, -0.0705212578, -0.1315495819, -0.0614247099, -0.0940071940, -0.1216180474, 0.1239327341, -0.1155499890, 0.1230079085, -0.0862834007, 0.0590644479, 0.0879374743, 0.0930419415, -0.0446535274, 0.0158618093, 0.1435756832, -0.0972859561, -0.0816999748, -0.0064867586, -0.0806210786, 0.1323376447, 0.1186114997, -0.0110452324, -0.0310823917, 0.1499283761, 0.0666062385, -0.1272441447, -0.0503143445, 0.1147877425, 0.0437905192, -0.0041713864, 0.0600340217, 0.1484429091, 0.0180908591, 0.1392178386, -0.0215787590, -0.0653095692, 0.0691078007, 0.0013637394, 0.0466820151, -0.0927047506, -0.1273887753, -0.1184198856, 0.1155087203, -0.0826574862, -0.0639892220, 0.1069300622, -0.0528864264, -0.0387765616, 0.1544552594, -0.1294083744, 0.1308301836, 0.0584707558, 0.0009858608, 0.1420965642, -0.1296972185, 0.0806962401, -0.0065937489, -0.0995423198, -0.0552593619, 0.0512919426, -0.0050604790, 0.1218787283, -0.1461801231, -0.1379722208, 0.0994909555, -0.1137825847, 0.0240585655, 0.0713083446, -0.1313567609, 0.0041402578, -0.1179735065, -0.1398027241, -0.0320805460, -0.1034239382, -0.0362270549, -0.0467189625, -0.1423390359, -0.0826431215, -0.1118357927, -0.1404225826, 0.0812906176, -0.0746213645, 0.0796779245, -0.0248276144, -0.0803936496, 0.0448106825, -0.0049251914, -0.0132567436, -0.1164318398, 0.0608651340, 0.1251162142, -0.0264277607, 0.0961451679, 0.0168256611, -0.0874160156, 0.1095856279, -0.0127754956, -0.0811204165, 0.0169865787, 0.1251129359, -0.1578486413, -0.0828572437, 0.0790463537, -0.0399325117, 0.0844913125, 0.1356640309, -0.1142902225, 0.0021898001, -0.1463004500, 0.0026614219, 0.0440925211, -0.0418932959, -0.0262081772, 0.0055280477, -0.1532333642, -0.0379771888, -0.0541875884, 0.0937928408, -0.1420661509, -0.0059096962, 0.0844537169, -0.0842004344, -0.0789222866, -0.0857451931, -0.0270164460, 0.0334974378, -0.0921722054, -0.0503652319, -0.1430033743, -0.0379999205, -0.1413166076, 0.0934653431, 0.1551622599, 0.0715731978, 0.0558526814, 0.0348434150, -0.1199711263, -0.0961674005, 0.0694346279, -0.1539640129, -0.0714840069, -0.0590066984, 0.1276860684, 0.0300711691, -0.1450204849, 0.0405378193, 0.1572043449, 0.0667072386, 0.0701428503, 0.0426856875, -0.1269851178, -0.0866374150, -0.1195708215, -0.0533321202, -0.0704599991, -0.0966325104, 0.0790587068, -0.1251255125, -0.0157460123, 0.0967845768, -0.1382001340, -0.1232200712, 0.0916424096, -0.0071879327, 0.1316755265, 0.0253643990, -0.1435499489, 0.0039123744, -0.1306209117, -0.0033946335, 0.0831386894, 0.0199973583, -0.0530902967, 0.0590952039, 0.0620073676, 0.1367044896, -0.0814374089, -0.0585911572, 0.0148090422, -0.0564891994, -0.1034332141, -0.1332806498, -0.0259170681, 0.0404314399, 0.0143970847, 0.1207622737, 0.1173525602, 0.0038776547, 0.1319453269, 0.1176450402, 0.0449054539, 0.0049816519, -0.1072176099, -0.0421042517, 0.1365868598, -0.0432962030, 0.0908299983, -0.0321315825, -0.1341088116, 0.0052121431, -0.1301584840, -0.1523144245, -0.0825474113, -0.1510746628, 0.1434327513, 0.0643462092, 0.1065853983, 0.1491705328, -0.1497873813, -0.1191626713, 0.0963302106, -0.0655710772, -0.1156374514, 0.0179076046, 0.0622491539, -0.0733972564, 0.1402704269, -0.0576500073, -0.0223310441, -0.0871784836, -0.0332567692, -0.0225825906, -0.0043547153, 0.1374875158, -0.1224707216, 0.0403775573, 0.1043746620, 0.1100064367, 0.0984237343, -0.0860368609, 0.1233884841, 0.0800183713, 0.0986185223, 0.0860619694, 0.1432260424, 0.1044732481, -0.0127135962, -0.1452189237, 0.0307629853, -0.0224803239, -0.0714791045, -0.0299315006, -0.0746311322, 0.0845826864, 0.1283147484, -0.1261242628, -0.0526334420, 0.0406324714, 0.0341040641, -0.0210983008, -0.0358560011, -0.1288208961, 0.0908056051, 0.1237277836, 0.0889238268, 0.0615023375, -0.0439390913, 0.1450995356, 0.0705623478, 0.0657880604, -0.1352566928, -0.0004720092, 0.0570561290, 0.0798996985, 0.1246584505, 0.1409134120, 0.0753498971, 0.0884137452, 0.0799200535, 0.0780977309, -0.0207652450, -0.0139551610, -0.0782461464, -0.1023613662, 0.1044570059, 0.0714980364, 0.1217486411, 0.0976638645, 0.1035885364, -0.1282497942, -0.0012561083, -0.0685240179, 0.1309867948, -0.1564747244, 0.1257054359, 0.0946454853, 0.1286889166, -0.1446250081, -0.0998675004, 0.1527340263, 0.0405905843, -0.0973532051, -0.1183383018, 0.1348977834, 0.1282680780, -0.0174464136, -0.0037055314, -0.0240353346, -0.0596526787, -0.0727231577, -0.1365364045, 0.0347363949, 0.0334507972, -0.0431726649, -0.0178173184, -0.0759279877, -0.0582421944, -0.1537065357, -0.0002162308, -0.0076738447, -0.0062619299, -0.0259723067, 0.0832665265, 0.1156346649, 0.0987314135, 0.0209840834, -0.0816692114, 0.1436229795, 0.1463287920, 0.1578593403, 0.1422561854, 0.0355185717, -0.0001398921, 0.1459625512, 0.1461679488, 0.0755037069, -0.1081151366, -0.0063275695, -0.0305284709, 0.1239431351, 0.1207771450, -0.1252103299, 0.1313703805, 0.1162376851, -0.1301729530, 0.1024896950, 0.0812898278, -0.0399264023, -0.0405630320, -0.0828032941, 0.1543204933, 0.0430445671, 0.0860868096, 0.0363361835, -0.0928320214, -0.0862673745, -0.0212085694, -0.1250019819, 0.1226184219, 0.0493377596, -0.0094787180, -0.0549081713, 0.1161273867, -0.0370397344, 0.0870398283, 0.0762652755, -0.0142391324, -0.0813380033, -0.1274731457, -0.0726222023, 0.0434612036, -0.0014921278, -0.0132671446, 0.0983342677, 0.0760444403, 0.1573591381, -0.1531563848, -0.0368884504, 0.0976705402, -0.0440108627, 0.0510843545, -0.0864219368, 0.0653807372, -0.0481738895, 0.0367745310, -0.0303388089, -0.0537425727, 0.1016888767, -0.0571870506, 0.0880266279, 0.1240019947, -0.0952977240, 0.0660024434, -0.0951192304, 0.0959872156, 0.0792549998, 0.1299211830, -0.0937547758, -0.0011635572, -0.0942348838, -0.0849753395, 0.0665613413, -0.1233006641, -0.0644775555, -0.0296501964, 0.0156114250, 0.0527693033, 0.1167687327, -0.1409959197, -0.1496019810, -0.0107474178, 0.1487560123, -0.0940809324, -0.0767690167, 0.0431771874, 0.0458883047, 0.0828076750, -0.0088405013, -0.1369115412, -0.1241332442, 0.0445308983, -0.0970758647, 0.0349308699, 0.0443529338, -0.1399316490, -0.1317633241, 0.0596157014, 0.1170655638, -0.0676236153, 0.0723588914, 0.1530907303, 0.0157927871, -0.1476933658, 0.1293839365, 0.1135604829, -0.1167571694, -0.1390970349, 0.0320840925, -0.0172226429, -0.0667383373, 0.0348713547, 0.0357182622, -0.0972428322, 0.1281421334, -0.0663838312, 0.0469819456, 0.1417736858, 0.0171282589, 0.0752191693, 0.0974458605, -0.0915120468, -0.1415812522, 0.1557545215, -0.1176997125, 0.1277771145, 0.0661835372, 0.1418816894, 0.0636384040, 0.1172645241, -0.0616174191, -0.1147604585, -0.0874144286, 0.0509303510, 0.1281116754, -0.1183048636, 0.1059471816, 0.0483563095, -0.1041954532, 0.1488221437, 0.0538331568, -0.0277214497, 0.0899458826, -0.1424840987, 0.0289774835, 0.0278153569, -0.0404629111, 0.1449155360, -0.0590302199, -0.1443338990, 0.1327289194, 0.0034141988, -0.0594045147, -0.0214591771, 0.0985814184, 0.0604108125, -0.0669621825, -0.0524517819, -0.0358948261, -0.0834173858, 0.1568730325, 0.1469388753, -0.0636284202, -0.1152456999, -0.0958026797, 0.0793489069, 0.0261256099, -0.1011202633, 0.1314785630, -0.0833667219, 0.1168061048, -0.0194201022, -0.1220160127, 0.1066322476, -0.0472725853, -0.1507096142, -0.0100960433, 0.0291838497, 0.1208582669, 0.0425590277, -0.0052116811, -0.0632738397, -0.0903972685, -0.0826020688, -0.1200972199, 0.0321934819, 0.0220498145, 0.0779148638, -0.1161876768, -0.0159792006, -0.0904914737, 0.0471207052, -0.0781830400, 0.0437142253, 0.0505703092, 0.0557317883, -0.0258720964, 0.1105472893, -0.1448762119, 0.1162050515, -0.0946159288, -0.1182595193, -0.0445644855, -0.0084633380, 0.0023642182, -0.0156874210, 0.0768224001, -0.0890003517, -0.1401651502, -0.1408076286, 0.0819948763, -0.1449767202, 0.0094712526, -0.1571195424, -0.0989151895, 0.0639600456, 0.1342564672, -0.1438784450, -0.1074501276, -0.0212923735, -0.0090124011, -0.0343481079, 0.0090659410, -0.0900744647, 0.0429257900, -0.1351122409, 0.1487949938, -0.1043057144, 0.1192108542, 0.0061393082, -0.0330814421, -0.0099515915, -0.0780934766, 0.0589930564, 0.1459327489, 0.1262657195, 0.0531357229, 0.1343695968, -0.0701836050, -0.0560590699, 0.1182961911, 0.1300194114, -0.1252384186, 0.0363261253, 0.1509106010, 0.0861773193, 0.1223114878, -0.0633300468, 0.1242472678, 0.1231533140, 0.0602696687, -0.0945915431, 0.1034060270, 0.1360523254, 0.0916283876, -0.0781015754, -0.1164243370, 0.1290058345, -0.1228064150, -0.1289877146, -0.0096439868, -0.0767909214, -0.0932685137, 0.0552430004, 0.1352910846, -0.0354092494, -0.1090924069, -0.1038271487, 0.0210397989, -0.0684805512, -0.0194046795, 0.0097900927, 0.0276742131, -0.0770666376, -0.1578067243, -0.1360557228, -0.1356391311, -0.1535701156, 0.0135597885, 0.0712623149, 0.1035677046, -0.1002050787, 0.0348631293, 0.0294596404, -0.0913502499, -0.1439200640, -0.0298093557, -0.0711830705, 0.0179719180, 0.1324704438, 0.0188055485, -0.1443997622, 0.0651798546, 0.1445411891, -0.1442256719, -0.1088559330, -0.1241623908, 0.1222091764, 0.0250870138, 0.1517565995, 0.0221149176, 0.0438284874, -0.0744275227, -0.0057969391, -0.0054017901, 0.1189938933, -0.0262557119, 0.0310829282, -0.0013754219, -0.0617874712, -0.0614272803, 0.0134645700, -0.0390309766, 0.0516011417, -0.0515824407, 0.0740537941, 0.0582751036, -0.1200113893, 0.0234474838, 0.0048594028, 0.0473194420, -0.1231943220, -0.1212521940, 0.0682176203, 0.1095467955, 0.0475246608, -0.0724987835, 0.0549515635, 0.0584965348, 0.1060108691, -0.0801342577, 0.0945244282, -0.0235603899, -0.0591980070, 0.0732814968, 0.1577182561, -0.1090907827, 0.1271643192, -0.0040734559, 0.1407560259, -0.0674664974, -0.0752055943, 0.1004252583, -0.1390029043, 0.1031503826, -0.1083132774, 0.1468134075, 0.0605625361, 0.1031172723, 0.0856752992, -0.0730046406, -0.0711221173, 0.0645220429, -0.0055407435, -0.0559428483, 0.0859630108, -0.0134198964, 0.0474455357, 0.0957537740, -0.0784823596, 0.1225446016, -0.0932143107, -0.0985541642, -0.0994098559, -0.1298338324, -0.0992276669, 0.0169885159, 0.1519217938, -0.0467556790, 0.1026514322, 0.0105019361, 0.0683551282, -0.0710778981, -0.1419778168, -0.1144971400, 0.0334840566, -0.1466873884, 0.1132915467, 0.0474147499, 0.0277827829, -0.0680233613, 0.0676840395, 0.0629963130, -0.0325810909, -0.0906156078, -0.0159010589, 0.0067646205, 0.0378201008, -0.0829901993, -0.1429650038, -0.0305078924, -0.1423287094, 0.0538391918, 0.0239677429, -0.0634735599, -0.1522316039, -0.0104319751, -0.0952922553, -0.1257889867, 0.1090825051, 0.0049947053, 0.0859361291, -0.0226007998, 0.0627541393, -0.0491949990, 0.0388597995, -0.1138353273, -0.1272726059, -0.1542156041, -0.0989764482, -0.0901504606, -0.0123335719, 0.0306667835, 0.0962406844, 0.0410664082, 0.0210397542, -0.0165843517, -0.0033911318, 0.0949169844, 0.0797874331, -0.0657674819, 0.0671608448, -0.1500128508, 0.1401667446, 0.0713652968, 0.1076292247, -0.1054422855, -0.1438824832, -0.0162504315, -0.1239029169, -0.0886662453, -0.0010212213, -0.1196176410, 0.0688892603, -0.1232380494, -0.1445724070, -0.0818317235, -0.0020520091, 0.0102436692, 0.1521190256, -0.1537089497, -0.1371346712, -0.0442107394, 0.0289622247, 0.1400519460, 0.0125238746, 0.0910186619, 0.1518580467, 0.0039698333, 0.0760965347, 0.0438119769, 0.0871090889, -0.0841445699, -0.0304772407, 0.0770057142, -0.0173033625, -0.1272068620, -0.0570396930, -0.0269554853, -0.1419938058, 0.0217074901, 0.1374896914, 0.1308051795, -0.1139746904, 0.1550686210, -0.0309001654, 0.0697446615, -0.0503785759, -0.1371923387, 0.1210732907, -0.0350711048, 0.1196775287, -0.0158534050, 0.0554789156, -0.0134609491, 0.1227491945, 0.0248684883, -0.1450399756, -0.1309818625, 0.0843846947, -0.0658654943, 0.0054428875, 0.0824783444, 0.1247914284, 0.1057389230, 0.0586981773, -0.1538836807, -0.0520924851, -0.0832193643, -0.1196383387, 0.0248356164, 0.0915192068, 0.0037256628, -0.1253461540, -0.1073723584, 0.0124066621, 0.0660784096, -0.0639453083, 0.0277166218, 0.0892923176, 0.0137333423, -0.1574956775, -0.1085877866, 0.0634761304, 0.1283762902, -0.0747735128, 0.1362817734, -0.0363751277, -0.0888107345, 0.0102835596, 0.1006027609, 0.0306237340, 0.0295021981, 0.0794995427, 0.0628477037, 0.1443748027, 0.0772932768, -0.1421218216, -0.0195683986, -0.0081856996, 0.1001343876, 0.1366921216, -0.1415333301, 0.1268358380, -0.1045989245, -0.0658387616, -0.0527447984, 0.0394236743, -0.0968340784, 0.0312533081, 0.0128403008, 0.0604748577, -0.1274571717, -0.1338499039, 0.0173261315, 0.0513731092, 0.0360165536, 0.0773520023, 0.1014027745, 0.1001134366, -0.1094016358, -0.0342174917, -0.1089246571, 0.1579655558, 0.0972075015, 0.1199368685, 0.0383913368, -0.1284066439, -0.1301057339, 0.1053725928, -0.1403667480, -0.0100064129, -0.0622916743, -0.1337397546, -0.1504538655, -0.1014222130, -0.0643007904, -0.0613033623, 0.0485244393, 0.0295243710, 0.0656602234, -0.0756206810, 0.1064851731, -0.0492364243, -0.1231656671, 0.1086303145, -0.0316567868, 0.0951862186, -0.0799862519, -0.0640366822, -0.0170544088, 0.0950878710, -0.0298491269, 0.1304395944, -0.0304699689, 0.0843914449, -0.0257750750, -0.0993577987, 0.0936556309, -0.0908007026, 0.1276346892, -0.0748736709, -0.1535770148, 0.1299291700, 0.1507955641, -0.1365724504, -0.0934258625, 0.1425609142, -0.0978837162, -0.0807155818, -0.1127492636, -0.0499755591, -0.0487874150, -0.0416502655, -0.0413673818, -0.0222767144, 0.1062995344, 0.1383390576, 0.0560548902, -0.1125484928, -0.0828122348, -0.1402057111, 0.0252503157, 0.0093160868, -0.1552062482, 0.1574379951, -0.0214177072, 0.0386068076, 0.0588988811, -0.0271167159, -0.0991190970, 0.0633396953, 0.0370358080, -0.0957188457, -0.1424616277, -0.0842276886, 0.0909307599, 0.1264472455, -0.1421867460, -0.1106788218, -0.1551640332, -0.1078015417, -0.1091715693, 0.0016131401, 0.0947517902, 0.1446736604, -0.1253231615, -0.0864152610, 0.1231992692, -0.1521189213, 0.1362908930, -0.1075272858, -0.0334793404, -0.0015654117, -0.0926678106, 0.0846838206, -0.0628621131, 0.0978664309, -0.1575372964, -0.0884759501, 0.0738106519, 0.0586285889, 0.1286867708, -0.0225065649, 0.1301133782, -0.0328020751, -0.0273305774, 0.0623616427, 0.1064120978, 0.0157544911, 0.0816093534, 0.1536655873, 0.0872088224, -0.0469915941, 0.0042838454, -0.0062274039, 0.1230665892, 0.1514769644, 0.0300382227, 0.0033049583, -0.0149541795, -0.0595799983, 0.0406116247, -0.1212602258, 0.0292197764, -0.1124171168, 0.1163344234, 0.1276690215, -0.0568327680, 0.0875890404, -0.0960011184, -0.0402776673, -0.0679367706, -0.1314484775, -0.1216079444, 0.0015436262, 0.0966704935, 0.1062528938, 0.0313386172, 0.1123072356, 0.0443510413, 0.0716072023, 0.1012870222, -0.1162597910, -0.0040309280, -0.1331818402, 0.0482254922, 0.0340313762, -0.1521225423, 0.1330396384, -0.0616878048, 0.0385163426, 0.0084256828, 0.0492093563, -0.0313084275, -0.1404794753, 0.0502281338, 0.0652460456, 0.0190130025, 0.0712065548, 0.0245512575, 0.0606030226, 0.0461190045, -0.1342359334, 0.0220291615, 0.1533799320, -0.1428316981, 0.0880067348, 0.1395250112, -0.0981921256, 0.0059848577, 0.1369391233, 0.0402291864, 0.0423214287, -0.0037824661, 0.0882643461, 0.0682920963, 0.0108747929, 0.0490921587, 0.0369917005, 0.0966717452, 0.0658900291, 0.0694830418, 0.1125638634, 0.0329738110, 0.0484028608, -0.0932651609, 0.1318348497, -0.1398395151, -0.0766635761, 0.0962297469, 0.0588718951, 0.1171065122, 0.1529569775, -0.1221080720, 0.0188134760, -0.1343446076, 0.1191940755, 0.1489679962, 0.1323972791, -0.1495727748, -0.0430743173, -0.1273858100, 0.0976559967, 0.0547074676, -0.1053333431, 0.1383033246, 0.1073841006, -0.0787244886, 0.0182520896, -0.0495474637, -0.1281464696, -0.1460433304, -0.0570612177, 0.0265557468, 0.0890504569, -0.1195837110, -0.1575240344, 0.0038158000, -0.0788758397, -0.1435196102, -0.1265707612, 0.1482562572, -0.0549055338, 0.1435464770, -0.0849928707, -0.0111737400, -0.1055351049, -0.0516387597, 0.0198719054, -0.1094409972, 0.0687175542, 0.0172970593, -0.0107722282, 0.0191489756, -0.0738338307, 0.0810144097, 0.0188535005, -0.0810765699, 0.0583046526, 0.0732556283, -0.0634596869, -0.0952176899, -0.0034492612, 0.1511031538, -0.0279844701, 0.0373707116, -0.0454021990, -0.0644607767, -0.1509864926, 0.0588535368, -0.0904889479, 0.0221894532, -0.0780987144, -0.1067486554, -0.1231482551, -0.1196812391, -0.1418651044, 0.0428828448, 0.0696050972, 0.1028967053, 0.1483592838, -0.1038511992, 0.0656624883, -0.0051281154, 0.0724993795, -0.1248483956, -0.0350705013, 0.0916286856, -0.0903014019, -0.1141395047, -0.0615786687, -0.1085378081, 0.0012556612, -0.0311064869, -0.1119646356, 0.0672064275, 0.0433914214, -0.0970980376, 0.0634781569, 0.0285164863, -0.0835711509, -0.1171277687, 0.0215585828, -0.1405440420, -0.0873359069, 0.0330758691, -0.0486567542, 0.0262070000, 0.1154091507, -0.0440222099, 0.0861806720, -0.1260984093, -0.1529061496, 0.0344566703, 0.0342046320, -0.0923320800, -0.0934638605, 0.0749817193, 0.0847422928, -0.1505385786, 0.0713767558, 0.0875682384, -0.1307303011, -0.1158005595, -0.0154563785, 0.0156047195, 0.0425503999, -0.1016948372, -0.0500007048, 0.1048033088, -0.0353925899, -0.1569790393, -0.1426403075, -0.1435864717, -0.0566790029, -0.0142060667, 0.0032344609, 0.1563859433, 0.0170167089, -0.1226436794, 0.0433858037, -0.1228229254, -0.0698547661, 0.1173868328, 0.0691005290, 0.0578766018, 0.1137331277, -0.1410435736, 0.0092303753, -0.0496918112, -0.0368859246, -0.0091093183, 0.1392301768, -0.1536619067, -0.1577811241, 0.1477872282, 0.0424354970, 0.0242855400, -0.0674338117, -0.0521121249, -0.0820294842, 0.1103256196, 0.1230315715, -0.0633719638, -0.0712811574, 0.0188849866, -0.1142961383, 0.1333380193, -0.0660140216, 0.1570349783, 0.0497137159, 0.0766922981, 0.0516819656, 0.0948047489, -0.0175244510, -0.0757929608, -0.0090706795, 0.0234372020, -0.0259755850, 0.1053924114, -0.0799383000, -0.0562724024, -0.0503202602, -0.0478685424, 0.1516700536, 0.1217678040, 0.1495856494, -0.1101369560, -0.0846686363, -0.0597427338, -0.0964916721, 0.0617013425, 0.0060976893, -0.0569931343, 0.1367576569, -0.0002180785, 0.0333496183, -0.1158887371, 0.0486415327, -0.0409365743, -0.0663965344, 0.1457500905, 0.0936787277, -0.1335137188, -0.0833159462, -0.1218124479, -0.0811901912, -0.0545927957, -0.0710441172, 0.0709768236, -0.0774636641, -0.0910195708, -0.0056760460, 0.1250645667, -0.1513837129, 0.0987600237, -0.0148951709, -0.0463100970, -0.1510615051, -0.1489138603, -0.0816006437, 0.0490245670, -0.0743149593, 0.1302790493, 0.0628323704, -0.0043530911, -0.0941576436, -0.1089896783, 0.0097850114, -0.1160563380, 0.1127559096, -0.0487075374, 0.0965402573, 0.0954277664, 0.1535031945, 0.0480576009, 0.0742557794, -0.0656146929, 0.0905624181, -0.0792833865, 0.1267989725, -0.1049892828, 0.0624597669, -0.1211628169, -0.0816926584, -0.0163946301, -0.1027655900, 0.0755806118, 0.1250012368, -0.1481988132, -0.1010193378, 0.0006812662, 0.1183874160, 0.0322366804, 0.0215515345, -0.1536926329, -0.0429745689, -0.0073749125, -0.1075893790, -0.0156455487, -0.0631273463, 0.0610721260, -0.0226875097, -0.0189643353, 0.1365555972, -0.0057408065, 0.0888253301, -0.0199461579, -0.1052338257, -0.0287127346, 0.0228570402, 0.1364667863, -0.0809572637, -0.1432131678, -0.0102328956, 0.0852373391, -0.0466894880, -0.1239055917, 0.1125884503, -0.0551032573, 0.1264830679, -0.1363788247, 0.1249494702, -0.0996262431, 0.0147066563, 0.1337741464, -0.0236334801, 0.0747971833, -0.1133502424, 0.0222576410, -0.1471571326, -0.0025675595, 0.1125090569, 0.0157920718, 0.0623691827, -0.0269726366, -0.1043416411, 0.0387614369, -0.0498903990, 0.0062605441, 0.0527510196, -0.0270237476, 0.0798854530, 0.1082809418, -0.0256276280, -0.0233877301, 0.1520253271, -0.1297133118, -0.1529713720, -0.0304363370, -0.1555979252, 0.1060998887, -0.0677359179, 0.0106431544, 0.0392257273, 0.1175817698, 0.0507437140, -0.0596834347, -0.0188909471, -0.0540438145, -0.1127584279, -0.0304225385, 0.0099838972, 0.0263438374, 0.1205752343, -0.0186779499, -0.0043918490, 0.1183518916, 0.0832567215, -0.1311120987, 0.1283917278, 0.0303688645, -0.0936975479, 0.1561692208, -0.0444923714, 0.1090388447, 0.1107157320, 0.0984973162, -0.0764602423, 0.0107748955, -0.1271681786, 0.0539444089, -0.0088832974, 0.1414831728, 0.0558129847, -0.1404448301, -0.1485507637, 0.0854551196, 0.0930967778, -0.0288755894, -0.0156774670, -0.0256363451, 0.1362438649, 0.1457382888, 0.0359896719, 0.0420372635, -0.0256468952, 0.0625002980, 0.0537176579, 0.1214701980, 0.0962619036, -0.1319397092, 0.0928831846, -0.0048365295, 0.0432668030, 0.0815368593, -0.0674480274, 0.1481328160, 0.0056717098, 0.0870109946, -0.1249118447, 0.1128569394, 0.0376396477, 0.0256845504, 0.0205485672, 0.0387977809, -0.1211110502, -0.0774695873, -0.0519844070, 0.0686675310, 0.1348332316, 0.0229766518, 0.1338836104, 0.1196012646, -0.0607765093, -0.0440466404, -0.1352344900, 0.1066152304, 0.1339187771, 0.1405300349, -0.0264873952, -0.0574892685, -0.0505991057, -0.0538554788, -0.0730894580, -0.0351671949, 0.0437693000, 0.0077845305, -0.0016562641, -0.1389891058, -0.0700547919, -0.1433539987, -0.0303353071, -0.0816637427, -0.0332681611, 0.1485797018, -0.1460700929, 0.1449124068, -0.0249790102, 0.0074883848, 0.0538036376, 0.0612462163, -0.0505093858, 0.0791218132, 0.0414664447, 0.1457871050, 0.1090982109, -0.1457027346, -0.0065810382, 0.0009844303, 0.0446403027, -0.0732089207, 0.0340427607, 0.0984192044, 0.0239355117, -0.0808120519, -0.1405352950, 0.1327058822, -0.0749904960, 0.0722045153, -0.0415372849, -0.1252861023, -0.0087567717, 0.1214382797, 0.0223764628, -0.0104632974, -0.1484022737, -0.0241161287, -0.0400409997, 0.1092957109, -0.0636674762, 0.1446000785, -0.0758516192, -0.1329122335, 0.1560055763, 0.0157936215, 0.0391351730, -0.1553599387, 0.1201217622, 0.0740452707, -0.0679963678, -0.1479326785, 0.0769061148, -0.0699478090, 0.0777776092, -0.0683352649, -0.0175372362, -0.0864212960, 0.0641377866, -0.1314856410, -0.0555975065, -0.1376923174, 0.1296472698, 0.0802211463, 0.0806657821, 0.0094029158, -0.1236503795, 0.1228470951, 0.0701979697, -0.1265188754, 0.0676366985, -0.0688140988, -0.0964011997, 0.1475109905, -0.0538176298, 0.0843317360, -0.0292812884, 0.1148890108, 0.1301141530, -0.0627150908, 0.0555016398, -0.1034367979, 0.0861903578, 0.1396618038, -0.0510515869, -0.0218925923, -0.0476879701, -0.0197076499, -0.0610098168, 0.0433732569, 0.1307166666, -0.0447214991, 0.0101702809, -0.0618125424, 0.0502937585, -0.0767983869, -0.1534540057, 0.0360602438, 0.0155976266, 0.1525110155, -0.0668081492, -0.1068667918, 0.0398183316, -0.0723959804, -0.0283209532, 0.0395032465, -0.0914425328, -0.0386998057, 0.0045104474, -0.0023491830, 0.1474453658, 0.0247499645, 0.1420768648, -0.1377501488, 0.0138621181, 0.1340763718, -0.1287596077, -0.0575323924, 0.1091212481, 0.0248518586, -0.0882315189, -0.0748607069, 0.0888204277, -0.0720241368, 0.0762520730, 0.0165926516, 0.1537661105, 0.1150875837, 0.1560609192, 0.1080375165, -0.1003032774, 0.1205866486, 0.0314512998, 0.1362820119, 0.0582032204, 0.0809898674, -0.1037613302, -0.1449538022, 0.0527004749, -0.1254074574, -0.0144232512, 0.0957092196, -0.1201342791, -0.0684572533, 0.0759299546, 0.0229654461, -0.0745595396, -0.0481170788, -0.0552403629, -0.0501575246, 0.0591195226, -0.0249732435, 0.0550059527, 0.0558708161, -0.0778247267, 0.0656096041, -0.1430731118, 0.0780231357, -0.0843144655, -0.1448034197, 0.1547831446, 0.1569125205, -0.0026079416, -0.1017268822, -0.0456516817, -0.1457023919, -0.0860365182, -0.0823305324, -0.0755282491, 0.0409884155, 0.0372182727, -0.0081714839, 0.0614699125, 0.1057717949, -0.0587730482, -0.1284100711, 0.0127865374, -0.1110974103, -0.0287064016, -0.0761340782, 0.1548550874, -0.1300221980, 0.1508505493, 0.0253711045, 0.0158753395, -0.1015500128, 0.1370294541, 0.0539080650, -0.0716025308, -0.1247260347, -0.1578359008, 0.0230014175, -0.1533389241, 0.1393166333, -0.0947542414, -0.1311586946, 0.0109280646, 0.1338880211, -0.0677683353, 0.0547237247, -0.0066144019, -0.0702999756, 0.1095604151, 0.0071336031, 0.0157241821, -0.0588352904, 0.0022486448, -0.1262967288, -0.0492686927, -0.1156763509, 0.0784630179, -0.1522183269, 0.0782997459, 0.0884136409, 0.1364303380, -0.1290973723, 0.0738634616, -0.0349276289, 0.0344056040, -0.1260852814, 0.1323731095, -0.0094054788, -0.1400879771, -0.1149534658, 0.1019790024, 0.1057877094, -0.1187126040, -0.0762466490, -0.1548572183, -0.0037904233, 0.0885201246, 0.1189210564, -0.1316251606, 0.0542821288, -0.0842655003, 0.0752159208, 0.0999390632, 0.0976363271, -0.1445687115, 0.0473513007, 0.0403194278, -0.1448671371, -0.0173511952, -0.1286949515, -0.0411209166, -0.1210882068, -0.1104407609, -0.0827069432, -0.0626363456, 0.1242435127, 0.0531560034, -0.1164724082, 0.1123345643, -0.0987440497, 0.0870176256, 0.0813086331, 0.0758790970, -0.0839992836, 0.0997046083, 0.1273310930, -0.1217495352, -0.1373849809, 0.1102557331, -0.0950730070, -0.0878856480, -0.0034368932, -0.0861116126, -0.0249548554, 0.1085682362, 0.0009895116, 0.0128117949, 0.1269190460, 0.0661880225, -0.0264000148, 0.0494562835, -0.1287300587, -0.1323288679, -0.0361809880, -0.1003186628, -0.0987624824, 0.1259316355, 0.0076137632, -0.0015518069, 0.0802365690, -0.1007818878, -0.0702389777, -0.0979079232, 0.1030778438, -0.1302005053, -0.0266192555, -0.1232964396, 0.0269670486, 0.0312181860, 0.0687923878, 0.0613767952, -0.1429274976, -0.1118590087, 0.1068310887, -0.0656933635, 0.0558316410, -0.0357270762, -0.0056799948, 0.1115177423, -0.1062404513, -0.0462679565, 0.1241379529, 0.1119055897, 0.1291323155, -0.1056115180, 0.0092626363, 0.0490316898, 0.0448350012, -0.0573082864, -0.0123422444, 0.0554853529, 0.0436140597, -0.1310172975, -0.0715767071, -0.1016951054, -0.0979206264, -0.1244831160, -0.0841798857, -0.1243502647, -0.0726366043, 0.1072004288, 0.0907199234, -0.0274665803, 0.1048842221, -0.1086153090, -0.1473422647, -0.0057790726, -0.1521821022, -0.0823944360, 0.0652650148, -0.0439339280, 0.0266967714, -0.1131443754, -0.1255704165, 0.0078341812, 0.1035748273, 0.1504092962, -0.0134896785, 0.1167991310, -0.1125450283, 0.0706225932, -0.0432265773, -0.0842094794, 0.1334382147, 0.1024792939, 0.0599132776, -0.1575823575, -0.0536010563, -0.0841176137, -0.0051213652, -0.0159392804, -0.0028299391, 0.0396923721, 0.0045656264, 0.0579925627, -0.0384979025, -0.1217644960, 0.0467130393, -0.0464804545, 0.0019826889, 0.1142814308, -0.1447860748, -0.1147474125, 0.0257644057, 0.1000096351, -0.0167632699, 0.0354857743, -0.1368745118, 0.0245895684, 0.1546513885, 0.0307252109, 0.0144869238, -0.0910485610, -0.1382411867, -0.0024587661, 0.0019396394, 0.1038539559, 0.0475869030, -0.1527477056, 0.1502208263, -0.0159669816, 0.0408816487, -0.1384847164, -0.0264024585, -0.1385858953, -0.0962489024, -0.0413912833, -0.0382063910, -0.0543094650, -0.1097906381, -0.1207985431, -0.1283558011, -0.0709244311, 0.0823614150, 0.0459104329, 0.0046175718, 0.0650677383, -0.0988839418, 0.1044202298, 0.0272233933, 0.1075063199, 0.0265289694, 0.1034889966, -0.0272838622, 0.0387792736, -0.0204878747, 0.1026082486, 0.0806750208, -0.0990600288, 0.0479328483, -0.0290684849, -0.0008421540, -0.1491046101, 0.0214022547, -0.1234367117, 0.0133327693, 0.1215040535, 0.0134840161, 0.0912375450, 0.0795612186, 0.0011360496, 0.0765415877, -0.0151508451, -0.0613111705, 0.0101179928, -0.1201282889, -0.0792165548, -0.0654980168, -0.0886464864, -0.0849471390, -0.0821514353, 0.1152042896, -0.1119790003, -0.0199849159, -0.1242327243, 0.0215773284, 0.1161914319, -0.0812622681, 0.0805047005, -0.1213290244, 0.0906178355, 0.0435879827, -0.1294366568, 0.0649960488, -0.0555040166, 0.0738691539, -0.0096591711, -0.0066968054, -0.1280657202, -0.1461124569, -0.1345487833, 0.1567719728, -0.0348002538, -0.1463045627, 0.0559757650, 0.1137358397, -0.1098631248, -0.1545241624, 0.0713415444, -0.0792243555, 0.1249684542, 0.0615019500, 0.0065490305, 0.0259508938, -0.0720144883, 0.1330910772, 0.1451315433, 0.1349987835, 0.0214949250, 0.1296937317, -0.0477393940, -0.0497123152, 0.0965755731, 0.1275061220, 0.1050067991, 0.0001766086, 0.0092059374, 0.1160479635, -0.1365447342, 0.0450075120, -0.0373443663, 0.0908155888, 0.0977218002, 0.0289279521, -0.0835992396, 0.1062898785, -0.0476579294, 0.1168456525, 0.0891234428, 0.0390587300, -0.1236139238, -0.0059200525, -0.0862230808, -0.0467397347, 0.1323245317, 0.1393236369, 0.1168309301, 0.1526878327, 0.1492889971, 0.0378698707, 0.1255843192, 0.1427610070, -0.0270261317, -0.0694741756, -0.0708066225, -0.1257736832, 0.1352287680, 0.0708600879, -0.0312048346, -0.1346242130, 0.1424625963, 0.0125928223, 0.1333573610, 0.1344752461, 0.0769857019, -0.0837070495, 0.0957443565, -0.1548728198, -0.0557929277, -0.0472198129, 0.0716978312, 0.1452926546, -0.0095796734, 0.0320946425, 0.0692791641, -0.0300502032, 0.1293490380, -0.1157357618, -0.1477053612, -0.0787545741, -0.1168442518, 0.0061511397, -0.1167256534, -0.1424687952, 0.0790405869, -0.0477153063, -0.1513660997, -0.0047899634, 0.1112417132, -0.0647553429, -0.0220830292, -0.0540828258, 0.0714200735, 0.1477101594, 0.0648780912, 0.1041626185, -0.1349827498, -0.0699046776, -0.1450397819, -0.1493231803, -0.0935601443, -0.0170943290, 0.0681312084, 0.1256541163, 0.0431574732, 0.0737712085, 0.0212986618, 0.0023446232, 0.1527401954, -0.0332879871, 0.0380445123, -0.1183128953, -0.0859138146, 0.1033145040, 0.1528831869, 0.0753475279, 0.0069899410, -0.0411324501, 0.0807107538, -0.0255320370, 0.1490458101, -0.1477148533, 0.0109287053, -0.1559412330, -0.1065073162, 0.1324226111, -0.0889850855, 0.1125690490, 0.0696728826, -0.1503161639, 0.1090357155, 0.0047829151, -0.0940683037, 0.0444215387, 0.0225353688, 0.1045162827, -0.0679631978, 0.0264096707, 0.1395918876, -0.1244384423, 0.0786695629, 0.0340288579, -0.0321269780, 0.1577099413, -0.0317440629, -0.0495983958, -0.1042317897, 0.1087660342, 0.0460880995, 0.1339651197, -0.1165794581, -0.0478551239, -0.0923677757, -0.0981284901, -0.1013252884, -0.0938576087, -0.0912973657, -0.0532596707, 0.1166420430, -0.0309413671, 0.0552433729, 0.1479076892, 0.1087972969, 0.1381236762, 0.1173405200, 0.0728803575, 0.1023173779, 0.0611680746, -0.1093703508, 0.0585614145, 0.0518561304, 0.0459792316, 0.0014596730, 0.0305912346, -0.1523932815, -0.0842867270, -0.0094458461, 0.0179165751, 0.1197563559, 0.1377701610, 0.0001704246, -0.0492948592, 0.0458799005, 0.0819813013, 0.1210802943, 0.0668144077, 0.0323117077, -0.0357381180, 0.0685046017, -0.0890159979, -0.0797488764, 0.1452846974, -0.0323648602, -0.1238370240, 0.0961337239, -0.0141267180, 0.0108509064, -0.0796592310, -0.0061008185, -0.0128032863, -0.0398572683, 0.1037607938, 0.1036117524, 0.1179694086, 0.1190142483, -0.0777720287, 0.0392151326, -0.0350150838, 0.0017625690, -0.1473422945, -0.0582890511, 0.0933383256, -0.0931228176, -0.1212652326, -0.0515687615, 0.0538260788, 0.0683815181, 0.1123198122, 0.0659938157, -0.0221754313, 0.0548770726, 0.0131202042, -0.0184550434, 0.0464187860, -0.1217098758, 0.1264171749, -0.0264596492, 0.1183983535, 0.0858466774, -0.0181916952, -0.0057786852, -0.0326759368, -0.1559430510, -0.0560100228, -0.0630401149, 0.0562506914, -0.0724568218, -0.1371921897, 0.0995492190, -0.0443202108, -0.0680461675, -0.0083101839, -0.1104614586, -0.0403799787, 0.0514134467, -0.0024773926, 0.0828962624, 0.0687449574, -0.1523095220, -0.1258327067, -0.0242646188, -0.1305517405, 0.0693337172, 0.1252704710, 0.0313011557, 0.0205818862, 0.0340876281, -0.0441009253, 0.0256337374, 0.1113643795, 0.1157704145, 0.0699591488, 0.1400271803, 0.0936035365, 0.0193799883, -0.1354351640, -0.0641033351, -0.0359117910, 0.1114875525, 0.0962276310, 0.0277400017, -0.0196714997, -0.1026882380, -0.0087551177, -0.1245560944, -0.1453774720, 0.1363357455, -0.0852734149, 0.0161927938, -0.0462200418, 0.0546545088, -0.0356976688, -0.0592892021, -0.0894650891, -0.0783010349, -0.0311627239, -0.0574608818, -0.0306119323, 0.0682685375, 0.0823444128, -0.1240173653, 0.0900596827, -0.0365975052, -0.1349924803, -0.0865215287, 0.1365451068, 0.1222314686, -0.0344984084, 0.1203254312, -0.1561390311, -0.0612724572, 0.0253587067, 0.1361287981, -0.1238165870, -0.1010622084, 0.0500932038, -0.0389435962, -0.1451313496, -0.1222080886, -0.0000749826, 0.0796811283, 0.0741312653, 0.0251831412, -0.0712044463, 0.1263676733, 0.1459959298, 0.0008825362, 0.1038715988, 0.0390976667, 0.0789626539, -0.1503536254, 0.0594416857, -0.0614072606, 0.0030848831, 0.0453713983, -0.1066787988, 0.0444795936, 0.0758336782, 0.0527666658, -0.1577702016, -0.0030663311, -0.0767762586, 0.0873552412, 0.0655063093, -0.0150033385, 0.0689884871, -0.1216249764, -0.1178058311, 0.0348245651, 0.0007655919, 0.0481920540, -0.1297338158, 0.1453533918, -0.0243673027, 0.1060689241, -0.0147830695, -0.1466063708, -0.0214289427, 0.1462816745, -0.1314158738, 0.1113208085, 0.0672716796, -0.1533033252, -0.0420179218, -0.1570362747, 0.0295341611, -0.1321035028, -0.0417584926, 0.0338303000, 0.0656519383, 0.0142507851, 0.0296659917, 0.1490772516, 0.0383628309, 0.0150556564, 0.1458280236, -0.0039631873, 0.1519516557, 0.1490194052, 0.1275569648, 0.0253334045, -0.0792574510, 0.0829163939, -0.0038640797, -0.0655610859, -0.0417601094, 0.0906342268, 0.0850562453, 0.1221121699, -0.1499714255, 0.0308911204, 0.0103578568, 0.1109750122, 0.1321713179, -0.1061035767, -0.1385493279, 0.1287125200, 0.0946622640, 0.1110306531, 0.0319318324, 0.0412732512, 0.1357725412, -0.1015848368, -0.1354553699, 0.1400726885, 0.0942588896, -0.0607299879, 0.1407621354, 0.0565182567, 0.1093758792, 0.1148968786, 0.1296886951, -0.0743472278, -0.1546140313, 0.0241832286, 0.0810796618, 0.0214817971, 0.0724955797, 0.1491833478, 0.0799601674, -0.0649725199, -0.1156583279, 0.0643263906, -0.0825227574, 0.0972407907, -0.0002233237, -0.0254285187, -0.0659593940, 0.0409854650, 0.1168395132, -0.0873322859, 0.0429423004, -0.0143236518, -0.0258668214, 0.0743982792, 0.0623079985, -0.1466046721, 0.0316235423, -0.1015474424, -0.1322061121, -0.0730632991, 0.1358088404, 0.0887050778, -0.1238036603, 0.0638221502, 0.0624804199, 0.1462595612, -0.0882686153, -0.0660039559, 0.1004080027, -0.1408305019, -0.1365050822, -0.0992164686, -0.1163771451, -0.1466079503, -0.0935916975, -0.0968333185, -0.0669864938, 0.0855695307, 0.1193892211, -0.1017934978, -0.1114247367, -0.1194880009, 0.0948369354, -0.0975053906, 0.1099833101, 0.0149168521, -0.1215064228, -0.0560349450, 0.1333550066, -0.0107654035, -0.0433003083, -0.0968498290, 0.1000825912, -0.0930525884, -0.1425313354, -0.0866232365, 0.0266713202, 0.1132891923, -0.0169462860, -0.1198657602, -0.0378415957, 0.0360306948, 0.1312973648, 0.0379975438, -0.0505429804, 0.1442381591, -0.0668290332, -0.1179742217, -0.0340889022, -0.0025551915, 0.0711506158, 0.0593594611, 0.0705320388, 0.1033773571, -0.0560130402, -0.0657394305, 0.0131064057, 0.0932723135, 0.0434295684, 0.0933726877, -0.0198657215, 0.0806243569, 0.0256382972, -0.0263228416, -0.0146331042, -0.0844907388, 0.0817032158, 0.1473768204, -0.0228736997, -0.0319439620, 0.0801025480, -0.0028846413, -0.0376348570, 0.0801881552, -0.0119411498, -0.1285189539, 0.1509781629, 0.1010319442, 0.0245629549, 0.0490276664, 0.0738172829, 0.1497351080, -0.0441268981, -0.0063891262, -0.1022126526, 0.1149960905, -0.1239545643, -0.0047000200, 0.0911907107, 0.0019727796, -0.0599408001, -0.0116766244, -0.0607124269, -0.1578447223, -0.1129751131, -0.0854048282, 0.1018659621, 0.0259969980, 0.0101768374, 0.0723809749, 0.0454795212, 0.0011429042, -0.0698673949, 0.0027323812, -0.1470418572, 0.1300956756, 0.1387615949, 0.0589196533, 0.0581847131, -0.0389121920, 0.1518170685, 0.0324561894, -0.0429252982, 0.0062381774, 0.0475982577, 0.0022681355, 0.0375479311, -0.0189024359, 0.0435165018, 0.0976534635, -0.0983809456, 0.0956397206, -0.0291703939, -0.1238830090, 0.1358214170, -0.0527196154, 0.0627084225, -0.0188374072, -0.0460129306, -0.1575719118, 0.0932443887, -0.0300736874, 0.0151811540, 0.0498523563, 0.1462989002, -0.0753764436, -0.0406320989, 0.1441556364, -0.0643606558, -0.1264929771, -0.1018338650, -0.1273799986, 0.1580320746, -0.0744340494, 0.0229868293, 0.0007949919, -0.0569274649, -0.0478317514, 0.1011852771, 0.0461270362, 0.0456855297, -0.0125980526, -0.1183709502, 0.1283025295, 0.0521773845, 0.1474686116, -0.0502298623, 0.0642945319, -0.1111567467, -0.1090563238, -0.1580074281, -0.1545790881, 0.0275306702, -0.1538048983, 0.0186001807, 0.0318972617, 0.0653597414, -0.1057373136, -0.0236211568, -0.0197630227, -0.0969877690, -0.0384313688, 0.0342422575, -0.0202979594, 