//Numpy array shape [120, 84]
//Min -0.158080175519
//Max 0.158067390323
//Number of zeros 0

#ifndef W14_H_
#define W14_H_

#ifndef __SYNTHESIS__
model_default_t w14[10080];
#else
model_default_t w14[10080] = {-0.063552424312, 0.059472143650, 0.105213060975, -0.031369119883, 0.129596218467, -0.036332570016, -0.017292916775, 0.150266841054, -0.131198167801, 0.065371245146, 0.013258203864, 0.050058230758, 0.145473346114, 0.111572697759, 0.150346651673, -0.021492734551, 0.095381662250, -0.020437881351, 0.089372202754, -0.006014719605, 0.061832293868, -0.018749043345, -0.057131409645, -0.140459299088, -0.040598772466, -0.028308019042, 0.138751491904, 0.033077031374, -0.031459853053, 0.003068327904, 0.142407491803, 0.073839291930, 0.042432814837, -0.008429527283, 0.104489162564, -0.142498537898, 0.005475759506, -0.049110218883, -0.066961392760, -0.087745487690, 0.120786920190, 0.038736939430, -0.045303471386, 0.030058577657, 0.148342028260, -0.082061983645, -0.112055256963, -0.074055939913, 0.110647037625, 0.044455885887, -0.079849489033, 0.003466531634, -0.028960973024, 0.105632826686, 0.051606982946, -0.009127110243, -0.113482743502, -0.037875406444, -0.156342789531, -0.018557503819, 0.038058847189, -0.123435094953, -0.066320911050, 0.093522295356, -0.151367306709, -0.151721850038, 0.129129186273, 0.119324818254, -0.081163242459, -0.136335700750, -0.137907713652, 0.006522312760, -0.008286535740, 0.033354565501, -0.018203228712, -0.108425013721, 0.080882698298, 0.101933911443, -0.090694203973, 0.060218706727, -0.075153760612, 0.095257565379, 0.025542557240, -0.063421353698, 0.092996075749, -0.053205005825, 0.010663434863, -0.100674107671, -0.021321892738, 0.127871051431, -0.069765880704, 0.134275540709, -0.042880699039, -0.043616399169, -0.006028056145, 0.154214844108, -0.062776610255, -0.081194192171, 0.108528062701, 0.053666353226, 0.010849282146, 0.022667005658, 0.038207858801, 0.090337172151, 0.033543542027, -0.147538855672, -0.119414903224, -0.054752178490, 0.097608223557, -0.101290576160, -0.017906665802, 0.119327113032, -0.063261628151, -0.090687386692, -0.130680471659, -0.038027137518, -0.007601663470, -0.007111251354, -0.022965684533, 0.145660236478, 0.097963199019, 0.041106700897, -0.073066122830, -0.067209623754, -0.024151667953, -0.077160656452, -0.147308260202, -0.145574748516, 0.136864170432, -0.147911295295, -0.076867446303, 0.152732029557, 0.021747455001, 0.074813619256, 0.141355052590, 0.097900167108, -0.100377358496, -0.112478375435, 0.030081227422, -0.125637367368, -0.139878347516, -0.039920486510, 0.121703729033, 0.015078842640, 0.048498913646, 0.068092465401, -0.125627726316, -0.062414452434, 0.059925228357, -0.007457092404, -0.059322409332, -0.026176810265, 0.071878731251, 0.052379131317, -0.091394394636, -0.118076913059, 0.065202474594, 0.138356670737, 0.082543075085, -0.037848338485, 0.044901087880, 0.014068856835, 0.025349691510, -0.082673206925, 0.135590687394, 0.001282468438, -0.106867402792, 0.147320762277, -0.088071383536, -0.031847730279, -0.053883336484, 0.155246928334, -0.110684394836, 0.011316955090, -0.005583763123, 0.039116621017, 0.109574601054, 0.145352795720, -0.075835742056, 0.004353210330, -0.072692170739, -0.025789424777, -0.138427749276, -0.064706750214, 0.002075985074, 0.146983519197, -0.119223102927, 0.120719179511, -0.050181686878, -0.133863896132, -0.053057350218, 0.037129566073, 0.051961526275, -0.083545856178, 0.134657248855, 0.028109997511, -0.062609612942, 0.130006834865, 0.048518896103, 0.104991927743, 0.051424860954, 0.081081554294, 0.096905276179, 0.060782089829, -0.054230108857, -0.055394619703, -0.087400972843, -0.132457077503, 0.146501883864, -0.049214370549, 0.149939939380, -0.133714199066, 0.153610125184, -0.031889155507, -0.127654924989, -0.075750321150, 0.130050852895, -0.080679282546, 0.107762143016, 0.036707058549, -0.125454992056, 0.044007360935, -0.140224829316, -0.149297460914, -0.070068553090, 0.069467917085, 0.005510106683, -0.038955092430, 0.069376125932, -0.010437816381, 0.095424905419, -0.031541585922, 0.053822308779, 0.044229432940, -0.009504318237, 0.027011424303, -0.043978407979, 0.155603125691, -0.096002668142, 0.131803706288, 0.014005705714, 0.072971284389, -0.032227531075, -0.047264069319, -0.023366242647, -0.002071768045, 0.113289013505, -0.136772960424, -0.090139828622, -0.012551575899, -0.106872037053, 0.137192174792, 0.075702637434, 0.112637206912, -0.089568562806, 0.148195430636, -0.062516883016, -0.063295178115, 0.133068934083, -0.076008588076, -0.064465641975, -0.044456638396, 0.047689974308, -0.142754390836, -0.120252951980, -0.059900835156, 0.038533493876, -0.122142903507, 0.126033350825, -0.133752197027, -0.153688564897, 0.154106214643, 0.105622455478, -0.076352611184, -0.107752412558, -0.092994794250, -0.132734298706, 0.116542324424, -0.045006491244, -0.078266017139, -0.086730301380, 0.086933821440, 0.129881396890, 0.009373471141, 0.151198044419, -0.087359130383, 0.132385775447, 0.017155125737, -0.075284048915, -0.001611143351, -0.140121906996, 0.090146541595, -0.068459101021, 0.003592699766, 0.125458016992, -0.100026130676, 0.042523711920, -0.139877513051, 0.007038578391, 0.084209144115, 0.072007477283, 0.105645284057, 0.016754373908, -0.058088243008, -0.141611784697, -0.142063394189, -0.014673218131, 0.094360604882, 0.115442290902, -0.048930890858, -0.156633585691, -0.021238014102, -0.153105229139, -0.076986834407, 0.066864430904, -0.114825367928, -0.131943330169, -0.061753317714, -0.157716363668, 0.153304949403, -0.052896380424, -0.105603411794, 0.076353862882, -0.040279440582, 0.129091069102, 0.121879920363, 0.025116190314, -0.008903577924, 0.071257293224, -0.023319810629, 0.115049436688, 0.064519882202, -0.106335453689, 0.037734761834, 0.008258879185, 0.152064815164, 0.031041070819, -0.072957746685, 0.047564849257, 0.019667208195, 0.119297698140, -0.021290868521, -0.057042665780, -0.106323197484, 0.141369685531, 0.083832278848, -0.012358382344, 0.010138913989, -0.112509027123, 0.098311707377, 0.097832277417, 0.073041811585, 0.147784635425, 0.151388749480, -0.084008783102, -0.055056169629, 0.128957226872, -0.000344783068, 0.040530204773, 0.139050260186, -0.117254056036, -0.083281673491, -0.004296168685, -0.116827622056, 0.069509267807, 0.020904541016, -0.141263380647, -0.147852197289, -0.084314353764, 0.116948798299, -0.029548868537, -0.015415057540, 0.077125743032, -0.115205056965, 0.026296615601, 0.043236598372, 0.113958522677, 0.102975592017, 0.041908413172, -0.049171701074, -0.027290314436, 0.055128321052, 0.031628847122, -0.139097601175, -0.081705778837, -0.081966191530, -0.031300887465, 0.119997188449, 0.082313686609, -0.032433167100, 0.065811321139, -0.102177217603, 0.019416823983, 0.048403009772, -0.087138861418, 0.072397977114, 0.153782382607, -0.148538097739, -0.130269616842, 0.032893940806, -0.022556364536, 0.104245111346, -0.017456516623, -0.118184313178, 0.126350685954, 0.016654580832, 0.095429822803, 0.151676282287, 0.009890481830, -0.116106286645, 0.025041893125, -0.031650975347, 0.038990497589, 0.143697902560, -0.033564761281, 0.098159298301, 0.128938630223, -0.114615209401, -0.156306639314, 0.058713898063, 0.117173239589, -0.139256715775, 0.066170006990, -0.053695112467, 0.026016250253, -0.038402982056, 0.126570478082, 0.044774010777, 0.043854907155, 0.080106243491, -0.141234725714, 0.040381744504, 0.005487143993, -0.063661254942, 0.150518253446, 0.027885437012, 0.031480818987, -0.031504407525, -0.015953004360, 0.041921153665, 0.108616366982, -0.030830234289, 0.106216982007, -0.024254322052, -0.013694033027, 0.107647582889, 0.128986462951, 0.036246016622, -0.092344857752, 0.039998412132, -0.013272568583, 0.054363220930, 0.027171909809, 0.120513275266, 0.138269916177, 0.136323079467, 0.065902620554, -0.049553722143, -0.064454555511, -0.055246770382, 0.155584022403, 0.098348483443, 0.109461918473, -0.061769306660, -0.073707997799, 0.068553805351, 0.020461514592, 0.054167002439, 0.004002466798, 0.136236384511, 0.042967706919, -0.152765989304, 0.117560371757, -0.074230708182, -0.051215007901, 0.072800546885, 0.110064283013, -0.048261426389, -0.122673451900, 0.064212396741, 0.106756642461, -0.077554441988, 0.033778309822, 0.125400438905, -0.109337247908, 0.002904996276, 0.021235525608, -0.120638102293, 0.056198179722, 0.071296274662, 0.083478838205, -0.023579314351, 0.086019024253, 0.089847832918, 0.046329364181, 0.020250305533, 0.084807619452, 0.110819742084, 0.089828372002, 0.118960127234, 0.083592459559, 0.102406427264, -0.127938181162, -0.082667924464, -0.148187205195, 0.006097793579, 0.018148228526, -0.078106708825, 0.138717904687, 0.136766687036, 0.000686988235, -0.079703144729, 0.156765952706, 0.148917600513, 0.115953281522, 0.127687975764, 0.157147094607, 0.147144272923, -0.004477009177, 0.033666431904, -0.021947696805, 0.130605682731, -0.002411574125, 0.062892377377, 0.024969175458, -0.092073589563, -0.013709753752, -0.026831269264, 0.005451932549, -0.100993670523, 0.088283613324, 0.059842780232, 0.103383198380, 0.034301370382, -0.086615547538, 0.128995165229, 0.152350768447, -0.000855877995, -0.128072768450, 0.135351702571, -0.007797539234, -0.141897901893, -0.140284121037, -0.109625071287, 0.015246182680, 0.129745021462, 0.078355774283, -0.154577046633, -0.041669413447, 0.137962266803, -0.082287639380, -0.058162920177, 0.057767242193, 0.064359188080, 0.121987715364, 0.069008693099, 0.139134690166, -0.015564456582, -0.149228975177, 0.043653607368, -0.152155190706, 0.154317513108, -0.114257007837, -0.012347668409, 0.002217203379, 0.115172550082, 0.069122344255, -0.000894740224, -0.117598421872, 0.091661483049, 0.144298836589, 0.147960469127, -0.154741629958, 0.071208328009, 0.059122875333, 0.062365338206, -0.032110318542, 0.105682417750, -0.132854849100, 0.128860399127, 0.011196061969, 0.088663980365, 0.069069191813, -0.103055223823, -0.015625908971, -0.022939443588, -0.130496248603, 0.086210608482, 0.110848113894, -0.002869516611, 0.127795264125, 0.003539815545, 0.113442078233, 0.030899748206, -0.131339341402, 0.016655117273, -0.120418779552, 0.100071445107, 0.142446324229, -0.071217149496, -0.134852126241, -0.106837995350, -0.012859672308, -0.110640063882, -0.088916063309, -0.139864280820, -0.062615416944, 0.143732264638, 0.127069756389, 0.011130988598, 0.092639371753, -0.052157737315, 0.147595629096, -0.035581640899, -0.027009129524, -0.124335229397, 0.134186401963, 0.155434623361, -0.143499091268, 0.081781357527, 0.029106378555, -0.098699748516, 0.087812513113, -0.008935913444, 0.146331623197, 0.048593267798, 0.144457951188, -0.085103206336, 0.043332472444, 0.104511931539, -0.150595992804, 0.051897287369, 0.103408291936, -0.125106811523, -0.127060785890, -0.077897563577, 0.087490051985, 0.097702607512, -0.008138135076, -0.086996592581, 0.007864892483, 0.090732738376, 0.079076126218, 0.034378260374, 0.015508845448, -0.111667916179, 0.012618184090, 0.070844173431, -0.021003380418, -0.102019041777, 0.064123764634, 0.137935414910, 0.090840429068, 0.011610761285, 0.053400427103, -0.133683621883, -0.001331657171, 0.072357982397, -0.024259030819, 0.049420997500, 0.093085959554, 0.037033066154, -0.146088629961, -0.045392170548, 0.077801167965, -0.046803139150, 0.066720202565, 0.065392360091, 0.123042657971, 0.080968648195, 0.057990565896, 0.004227146506, 0.020388767123, -0.009163826704, 0.101421609521, 0.000219359994, 0.020609527826, 0.088223338127, -0.120831683278, 0.123905554414, -0.092713877559, 0.031867846847, -0.023447901011, -0.136834174395, 0.088522121310, -0.053448498249, 0.082437261939, 0.123246893287, -0.045337848365, -0.101275570691, 0.155037656426, -0.041417635977, -0.023064255714, -0.070741482079, -0.157386556268, -0.043296128511, -0.046522147954, -0.134017139673, 0.074794322252, 0.094997838140, 0.078962847590, 0.113826498389, 0.124061480165, -0.117338158190, 0.129796102643, 0.104344084859, -0.103162959218, -0.156092584133, 0.075985252857, 0.019903600216, 0.121272161603, 0.020405918360, 0.114177837968, -0.057066529989, 0.026557847857, 0.123079821467, -0.077550143003, 0.102454200387, 0.051270380616, -0.031023129821, 0.046380788088, 0.011429026723, -0.101671546698, -0.072464928031, -0.011165633798, 0.086736857891, 0.076146975160, -0.052106283605, 0.110744521022, -0.112653553486, -0.134854286909, 0.104638502002, -0.042396441102, -0.038227841258, 0.085275679827, 0.042281880975, 0.103826120496, 0.028579220176, -0.107185482979, 0.097223088145, 0.115501984954, 0.089010044932, -0.093978017569, 0.103982046247, -0.069554395974, -0.053172931075, 0.124672248960, -0.152981966734, 0.148797944188, 0.092377379537, -0.127002567053, 0.088833436370, 0.091907128692, -0.112596780062, 0.144433960319, -0.103887088597, 0.011960789561, 0.039879843593, -0.089890994132, 0.095660135150, -0.135871276259, -0.136008411646, -0.006885141134, 0.094647809863, -0.141929984093, -0.106554962695, -0.123472489417, 0.155887171626, -0.046028196812, 0.041344463825, -0.113466307521, 0.131710931659, -0.087996475399, 0.009561166167, 0.089802101254, -0.084489308298, -0.115236610174, -0.001625880599, -0.050285995007, 0.004004582763, 0.150501772761, 0.101057931781, 0.147799238563, 0.152251854539, 0.142533376813, 0.067630067468, -0.100521549582, 0.155691102147, 0.017395645380, -0.038649745286, 0.048205032945, 0.043111190200, 0.129585668445, -0.030602276325, 0.112955704331, -0.070655234158, -0.009444072843, -0.156817167997, -0.152814358473, 0.014982938766, -0.129312470555, -0.059267602861, 0.101944729686, -0.040711753070, 0.145647510886, -0.078783601522, 0.019627287984, 0.003269717097, -0.150154858828, 0.085104107857, -0.071346148849, 0.146834656596, 0.088843464851, -0.128761261702, 0.084351375699, -0.121787190437, 0.085274085402, -0.047848977149, -0.028326421976, 0.038272514939, -0.029696419835, 0.119616493583, -0.060145042837, 0.030739128590, -0.005934000015, -0.111957512796, 0.119787231088, -0.051181718707, -0.078123748302, 0.056684046984, -0.029371425509, 0.118927821517, 0.064684092999, -0.117308869958, -0.043281421065, 0.092792257667, 0.128062650561, -0.037546575069, -0.126448959112, -0.065553545952, 0.040641710162, -0.107058748603, -0.100422181189, 0.157188102603, 0.084562554955, -0.068722113967, -0.009291633964, 0.048265606165, 0.128868922591, -0.080320060253, 0.055287286639, -0.042407073081, 0.036538511515, -0.094940841198, -0.025124117732, -0.025420680642, 0.053678184748, -0.139986157417, -0.070381775498, -0.037161044776, 0.121056124568, 0.147501036525, 0.013027772307, 0.131619200110, -0.077817037702, 0.011298030615, 0.114291206002, -0.010941267014, -0.156350851059, 0.032746344805, 0.065818741918, -0.014133989811, 0.143491253257, 0.135826036334, 0.096511021256, -0.027458593249, 0.141942456365, 0.066252529621, -0.046265393496, 0.022116661072, -0.072281308472, -0.104988530278, -0.043035559356, -0.038785569370, -0.007491916418, 0.107607737184, 0.048779040575, 0.045758143067, 0.119177415967, -0.106084495783, -0.131704300642, 0.150931611657, -0.041539207101, 0.014594957232, 0.092816308141, -0.048609368503, 0.049857079983, -0.058730974793, -0.142577812076, 0.043218627572, 0.093173816800, -0.086641713977, 0.031555041671, 0.039935782552, 0.114873781800, 0.147371008992, 0.022853299975, 0.092824146152, 0.075226932764, -0.101079210639, -0.046496175230, 0.066031768918, -0.014397203922, -0.119315341115, 0.037489801645, -0.031217500567, -0.000104233623, 0.116737261415, 0.105566874146, 0.041404440999, -0.102236062288, -0.117261290550, 0.053034394979, 0.140701457858, 0.042098447680, 0.136991038918, -0.079631105065, -0.104034863412, -0.109546020627, -0.141606613994, 0.009101524949, -0.119328990579, -0.121104307473, 0.054637849331, 0.079606458545, 0.078944370151, -0.016372457147, -0.094812482595, 0.074644654989, -0.127306297421, 0.047645449638, 0.143489107490, -0.131675913930, -0.059569783509, -0.017962604761, -0.120385527611, 0.145098313689, -0.120680399239, 0.066315934062, -0.108121208847, 0.123027220368, 0.019522890449, 0.110304549336, -0.124702475965, 0.134085938334, 0.121007964015, 0.083478763700, 0.125386312604, -0.093964636326, -0.134701639414, -0.040191151202, 0.011221319437, 0.113125070930, 0.156220272183, 0.029987663031, 0.070971176028, 0.137976244092, 0.013385131955, -0.066168315709, 0.009191572666, 0.058475434780, 0.112660840154, -0.096893072128, 0.120959773660, -0.129594042897, -0.020912006497, 0.073006331921, -0.054687231779, 0.009270220995, 0.150131359696, -0.137606665492, -0.048480518162, 0.065093457699, -0.126467347145, -0.153961002827, 0.059741571546, 0.063884764910, -0.133201181889, 0.108668342233, -0.074450895190, 0.157211825252, -0.100165612996, -0.053983420134, -0.076550260186, 0.040058687329, 0.051021352410, 0.075398638844, 0.099183812737, -0.097541049123, -0.008773252368, -0.082766652107, 0.074026092887, 0.094694569707, -0.031815186143, 0.111150339246, 0.130311593413, 0.109596028924, -0.037392847240, -0.130621746182, 0.126741960645, 0.023402094841, -0.127075329423, -0.139668300748, 0.141062751412, 0.008043617010, -0.139114409685, 0.041178107262, 0.058740586042, -0.089557334781, 0.068837389350, 0.129953935742, -0.103703089058, 0.122542902827, 0.103465393186, 0.096354261041, -0.009419083595, -0.117467083037, -0.060627229512, 0.072999477386, -0.068991914392, -0.049395658076, -0.142511203885, -0.125685885549, -0.108531653881, -0.134387627244, 0.063377961516, 0.056451722980, 0.133022353053, 0.044913530350, 0.105931982398, -0.069816693664, -0.066095143557, 0.115631863475, -0.080483555794, 0.043817743659, -0.017943084240, 0.046352237463, -0.082712106407, 0.096633836627, 0.035298153758, 0.079375445843, -0.071297332644, -0.108451664448, 0.012694448233, -0.152847230434, -0.147575527430, 0.135751023889, 0.111880823970, 0.008057415485, 0.001205518842, 0.016194909811, -0.029680058360, -0.133397430182, 0.108208075166, -0.009197905660, -0.057648956776, -0.049606919289, -0.056817464530, -0.101643458009, -0.047429442406, 0.074752628803, -0.122245781124, 0.156052216887, 0.067366674542, -0.064356692135, 0.149419143796, -0.139362648129, 0.091701060534, -0.023552551866, -0.005581304431, 0.086243659258, 0.109927788377, -0.122260823846, -0.147793352604, 0.078741639853, -0.068284302950, 0.054622277617, -0.089873351157, 0.030091553926, 0.084858968854, -0.101034872234, -0.011816859245, -0.080695264041, -0.026388823986, -0.007835790515, -0.045039251447, -0.152305111289, 0.124367341399, 0.139751031995, 0.123884662986, 0.123217090964, -0.058685779572, -0.073373399675, -0.044262871146, 0.120710983872, 0.109774544835, -0.020396038890, 0.148674026132, -0.083337992430, 0.142095729709, -0.038478411734, 0.140639558434, -0.138353034854, 0.132034167647, 0.012078285217, 0.101323589683, -0.096383213997, -0.157441779971, -0.150850176811, -0.106013931334, -0.140432536602, -0.053701296449, -0.050979547203, 0.041585877538, -0.129121467471, 0.052417054772, -0.136185139418, -0.130492508411, -0.076184332371, -0.112535260618, 0.092836126685, 0.051681175828, -0.139213815331, 0.128125563264, -0.128868103027, 0.086423635483, 0.049516707659, 0.031395614147, 0.136537000537, 0.048997581005, 0.146423235536, -0.069745674729, 0.087735339999, 0.110427990556, 0.045759037137, -0.150489345193, 0.027245566249, -0.092526182532, -0.065809696913, -0.139195233583, 0.153675869107, -0.154229968786, 0.142076715827, 0.051607742906, 0.130045875907, 0.086275562644, 0.133837178349, 0.018710404634, 0.098886057734, -0.047813504934, 0.024196490645, 0.031586855650, 0.117246732116, 0.068369790912, 0.085014387965, 0.017913222313, 0.082987904549, 0.131042525172, -0.130094841123, 0.010461226106, 0.134097084403, 0.063395485282, -0.025817215443, 0.092133834958, -0.106173880398, 0.059370622039, -0.088705301285, 0.088818043470, 0.038623318076, 0.106334611773, -0.005819976330, 0.058030709624, -0.072178542614, -0.053389690816, -0.022516176105, 0.017602860928, 0.090768620372, 0.026775181293, -0.132067024708, -0.038509622216, -0.029308736324, -0.115588247776, 0.154542848468, 0.096619740129, -0.040737234056, 0.066441431642, -0.132909744978, -0.115723922849, -0.150056719780, 0.103712216020, -0.024990886450, -0.005190759897, 0.094861969352, -0.151311218739, 0.096450850368, -0.061779335141, -0.149978280067, 0.079433083534, 0.012011632323, -0.035903461277, 0.092141404748, -0.013307556510, -0.061937659979, 0.055496320128, -0.101974368095, -0.020042672753, -0.041030406952, -0.002880781889, 0.139870241284, 0.148475214839, 0.064166098833, 0.149270221591, 0.042520925403, 0.153489753604, -0.084871858358, 0.081925660372, -0.079073190689, 0.139778420329, 0.081502437592, -0.054326839745, -0.062833458185, -0.068294331431, 0.117048636079, -0.100498139858, 0.119339987636, 0.140017375350, 0.055707544088, 0.049909397960, 0.147725716233, 0.156491085887, -0.041446052492, 0.034345507622, -0.051808096468, 0.119532302022, -0.103648573160, 0.120187595487, -0.117734320462, -0.134103342891, 0.011727780104, -0.094817273319, -0.149922341108, 0.024643465877, -0.116541691124, -0.008072003722, 0.082067146897, -0.099459499121, -0.039555199444, -0.139656499028, -0.032899633050, 0.115425065160, -0.045377358794, 0.002651661634, 0.017326280475, 0.020525604486, -0.079634726048, 0.122554376721, -0.097485259175, 0.094592645764, -0.099812462926, 0.084208577871, -0.020531415939, 0.028748899698, 0.054271578789, 0.148535802960, 0.089564308524, 0.133070632815, 0.063343018293, 0.158067390323, -0.113816142082, -0.026225134730, -0.087250597775, -0.066181316972, 0.089930802584, 0.007141977549, 0.112505659461, 0.082740947604, -0.005244255066, -0.124385744333, 0.065180048347, -0.065216869116, -0.126180395484, -0.090289868414, 0.083519056439, -0.118419915438, -0.139432236552, 0.017234414816, 0.024049699306, -0.073058813810, -0.055943869054, -0.152493894100, -0.089062817395, -0.042474322021, -0.093640021980, -0.014126524329, 0.046101406217, -0.012996926904, -0.155562192202, 0.020413503051, -0.052026852965, 0.110186532140, -0.032873243093, 0.158041581511, 0.121157094836, -0.088050454855, 0.020414143801, -0.122657477856, -0.051694855094, 0.156151697040, -0.156313687563, -0.102232709527, -0.154791355133, -0.096132002771, -0.099305137992, -0.014770060778, 0.081765875220, 0.098206326365, -0.080234758556, 0.132565453649, -0.114555120468, -0.046442866325, -0.099393084645, -0.028450518847, 0.141495153308, -0.055456325412, 0.047114819288, 0.046443089843, -0.112292870879, 0.035709992051, -0.110164105892, 0.038494542241, 0.012669533491, -0.053676903248, 0.096520707011, 0.027955740690, -0.060960210860, 0.131580010056, 0.102607294917, 0.092140421271, 0.097501948476, 0.080204024911, 0.082533761859, -0.138509139419, -0.044502779841, 0.097793743014, -0.061347737908, -0.073006302118, -0.040567256510, 0.001594930887, 0.002177134156, -0.066226556897, 0.049324676394, 0.125248268247, 0.125711932778, -0.074986726046, -0.137152716517, 0.141721680760, -0.059033609927, 0.096635296941, 0.067090123892, 0.028402611613, -0.085705913603, 0.087019622326, -0.046570546925, -0.075840719044, 0.127528503537, 0.156151488423, 0.036872476339, -0.001468077302, 0.015169501305, -0.082852870226, 0.079002812505, -0.111448183656, -0.028792619705, 0.054552987218, -0.079671218991, 0.090038910508, -0.146784558892, 0.000152066350, 0.019747272134, -0.147916272283, 0.147571191192, -0.082062207162, 0.084686502814, -0.146315723658, -0.066121228039, -0.145013362169, -0.085625052452, -0.101862140000, -0.093185395002, 0.104144707322, 0.073809444904, -0.005443185568, 0.092695578933, -0.146508172154, -0.000518262386, 0.030103474855, 0.046645447612, 0.070171043277, -0.029393777251, -0.097980000079, 0.075636252761, -0.065981030464, 0.057592451572, 0.081375509501, -0.137797802687, 0.140697106719, -0.111353412271, 0.076037645340, 0.026901081204, -0.049030601978, -0.055815316737, -0.114446550608, 0.098007187247, -0.062937542796, -0.136326402426, -0.005216479301, -0.093845888972, -0.134508594871, 0.048454627395, 0.007308483124, 0.025119096041, -0.128130108118, -0.028650611639, 0.048504158854, -0.096278645098, 0.099505946040, 0.090597137809, -0.095098003745, 0.061228349805, -0.043966457248, 0.128041282296, 0.137781664729, 0.086270764470, 0.058136373758, -0.000112757087, -0.154815524817, 0.066191568971, 0.004724413157, 0.151908114552, -0.052823923528, 0.122103735805, -0.145744800568, -0.104394078255, -0.007897734642, 0.136355146766, -0.128024056554, -0.023892655969, -0.029231950641, 0.139922127128, 0.093398585916, -0.117213606834, 0.001116707921, 0.044933125377, -0.012185692787, -0.063204213977, -0.100374117494, 0.137521550059, 0.139437749982, -0.113573029637, -0.150142267346, -0.106449447572, 0.095967754722, 0.062119245529, -0.105747416615, 0.112685039639, 0.065750822425, -0.080386713147, 0.096539095044, 0.004892840981, -0.152679145336, -0.099955677986, 0.084171175957, -0.054788373411, 0.137063637376, -0.046637460589, 0.057110443711, -0.088053211570, 0.062224760652, 0.032303109765, 0.097232922912, -0.054735027254, -0.099523663521, -0.107955873013, -0.087039038539, 0.125329419971, -0.086717516184, 0.091128900647, -0.142405793071, -0.041204489768, 0.053782910109, -0.048802040517, 0.098771288991, 0.033288478851, -0.030804038048, 0.055679753423, 0.121929392219, -0.061298616230, 0.021691620350, -0.042056903243, 0.060306951404, -0.009805887938, 0.070774778724, -0.045973427594, 0.028979644179, -0.001811996102, -0.045328766108, -0.083592228591, 0.145936861634, -0.114461064339, 0.082483738661, -0.096754685044, 0.004849344492, -0.022267937660, 0.150298520923, 0.025681123137, 0.024884775281, -0.099349051714, -0.021285697818, -0.058318190277, 0.118929162621, -0.035171344876, 0.129468455911, -0.089778728783, 0.023039266467, -0.016331866384, -0.088712878525, -0.023958399892, -0.092757113278, 0.121816858649, -0.141647517681, -0.134989798069, 0.007619827986, -0.069127134979, 0.001631796360, 0.110532179475, 0.098520979285, -0.123313441873, 0.149196103215, 0.115673944354, 0.148902848363, -0.066912762821, 0.006924539804, 0.142036512494, -0.135197699070, -0.106294929981, 0.066194176674, -0.078739754856, -0.011799067259, 0.045069098473, 0.139197245240, -0.068453863263, -0.060286179185, -0.061522044241, 0.124727323651, 0.070923373103, 0.048888519406, -0.017052635550, 0.030783191323, 0.132225170732, -0.083304785192, 0.075937747955, -0.004522055387, 0.036079213023, -0.029199302197, -0.084369547665, 0.006367191672, -0.057504154742, -0.077792271972, -0.118136018515, -0.035767674446, -0.041767537594, 0.078429996967, 0.092469289899, 0.120924070477, -0.031307816505, -0.118005320430, -0.078970238566, 0.069274261594, -0.133331462741, 0.065273612738, 0.037765443325, 0.010569602251, 0.066243216395, -0.020655885339, -0.075697094202, 0.101535305381, -0.098061382771, -0.011044964194, 0.137628272176, -0.011385113001, 0.074853539467, -0.117127954960, -0.019993171096, -0.100636377931, 0.045429974794, -0.010891765356, -0.094152405858, 0.072899848223, 0.146329566836, 0.026329964399, 0.000559389591, 0.075267150998, 0.116059377789, -0.051963262260, -0.078402288258, -0.048090010881, -0.123383253813, -0.109585791826, -0.109687194228, -0.107903391123, -0.091960191727, 0.093591794372, 0.122292980552, 0.129796400666, 0.102903500199, -0.024507269263, -0.128670945764, -0.097231671214, -0.156107932329, 0.031423926353, 0.088598877192, -0.029515475035, -0.145348370075, -0.048166617751, -0.001840978861, -0.107045024633, -0.072784826159, 0.003428786993, -0.072269164026, 0.069620102644, -0.099835611880, 0.035962954164, -0.073366425931, 0.137202098966, -0.015952512622, 0.137592658401, 0.002486512065, -0.092840045691, 0.103912934661, -0.109205350280, 0.130632564425, 0.125039026141, 0.087770372629, -0.126589834690, 0.069330289960, -0.093333132565, 0.133672013879, -0.065324343741, 0.102269545197, -0.129918873310, -0.120602026582, -0.124271929264, -0.074083611369, 0.101195320487, 0.109179571271, 0.132311359048, -0.075584717095, 0.119330540299, -0.153654336929, -0.070566982031, 0.138939395547, -0.100182428956, -0.029534995556, 0.130112633109, 0.054658234119, 0.065867260098, -0.044931359589, 0.016134932637, -0.039897866547, -0.107618182898, 0.115642085671, -0.078022830188, 0.118907496333, 0.132223352790, 0.042102858424, 0.067353442311, -0.157419919968, -0.038927309215, 0.112051084638, 0.022118464112, 0.142865076661, 0.015616744757, -0.139448449016, 0.031375035644, -0.052708193660, -0.149188369513, 0.142689839005, -0.082568742335, -0.084880530834, -0.063524112105, 0.009819731116, 0.020867750049, -0.070008382201, -0.067718125880, 0.075280800462, 0.111342743039, -0.012311786413, -0.064080260694, 0.078606680036, -0.055256001651, -0.154513522983, 0.000412598252, 0.035260766745, -0.011578038335, 0.105410650373, -0.019240587950, -0.113501891494, 0.072340384126, 0.118563398719, 0.080722600222, -0.050984710455, -0.060982942581, 0.097439691424, -0.094126842916, 0.133965477347, 0.046856522560, -0.045095570385, 0.001945629716, 0.130204543471, -0.143320143223, -0.102816253901, -0.098391309381, 0.146925821900, -0.039648383856, 0.126220002770, 0.043413370848, -0.144188925624, 0.024935543537, -0.106171131134, -0.151142790914, 0.001217842102, 0.123986974359, -0.031656265259, -0.141250982881, -0.056252911687, -0.094583287835, 0.103964224458, -0.097251042724, 0.089534416795, -0.090911306441, 0.050499022007, -0.116769984365, 0.029904693365, -0.038156136870, -0.096118167043, -0.105500042439, 0.134326204658, -0.113904580474, -0.054879598320, -0.121838875115, -0.028044402599, 0.107890948653, -0.070741482079, 0.126885011792, 0.099176242948, -0.127610519528, -0.064306974411, 0.115516439080, 0.125127449632, -0.047599010170, 0.039303347468, 0.087302014232, 0.095719024539, -0.102624267340, -0.127332761884, 0.040628060699, -0.053397715092, -0.150265753269, -0.123382583261, -0.050635784864, -0.090179942548, -0.005569666624, -0.085896663368, -0.001895830035, -0.000128656626, -0.089852839708, 0.154712602496, 0.086765661836, -0.032332733274, 0.049714162946, -0.087436184287, 0.072792664170, -0.044038385153, -0.149356126785, -0.055682703853, 0.030897602439, 0.032659873366, -0.092440910637, 0.034570708871, 0.133758291602, 0.144849404693, -0.024496749043, -0.108642935753, 0.106675103307, 0.036192744970, 0.147748634219, 0.117308154702, -0.065439812839, 0.087399274111, 0.075203180313, -0.001445695758, 0.142360493541, 0.105763778090, 0.010891914368, -0.000897079706, 0.146029248834, -0.139514118433, 0.154508963227, 0.073514461517, 0.023723244667, -0.099045395851, -0.037083387375, -0.052648819983, 0.129116252065, 0.012253358960, -0.113483913243, -0.117364168167, 0.156746521592, -0.018974319100, -0.157532736659, 0.115079388022, -0.036257706583, -0.087395884097, -0.014047250152, 0.017627179623, 0.001791745424, -0.051556244493, 0.048756837845, -0.155718445778, 0.052759885788, -0.050543464720, -0.063444085419, -0.040474481881, 0.136229887605, -0.117651499808, 0.108181938529, 0.058713719249, -0.129106342793, 0.041493773460, -0.155761942267, -0.152100369334, -0.017806947231, -0.050738699734, -0.007731750607, 0.124666973948, -0.003862470388, 0.064464926720, 0.111778363585, -0.109098657966, 0.132224246860, 0.008085280657, 0.140796080232, 0.154867842793, 0.132294043899, 0.011801317334, 0.043407931924, -0.002863675356, 0.146801128983, 0.011007383466, -0.066163338721, -0.000939145684, 0.100199565291, 0.139586582780, 0.092223629355, -0.026677727699, 0.093138977885, 0.025586917996, 0.067882940173, 0.074654385448, 0.018851578236, 0.035670906305, 0.064415693283, 0.010731846094, 0.000478565693, 0.025007694960, -0.080647990108, 0.129077360034, -0.154011324048, -0.148422479630, 0.002031475306, 0.117886349559, -0.036282621324, 0.128363475204, -0.057634554803, 0.033834591508, 0.065511658788, -0.028254911304, -0.028102084994, 0.085857272148, 0.065752625465, -0.086707152426, -0.116616666317, -0.001690804958, -0.025905162096, -0.057929009199, 0.117626175284, -0.136388033628, -0.115269936621, -0.006417244673, -0.091950729489, -0.128828331828, 0.003301456571, -0.020410552621, 0.131746903062, -0.093608662486, 0.087288677692, 0.093621596694, -0.045632869005, 0.119300439954, -0.085669800639, 0.005560949445, 0.142465665936, 0.130405500531, 0.066297620535, 0.154342576861, -0.008020699024, -0.127620354295, -0.096434071660, -0.119488373399, -0.003994554281, -0.066482596099, 0.003638505936, -0.143842890859, -0.050226129591, 0.055499419570, 0.047162398696, -0.054017685354, -0.076442822814, -0.083189092577, -0.111316353083, -0.124891862273, -0.151568233967, 0.081858456135, 0.111662730575, -0.004272192717, -0.022335261106, 0.065981522202, -0.101980775595, 0.064586088061, -0.063268601894, 0.085806369781, 0.040018007159, -0.056126244366, -0.116402663291, 0.130162671208, 0.014011859894, 0.050858169794, -0.054402314126, -0.079139500856, -0.154253795743, 0.038160890341, 0.115290865302, 0.030905663967, 0.106507584453, -0.109867990017, 0.041843533516, -0.079691499472, 0.135954901576, 0.141341671348, -0.045792780817, -0.147389158607, -0.075102761388, -0.007013395429, 0.112908795476, 0.137989118695, 0.063265129924, -0.005514129996, 0.107135489583, -0.128960683942, -0.097682379186, 0.051770925522, -0.077747792006, 0.129475101829, -0.068793252110, 0.068285688758, 0.087786883116, 0.010619670153, -0.026149630547, -0.065560631454, 0.069529026747, -0.094140835106, 0.034330964088, 0.120158508420, 0.040971562266, 0.148115143180, -0.154061645269, 0.125674262643, -0.091586045921, 0.149284318089, -0.144898951054, -0.152023777366, 0.095872983336, -0.156465336680, 0.023210451007, 0.127251520753, 0.120832994580, 0.079913392663, -0.124389700592, -0.109399899840, -0.069240190089, 0.038887575269, -0.002228513360, 0.007229089737, 0.063641309738, -0.050362408161, -0.076057784259, 0.028879329562, 0.080707132816, 0.114117667079, 0.055760249496, 0.132668659091, 0.046750783920, -0.139226973057, -0.109264642000, 0.053693979979, 0.028646349907, -0.088520430028, -0.011743754148, -0.002135708928, -0.074231646955, 0.006143227220, 0.111217841506, 0.032593190670, 0.144855484366, -0.149696975946, -0.146532714367, 0.077234238386, -0.121007427573, -0.065227769315, -0.103059589863, 0.071474358439, -0.096557796001, 0.062240928411, 0.141474410892, 0.043771192431, 0.031810700893, 0.019699588418, -0.083157800138, 0.077705726027, -0.142706617713, -0.090565092862, 0.043286100030, 0.038488253951, 0.066232323647, 0.013400137424, 0.014185562730, -0.041641704738, 0.084515243769, 0.156992927194, 0.150450989604, -0.022164344788, -0.064075134695, -0.135907009244, -0.087204039097, -0.128413200378, 0.065898105502, 0.088856011629, 0.116984531283, -0.141376435757, -0.096471771598, -0.043484047055, -0.019311711192, 0.044827535748, 0.059852018952, -0.022779449821, -0.081638827920, 0.130854979157, 0.024746462703, -0.095579057932, -0.056479014456, -0.066710554063, 0.059760496020, -0.107825852931, -0.075972326100, -0.045998081565, -0.040233105421, -0.118598788977, -0.023816198111, -0.072903461754, -0.058173887432, 0.087391808629, 0.157718881965, -0.067042022943, 0.113435611129, 0.010989740491, 0.062669739127, -0.084673456848, 0.146113440394, 0.126631453633, -0.075045272708, 0.138847485185, 0.066766574979, -0.081203952432, 0.105474248528, -0.013212069869, 0.115065172315, -0.087060943246, -0.058242909610, 0.033268198371, 0.128986403346, 0.085498273373, -0.050949841738, -0.139133408666, 0.084819346666, 0.001367166638, -0.139988645911, 0.127003446221, 0.113100335002, -0.086222551763, 0.037136122584, -0.065073356032, 0.029660001397, -0.105593264103, -0.058259986341, -0.025525286794, -0.067643374205, -0.145759314299, -0.128927931190, 0.045156672597, 0.007083550096, 0.010616645217, -0.071229211986, -0.076186068356, -0.042646676302, -0.061492905021, -0.064894750714, -0.068870678544, -0.075831450522, -0.061261221766, -0.129889726639, -0.021637380123, -0.155669972301, 0.108239188790, 0.081475406885, 0.120289072394, -0.064024582505, 0.061639323831, -0.152863740921, -0.024103865027, 0.077438294888, 0.006605476141, 0.029651597142, -0.120361819863, -0.137586683035, 0.105297848582, -0.008358612657, 0.092596307397, -0.109532594681, -0.079331152141, 0.133355334401, -0.082103937864, -0.045128516853, -0.089139536023, -0.000826328993, 0.022550061345, -0.126832932234, -0.061696283519, -0.106016725302, 0.085352838039, -0.098443180323, 0.087238386273, -0.123129330575, -0.105726979673, -0.047287777066, -0.099752604961, -0.098079562187, 0.054112151265, 0.003542721272, -0.078432187438, 0.017687410116, -0.063654996455, -0.147070765495, -0.050730444491, -0.136857137084, 0.125394597650, -0.087359167635, -0.082921929657, -0.120549097657, 0.024363160133, -0.108326956630, -0.145547196269, 0.050498083234, 0.062780156732, -0.122158095241, -0.058228738606, -0.107843078673, -0.029253810644, -0.030318945646, -0.107516132295, -0.007401302457, -0.006804168224, 0.101340457797, -0.150533333421, -0.005047366023, 0.033255234361, 0.116020664573, -0.064168810844, 0.140826031566, 0.138578042388, -0.042575843632, -0.050609968603, 0.008250162005, -0.092480830848, 0.035415172577, 0.071251347661, -0.089363493025, -0.134758785367, -0.017335250974, -0.096848100424, 0.066550105810, 0.109192028642, 0.090614855289, 0.065999507904, 0.099283233285, -0.010550975800, -0.018164962530, -0.123621359468, -0.096701264381, 0.117941960692, -0.077711224556, -0.017358884215, 0.126385882497, 0.008546769619, -0.060444884002, 0.148067101836, -0.155196115375, 0.092354431748, 0.093182310462, -0.115329459310, -0.048642843962, 0.109690025449, 0.000341311097, -0.072319604456, -0.102512612939, -0.133563637733, 0.041487902403, -0.056730799377, -0.044766731560, -0.040906041861, -0.091662198305, 0.146944150329, 0.006003707647, 0.112019702792, 0.143137589097, 0.000557094812, 0.083584874868, -0.112533830106, 0.019998788834, -0.000161573291, -0.073408529162, 0.045723900199, 0.138401433825, 0.118519708514, -0.138237386942, 0.038618162274, 0.127518340945, -0.130128353834, -0.076942577958, -0.009046748281, -0.099653795362, 0.092375084758, 0.028344556689, 0.151413217187, 0.033559903502, -0.134220212698, -0.085198998451, -0.097040578723, -0.051962770522, -0.156665936112, 0.040384948254, 0.064356088638, 0.097750976682, -0.062526419759, -0.038297727704, -0.131027549505, -0.029610350728, 0.125604942441, -0.053256914020, -0.032754495740, 0.000960946083, -0.017208427191, 0.079120457172, 0.038315713406, -0.126044914126, 0.140255734324, -0.138133376837, -0.142227947712, 0.080331072211, 0.079582259059, -0.103471778333, 0.005808129907, 0.020088240504, 0.053705096245, -0.089101269841, -0.044155359268, -0.091316208243, -0.139081686735, -0.023603707552, -0.124609217048, -0.104348465800, -0.115071572363, -0.047534093261, 0.153574004769, -0.052081555128, 0.065423458815, -0.085483953357, -0.152218133211, 0.075264066458, 0.118658289313, -0.103449121118, -0.075536653399, -0.156931847334, -0.005160197616, 0.069592550397, 0.072370871902, 0.056562364101, -0.045784108341, 0.137364700437, 0.068782463670, 0.036382600665, 0.153143718839, 0.079238295555, 0.152819976211, -0.076770260930, 0.151360914111, 0.116426572204, 0.054701551795, -0.120131865144, -0.023505240679, 0.032578557730, 0.034354969859, 0.138899043202, 0.146258726716, 0.064806118608, -0.075843058527, 0.026400506496, -0.109606817365, -0.107996165752, 0.120415434241, -0.111155197024, -0.075068414211, -0.118062399328, -0.082079470158, -0.117669783533, -0.024815559387, -0.145290240645, 0.148668363690, -0.046777278185, 0.153911843896, 0.003552511334, 0.108508422971, -0.031929671764, 0.118982449174, -0.139559239149, -0.117247007787, 0.095185473561, -0.066850744188, -0.092928223312, 0.025073215365, 0.082409396768, 0.138037696481, -0.060665637255, 0.069920733571, 0.085399091244, -0.138854220510, -0.047400869429, -0.031519383192, -0.074180908501, -0.004467919469, -0.049700930715, 0.018465787172, -0.077116660774, -0.157927587628, -0.120911329985, -0.085355967283, 0.025932982564, 0.108385279775, -0.148905411363, 0.011723101139, 0.091104850173, 0.121014282107, 0.145024165511, 0.109922453761, -0.080530226231, 0.060380950570, 0.017634719610, 0.123737528920, 0.148945078254, -0.036066688597, 0.127298638225, 0.037700757384, 0.046929091215, 0.053635731339, -0.010520488024, -0.132373347878, 0.107417181134, -0.052682936192, 0.025690317154, -0.011271119118, -0.077880486846, -0.000546574593, 0.117440268397, 0.064349755645, 0.046040371060, 0.151230022311, 0.054401710629, 0.154339596629, -0.053113892674, -0.119422666728, 0.014726027846, 0.150672391057, 0.058525413275, -0.099644482136, -0.050189599395, 0.134731546044, -0.135544896126, -0.035525172949, 0.009151965380, 0.128444179893, 0.041376993060, -0.095641635358, 0.091480761766, -0.111611299217, -0.138775140047, -0.036225132644, 0.021502718329, 0.065516233444, -0.127825841308, 0.057802349329, -0.128894269466, -0.002801358700, 0.016290321946, 0.155812695622, 0.132443055511, 0.112461134791, -0.024390339851, -0.105581015348, 0.013144552708, -0.033110275865, 0.130817040801, -0.114368587732, -0.048144452274, 0.010541439056, -0.093272022903, 0.097683027387, 0.073487550020, 0.077877357602, 0.137101992965, 0.065063595772, -0.127847969532, 0.030650496483, -0.004159450531, 0.066876754165, -0.149823755026, -0.110127270222, -0.065295398235, -0.143477797508, 0.010293766856, -0.060857973993, 0.018974065781, 0.069589227438, -0.111410483718, -0.015188008547, -0.091595135629, 0.012878596783, 0.003890812397, 0.138454601169, 0.155049040914, -0.056184567511, -0.028634861112, 0.049483790994, -0.026084065437, 0.141004696488, 0.136734887958, 0.157151475549, 0.126524373889, 0.087342426181, 0.098013177514, 0.151171520352, -0.143842071295, 0.090565815568, 0.032819822431, -0.097679741681, -0.129223242402, -0.110395446420, -0.143762186170, 0.123162552714, -0.095962554216, -0.133066028357, -0.110291369259, -0.044214732945, 0.051831394434, 0.097665950656, 0.101793274283, -0.107075788081, -0.084376215935, 0.104223117232, -0.044501498342, -0.124848589301, 0.110565051436, -0.089449629188, -0.066393934190, -0.147528707981, 0.022508189082, 0.132130607963, 0.156786397099, -0.072061531246, -0.062387727201, 0.066674470901, 0.127664849162, -0.007572814822, -0.136397987604, -0.131389901042, 0.094277933240, -0.087831549346, 0.017988651991, -0.067029625177, -0.097413934767, -0.131089985371, 0.027442231774, -0.022241130471, 0.041305482388, -0.101449131966, -0.019776493311, -0.044820040464, -0.157219171524, -0.154248893261, -0.003076210618, -0.115241773427, 0.109766766429, 0.045214086771, -0.125327304006, 0.010435968637, -0.097307935357, -0.043429046869, 0.052610218525, -0.028312429786, -0.055396579206, 0.100327149034, 0.039575546980, -0.008053198457, 0.029443427920, 0.134526088834, 0.015531510115, 0.080576136708, -0.130555763841, -0.136554121971, -0.039544261992, 0.122250184417, 0.142182901502, -0.009514495730, -0.057541139424, -0.060164153576, 0.075760200620, -0.087900124490, 0.000421613455, -0.079046949744, -0.095839694142, 0.125352308154, -0.056597724557, -0.101790554821, -0.016469568014, 0.006099462509, 0.124186500907, 0.125878259540, -0.011323437095, 0.100467339158, 0.155065342784, -0.136262536049, -0.095445908606, 0.030461743474, -0.045182608068, 0.142141506076, -0.025610625744, -0.004736706614, 0.153772071004, 0.130020663142, 0.074078530073, 0.113473460078, -0.108631446958, 0.126168534160, 0.117706194520, -0.118937276304, 0.059625983238, 0.116872206330, -0.148690685630, 0.009978100657, 0.158014133573, 0.106928244233, -0.087079189718, 0.015972912312, -0.018760278821, -0.084112673998, -0.023357197642, -0.143585756421, -0.002608954906, -0.103933423758, 0.124396547675, -0.040517158806, 0.066325470805, -0.088239662349, 0.054968342185, 0.048427596688, 0.015611916780, 0.125037416816, 0.088065683842, -0.111610583961, 0.144109442830, -0.119552083313, -0.136238902807, 0.087886020541, 0.109911516309, 0.045098170638, -0.044496141374, 0.015247121453, 0.089123249054, 0.021483987570, 0.136779263616, 0.100988492370, 0.085783675313, -0.077831059694, -0.146525472403, -0.150044396520, 0.042753323913, -0.082770384848, -0.108055651188, -0.019813612103, -0.141233265400, 0.102858111262, 0.041449904442, 0.060103684664, 0.024536341429, 0.113914236426, -0.033973887563, 0.136382117867, -0.004728853703, -0.002355366945, 0.093127951026, 0.050168186426, 0.136863395572, -0.005883485079, -0.009509444237, 0.105749979615, -0.054359227419, 0.002614304423, 0.134409323335, 0.073721036315, -0.062596537173, 0.127848163247, 0.109828665853, 0.089393392205, 0.044532939792, 0.132005706429, 0.139416411519, -0.120687901974, 0.011435657740, 0.074460208416, 0.132509425282, -0.126961216331, 0.064070463181, -0.136737108231, -0.073690131307, 0.121507540345, -0.009342625737, -0.001632556319, -0.045155622065, 0.024955004454, -0.003090992570, 0.136823281646, -0.075029246509, 0.019979223609, 0.046230748296, -0.135836288333, -0.132538154721, -0.000688612461, -0.111130282283, -0.015675470233, -0.150639191270, 0.040543362498, -0.124894089997, 0.066225081682, -0.050007075071, -0.095129974186, 0.042531281710, -0.069271288812, 0.126326426864, -0.053761571646, 0.113910272717, 0.035953223705, -0.035847708583, -0.062869235873, -0.082566522062, -0.139806568623, 0.070094719529, 0.049494281411, -0.091825842857, -0.051452159882, 0.149830386043, -0.060962617397, -0.069535285234, 0.089089542627, -0.131316766143, -0.093962974846, -0.147861003876, -0.123511277139, -0.094633460045, -0.149666190147, -0.125865772367, -0.024244785309, 0.136928394437, 0.116481676698, 0.021505698562, 0.144310578704, 0.028382658958, 0.119433835149, 0.039440602064, -0.029390230775, 0.121676966548, 0.046170994639, -0.030779838562, -0.055542990565, -0.074018172920, -0.075253359973, -0.018379881978, -0.090235471725, -0.138969391584, 0.087241053581, 0.040720045567, 0.101441487670, -0.001514226198, 0.084568917751, 0.019684508443, 0.037167757750, -0.005069121718, 0.078169062734, -0.156355306506, 0.008318245411, 0.044252693653, -0.086631193757, -0.006878435612, 0.088568940759, -0.042990095913, -0.134536981583, -0.023150965571, 0.082598567009, -0.007863014936, -0.047840945423, -0.037520147860, 0.099448397756, -0.097150057554, 0.026124298573, 0.097657039762, 0.024099841714, -0.100648283958, 0.098079457879, 0.009081423283, -0.018523693085, -0.127109825611, -0.086130686104, 0.085382401943, 0.004541158676, -0.013784170151, -0.001985773444, -0.084713459015, -0.056015677750, -0.037451237440, 0.096305891871, 0.084126919508, -0.045186303556, 0.037584051490, 0.088685274124, -0.146760016680, 0.016122415662, 0.073116183281, -0.025801002979, 0.103584840894, -0.108587414026, 0.006785094738, 0.067806109786, 0.002143278718, 0.129654720426, 0.133245185018, -0.013264283538, 0.097580596805, -0.126604601741, -0.129078298807, 0.031903594732, -0.114635258913, 0.138524904847, -0.089178018272, 0.107603326440, -0.150935679674, 0.125378206372, 0.068734288216, 0.059802487493, 0.034297451377, 0.105101808906, -0.025127395988, -0.099185854197, 0.139615759254, -0.102278813720, 0.045874014497, 0.102886721492, -0.088143795729, -0.019308328629, 0.042011439800, -0.061275020242, -0.102663472295, -0.142671450973, 0.135203465819, 0.152604058385, 0.065134465694, -0.027005210519, -0.131183430552, -0.110629245639, 0.104824379086, -0.090409100056, -0.135996311903, -0.051414236426, -0.074107401073, 0.142072752118, -0.005636274815, 0.108891412616, -0.010789602995, 0.058728188276, -0.116876259446, -0.053068846464, -0.127193927765, -0.157883211970, 0.120704725385, 0.090147137642, 0.077232807875, 0.073247373104, 0.119944140315, -0.156531915069, -0.051959753036, 0.134546622634, -0.089779026806, 0.080707252026, -0.104112103581, -0.087372437119, -0.155329748988, -0.034627072513, -0.056279256940, 0.056155651808, 0.026191741228, -0.048135556281, 0.062347471714, -0.103927835822, -0.069743640721, -0.150768935680, -0.092706792057, -0.067649476230, 0.156503543258, 0.104953274131, -0.047570057213, -0.014428302646, -0.031494081020, -0.135985881090, 0.036132022738, -0.108192496002, -0.143050163984, -0.095560662448, -0.058101095259, -0.064523696899, 0.133189275861, -0.097135469317, -0.041895180941, 0.109745964408, 0.130474522710, 0.103545084596, 0.100122973323, 0.103922680020, 0.104456320405, -0.078143388033, 0.079907536507, 0.039951279759, 0.134308055043, -0.013527855277, -0.099590316415, 0.103895500302, 0.111362680793, 0.062782078981, 0.139553889632, -0.070110090077, 0.010473355651, -0.152305215597, -0.137259408832, 0.143474712968, -0.129499375820, 0.018546953797, 0.149046257138, 0.010364949703, 0.100608512759, 0.037426128983, 0.106958553195, -0.090955376625, 0.048250153661, 0.096553787589, 0.073863267899, 0.140649154782, 0.075891166925, -0.115745373070, -0.071196042001, -0.007915601134, 0.122615829110, -0.003566011786, -0.147736728191, -0.021988153458, -0.072734236717, 0.139226064086, -0.010850667953, 0.029990449548, 0.019215703011, 0.077081710100, -0.077427513897, -0.093075580895, 0.050512373447, 0.106787368655, -0.049732074142, 0.111882433295, -0.001653179526, -0.056926973164, -0.045943647623, -0.076332598925, -0.057734824717, -0.039730831981, -0.107474774122, -0.083959624171, 0.131758615375, -0.000762835145, -0.107855558395, 0.069920063019, 0.002028271556, -0.108629599214, 0.057231158018, -0.156598910689, 0.081305056810, 0.109799519181, -0.023183599114, 0.070177793503, 0.133024081588, -0.041249386966, -0.012267902493, -0.028621181846, 0.123790279031, -0.116384640336, 0.006071105599, -0.114435464144, 0.095133408904, -0.105716839433, 0.049149721861, -0.026370152831, -0.122020162642, 0.041766524315, 0.095254495740, 0.134950205684, 0.125856474042, -0.044648475945, -0.049847006798, 0.155889257789, 0.101080521941, 0.128124937415, -0.148959517479, 0.154450878501, 0.124073341489, 0.096643820405, 0.044349655509, 0.071469679475, -0.048531107605, -0.077283248305, 0.033733189106, -0.059723548591, -0.058250114322, -0.078123368323, -0.053585976362, -0.141945749521, 0.026443928480, 0.002928555012, 0.144528672099, 0.057239294052, -0.121081233025, -0.017374634743, -0.087256327271, -0.072705626488, -0.036675803363, 0.147519126534, 0.041310191154, -0.141005679965, -0.074500963092, 0.010994568467, 0.121927306056, 0.086857795715, 0.135620221496, 0.053101420403, -0.116028666496, -0.152933597565, 0.072772279382, -0.025113895535, 0.013179048896, -0.033658929169, 0.000329017639, -0.066403694451, 0.106593683362, -0.028151094913, -0.157415017486, -0.010515466332, 0.044995665550, 0.057705014944, 0.033578068018, -0.016899839044, -0.147038459778, 0.154451146722, -0.152274683118, 0.039106786251, -0.064929276705, -0.091985262930, -0.155286476016, -0.147160410881, 0.107851937413, -0.122019827366, -0.035385876894, -0.087239176035, -0.038050509989, 0.113940998912, -0.107362359762, -0.155998691916, -0.008127763867, 0.047966137528, -0.024590387940, -0.066031433642, 0.079249501228, -0.075311265886, 0.095116898417, 0.013179197907, 0.139648839831, 0.012616112828, -0.152761399746, 0.004710316658, 0.117649003863, -0.050003342330, -0.046512231231, -0.085064984858, 0.132931217551, 0.020664453506, -0.070236608386, -0.094659395516, -0.129153430462, -0.112941265106, 0.116639807820, -0.153531104326, 0.020860850811, -0.061205126345, -0.029810979962, 0.127667561173, -0.113787904382, -0.100044488907, -0.097144097090, -0.079945504665, -0.094209782779, -0.019820436835, 0.085978120565, 0.008055046201, 0.098708763719, 0.022916480899, 0.138867333531, -0.105013176799, 0.019313231111, -0.125182807446, 0.143186852336, 0.001445770264, -0.060024939477, 0.076787143946, 0.133380189538, -0.071708492935, 0.065591618419, -0.057757370174, 0.064610704780, -0.092619858682, -0.146850422025, 0.125448212028, 0.053355455399, 0.078487753868, 0.109945192933, 0.154522225261, 0.047078713775, 0.033209353685, 0.141467019916, 0.122471347451, -0.006427466869, -0.084055334330, 0.140909090638, -0.069491177797, 0.081261098385, -0.007927551866, 0.154365822673, 0.099139377475, -0.080967701972, -0.066760309041, 0.132201477885, 0.126998379827, -0.000408634543, 0.052788913250, 0.018762275577, -0.133312314749, 0.130035176873, 0.110236719251, 0.027373626828, -0.071090221405, 0.141079321504, 0.147060438991, 0.094282522798, 0.083375886083, -0.052424259484, -0.144245654345, 0.050733581185, 0.021545812488, -0.015802696347, 0.152208968997, -0.141102343798, -0.024208441377, 0.105619922280, 0.093704447150, 0.064265131950, 0.015971288085, -0.065159462392, -0.137182995677, -0.030511960387, 0.118464395404, 0.012661769986, 0.004212677479, 0.104286655784, 0.122736230493, 0.048642724752, -0.139060959220, 0.067289054394, -0.148171678185, 0.042880967259, 0.126069113612, -0.124176442623, 0.035942211747, -0.077209733427, -0.045859843493, 0.041023507714, 0.113275364041, -0.120792359114, -0.102981261909, 0.121619567275, 0.111762985587, 0.131195053458, -0.035303846002, 0.113849088550, 0.088774919510, 0.035547152162, 0.046610057354, 0.132982447743, 0.067739233375, -0.087697759271, 0.153626158834, 0.059720903635, 0.029113426805, 0.134141758084, -0.016338452697, 0.059416308999, 0.130250975490, -0.033967442811, -0.067961350083, -0.083295017481, 0.148863181472, -0.151235103607, -0.092763297260, -0.007849588990, -0.123628929257, 0.087620407343, -0.154208034277, 0.121650919318, -0.145479604602, -0.017612889409, -0.075519166887, -0.040999419987, 0.075547844172, 0.077222332358, 0.142860844731, -0.061103798449, -0.141615211964, 0.040527001023, 0.154450640082, 0.014456868172, -0.109380900860, -0.126134067774, 0.102189555764, 0.005039483309, 0.043285563588, 0.128037706017, -0.096442669630, -0.083417385817, -0.034410312772, 0.104076638818, -0.129652962089, -0.097797960043, 0.042116686702, -0.069014154375, 0.155370756984, -0.026780307293, -0.083555318415, 0.086661800742, 0.062828183174, -0.086580418050, -0.059294097126, -0.060484617949, -0.097662813962, -0.147932901978, 0.106943741441, 0.005464255810, -0.007848381996, -0.001639753580, 0.007923215628, 0.035007730126, -0.118157170713, 0.024263218045, -0.130060657859, -0.005940973759, 0.111022457480, 0.119678184390, 0.078918442130, 0.056429818273, -0.032153785229, -0.055792249739, -0.051417782903, 0.090961888433, 0.080085620284, 0.107979401946, 0.109356597066, 0.006192043424, 0.146619006991, 0.029187306762, -0.029254376888, -0.133822426200, -0.095435246825, 0.129531785846, 0.010335847735, 0.134098216891, -0.058050692081, 0.134479686618, -0.112259238958, -0.013021737337, 0.035399943590, 0.047731697559, -0.044498667121, 0.110540613532, -0.057649597526, -0.106411829591, 0.084625095129, -0.019609257579, -0.127315342426, 0.144473537803, -0.031022906303, -0.069579839706, -0.113430947065, 0.126230850816, 0.015667513013, 0.109133943915, -0.065144151449, -0.153442129493, -0.049237258732, -0.031066402793, 0.055700570345, 0.049484506249, 0.141514196992, 0.066364035010, 0.005034208298, -0.145699039102, -0.082320019603, 0.131610527635, 0.068770825863, -0.041807763278, 0.023460268974, -0.104170873761, 0.025620847940, 0.142904952168, 0.060129880905, -0.015410497785, 0.136261627078, -0.127814307809, -0.009552910924, -0.112255051732, 0.101238474250, 0.157770678401, -0.052420116961, -0.013495892286, -0.129335403442, -0.016098022461, -0.006282404065, -0.084792919457, -0.062201693654, -0.008697286248, 0.060217037797, -0.000699892640, -0.055088669062, -0.096915878356, 0.134063616395, -0.130877524614, 0.003554672003, 0.089560195804, -0.066749528050, 0.004958704114, 0.138016924262, -0.107278868556, 0.133677408099, -0.089281387627, -0.065724387765, -0.146269202232, 0.078209429979, -0.130542993546, 0.034317165613, -0.093674741685, 0.024045139551, -0.094326645136, 0.006905272603, 0.142716124654, 0.014239728451, -0.018653631210, 0.059346497059, 0.124303892255, 0.037479177117, 0.020608052611, 0.045943722129, 0.061455741525, -0.128919184208, -0.142032980919, 0.052534520626, -0.040545277297, -0.075228139758, -0.013927146792, -0.051939018071, -0.146882802248, -0.032112851739, -0.012370407581, 0.019309416413, 0.010491311550, -0.061916247010, 0.078748494387, -0.048770867288, 0.076804190874, -0.121439203620, -0.114585950971, -0.121085122228, -0.040905550122, -0.040223345160, 0.015457808971, 0.122156277299, 0.005813524127, 0.010592147708, -0.094641789794, -0.047653853893, 0.138824924827, -0.000016361475, 0.142900422215, -0.061489552259, 0.056894779205, 0.056074529886, 0.004238232970, 0.079997032881, 0.022836595774, -0.034381769598, 0.086498081684, 0.135337099433, 0.015339925885, 0.052097469568, 0.099757805467, -0.084049724042, 0.066638395190, 0.138031467795, 0.146073296666, 0.039976760745, 0.031684488058, -0.039662294090, -0.110638111830, 0.143861100078, -0.062520913780, 0.040097773075, -0.151426568627, 0.086658298969, -0.019751608372, -0.068382725120, 0.065338745713, -0.071781516075, -0.059248678386, -0.129256725311, -0.108799234033, -0.043878622353, -0.105592593551, -0.154092296958, -0.045260339975, 0.107885852456, 0.088919147849, 0.018429145217, -0.125427991152, -0.018752783537, 0.104186221957, 0.130750402808, -0.143329918385, -0.090957179666, 0.090070128441, -0.012690976262, -0.090085320175, -0.017286390066, -0.108282521367, -0.106571584940, 0.072191730142, -0.071089886129, -0.076674021780, -0.111581444740, 0.147683128715, 0.135351464152, 0.043265819550, -0.020661503077, 0.018550604582, -0.124125182629, -0.150615438819, -0.157970443368, 0.089352265000, -0.151509925723, -0.151276156306, -0.097938418388, 0.059322148561, 0.134070143104, -0.144044533372, -0.128544360399, -0.064692199230, -0.047328792512, -0.097175195813, -0.045938745141, 0.007105290890, 0.127923741937, -0.143055707216, 0.103362187743, 0.064832016826, 0.018217965961, -0.093787193298, 0.019927799702, 0.153388276696, 0.018552109599, 0.141304031014, -0.150190666318, -0.012489974499, -0.086890101433, 0.113747909665, -0.107340462506, 0.049429893494, 0.087264314294, 0.101718977094, 0.021908223629, 0.066927090287, -0.042823247612, -0.050149872899, 0.146674379706, -0.020821079612, -0.005718678236, -0.093882948160, 0.134438827634, -0.151339754462, -0.038094051182, -0.153513342142, 0.002333804965, 0.051327124238, 0.043514430523, -0.053771600127, -0.110750138760, -0.135161101818, -0.063725717366, -0.108051054180, 0.149697855115, 0.020259574056, 0.090964451432, 0.024941876531, -0.109285831451, -0.060688711703, -0.101389721036, 0.108654662967, -0.147402763367, 0.018449500203, 0.005063384771, -0.083155952394, -0.112735778093, 0.107074156404, 0.003093287349, 0.075385898352, -0.086861826479, 0.024563133717, 0.046259999275, -0.082543522120, 0.100633516908, 0.149009183049, -0.040317624807, 0.024308159947, 0.012441232800, 0.091751947999, -0.072571955621, -0.126969814301, 0.152838453650, -0.045437179506, -0.041183307767, 0.004386305809, 0.114314898849, 0.046700075269, 0.105680808425, 0.016747176647, -0.078258477151, 0.113232746720, 0.055201336741, 0.157187059522, 0.131694063544, 0.135749921203, -0.143490090966, 0.028814747930, 0.060486197472, 0.001768678427, 0.142843171954, -0.020820930600, 0.004392862320, 0.122430130839, 0.086178153753, 0.111669018865, -0.034690096974, 0.107034370303, 0.127337142825, 0.088155061007, 0.095249399543, 0.106145784259, 0.039463400841, 0.157327428460, -0.097281165421, -0.096630245447, 0.088508710265, -0.124807387590, 0.028516530991, 0.148968115449, -0.025178730488, 0.116716846824, 0.063721567392, 0.110434815288, -0.049468450248, 0.021036148071, -0.120750933886, -0.015583574772, -0.001976922154, 0.098959878087, -0.141036629677, -0.151503026485, 0.091210663319, 0.152051135898, -0.151042550802, 0.078098863363, -0.095745831728, -0.071738839149, 0.155685171485, -0.077191606164, -0.005205050111, 0.010190144181, -0.057365052402, -0.059249162674, 0.072574138641, 0.128022238612, 0.057032495737, -0.054027564824, 0.001065671444, 0.053715839982, -0.126816272736, -0.006931558251, -0.006700888276, -0.134736582637, 0.088778167963, 0.079207882285, -0.080689646304, -0.101093798876, -0.057513430715, 0.011139392853, -0.035234220326, 0.065817013383, -0.095670893788, -0.037185586989, 0.102766975760, 0.053311839700, 0.011775016785, -0.054262980819, -0.071416720748, -0.085340403020, 0.114630743861, 0.048675119877, 0.121407732368, 0.016999408603, 0.127796784043, -0.087043412030, 0.062639400363, 0.103977337480, -0.144877165556, 0.143603846431, -0.000507593155, -0.143617346883, 0.009122699499, -0.069263108075, 0.086841806769, 0.042663484812, -0.112853311002, -0.036839447916, 0.084394007921, 0.028991892934, 0.039057210088, 0.075940921903, 0.013630732894, -0.067905478179, -0.107316374779, -0.095968618989, 0.131884947419, -0.054063975811, 0.119843974710, 0.103847309947, 0.094989106059, -0.101602554321, 0.097644463181, -0.120442003012, -0.157193884254, -0.050005301833, 0.135301128030, -0.126521587372, -0.104875177145, -0.033053353429, -0.092241488397, -0.090942628682, -0.062882013619, -0.132238388062, -0.069480396807, 0.105234339833, -0.038827151060, 0.068305298686, 0.007526487112, 0.101349279284, 0.134725615382, 0.075448036194, 0.104398563504, 0.093669399619, 0.094165310264, -0.115476965904, 0.125756070018, -0.011999383569, -0.105048999190, 0.084647223353, -0.134083628654, -0.123353816569, -0.142039299011, 0.128473296762, -0.153576254845, 0.001437962055, 0.053629592061, -0.110031820834, 0.050390899181, 0.027833223343, -0.031680762768, -0.066763177514, -0.044460557401, 0.073439180851, 0.154671147466, -0.036097228527, 0.138962402940, -0.115772515535, -0.015606373549, -0.054065674543, 0.051339402795, -0.056979753077, -0.033880852163, -0.143019288778, -0.026711285114, 0.106465443969, -0.151655957103, -0.080530114472, -0.045161955059, 0.042299479246, -0.059300094843, 0.103565230966, 0.148268505931, 0.035198226571, -0.000868096948, -0.010560184717, 0.087049782276, 0.066780105233, -0.036574058235, 0.123206332326, -0.146602630615, -0.012610003352, 0.133805349469, 0.101456984878, 0.105392113328, -0.011626824737, -0.148548796773, -0.092496134341, 0.074748560786, -0.121596671641, 0.018022805452, -0.009778976440, 0.069403573871, -0.095056310296, 0.017596974969, 0.104903534055, -0.129094168544, 0.026672378182, -0.065966598690, 0.020168080926, -0.058036744595, -0.080071903765, 0.094492629170, 0.023124501109, 0.056414410472, -0.093224562705, 0.141554281116, -0.153312787414, -0.036219857633, -0.075365021825, -0.081255823374, -0.070557035506, 0.111409083009, 0.152233585715, -0.027038529515, 0.060440704226, 0.017562821507, 0.064077094197, 0.009723946452, -0.060289047658, 0.015824824572, 0.137423798442, -0.004810884595, -0.021760866046, -0.069133169949, 0.133943662047, 0.120088919997, -0.023857250810, 0.101300314069, -0.019983515143, 0.045850574970, -0.054631508887, 0.026347503066, -0.011624068022, 0.117184534669, -0.112096309662, -0.029154062271, -0.147008374333, -0.127548620105, -0.128162443638, -0.107950821519, -0.073094137013, -0.006988391280, -0.120765633881, -0.091999515891, -0.132866084576, -0.013857454062, 0.153158560395, -0.041978269815, -0.050719775259, -0.143046006560, -0.093286722898, -0.017429187894, 0.032012656331, -0.115612909198, 0.144926980138, -0.005499094725, -0.144437611103, 0.144638016820, -0.029766902328, -0.041917197406, -0.095033921301, 0.092632248998, -0.009993508458, 0.022738397121, 0.124005839229, 0.149982616305, -0.070069082081, 0.121482297778, 0.018982201815, 0.157175555825, -0.076537027955, -0.063508734107, 0.054754287004, -0.016692623496, -0.110092476010, 0.143097922206, -0.031308725476, 0.056933239102, -0.017321184278, -0.148371770978, -0.052013136446, -0.027365133166, 0.122947528958, 0.117904439569, -0.128347948194, 0.010293543339, -0.098660245538, -0.128296047449, 0.127933368087, -0.104326680303, 0.057700902224, -0.024793878198, -0.033837050200, 0.109770759940, 0.014191552997, 0.154476508498, -0.071341849864, -0.071951642632, -0.016250014305, 0.013023853302, 0.011222451925, -0.070619612932, -0.104583695531, -0.139044627547, 0.081800580025, 0.077296361327, 0.119175627828, -0.096571668983, -0.028802156448, -0.075471475720, -0.111957281828, 0.134433075786, 0.028062909842, -0.002709686756, -0.099334426224, 0.056782290339, -0.088982634246, 0.090401753783, -0.012410551310, -0.033980563283, -0.015933588147, 0.117972865701, 0.152970507741, 0.015744984150, 0.046264410019, 0.104634299874, -0.080551750958, 0.121673956513, 0.020606398582, -0.104280084372, -0.006054416299, -0.014858871698, -0.045521356165, -0.066563643515, -0.074632525444, -0.094943106174, -0.003845050931, 0.067998260260, -0.017388626933, -0.023627221584, 0.046057149768, -0.018066346645, -0.003195822239, 0.070276081562, 0.142585322261, 0.125176891685, -0.097978606820, -0.000379011035, 0.074546426535, 0.106358215213, 0.032658144832, -0.111386924982, -0.103899262846, 0.005477711558, -0.019850641489, 0.101027980447, 0.020676061511, -0.059941627085, -0.048287697136, -0.021933376789, 0.092753335834, 0.129201576114, -0.041218928993, -0.098398551345, -0.081442348659, 0.153591141105, -0.074627056718, -0.078394263983, -0.137075632811, -0.133606836200, 0.076035156846, 0.134670868516, -0.100688099861, -0.065558448434, -0.042451329529, -0.103045418859, 0.155127272010, 0.086476594210, 0.005795508623, -0.113353669643, -0.128371819854, 0.020785108209, -0.153474658728, -0.093970291317, 0.148736938834, 0.027468234301, -0.054519101977, 0.118475481868, 0.111125156283, 0.040255576372, -0.080020487309, -0.114257350564, -0.059862159193, 0.081564828753, -0.057952865958, -0.088283427060, 0.057176649570, -0.118367478251, 0.038464084268, -0.088984444737, 0.090549945831, 0.136767491698, 0.149617627263, 0.096528992057, -0.063860714436, -0.011970728636, 0.041723921895, 0.135586634278, -0.096123337746, 0.034656018019, 0.112484112382, 0.084823042154, 0.150229200721, 0.127029195428, -0.134472072124, -0.058206573129, 0.136318072677, 0.117756083608, 0.151034548879, -0.077131211758, -0.082506999373, -0.073508389294, -0.029831707478, -0.051040619612, 0.100321158767, 0.018311038613, -0.108771681786, -0.092673391104, 0.018279939890, -0.010613024235, 0.080831840634, -0.117697641253, 0.020883128047, 0.153405532241, 0.149448707700, 0.003035694361, -0.031076177955, 0.030874758959, -0.031913280487, -0.088042877614, -0.079111866653, -0.101239383221, 0.082271426916, -0.090440995991, 0.086481571198, 0.128263428807, -0.100748106837, 0.047660574317, 0.069953873754, -0.142551273108, -0.033754982054, -0.134356558323, -0.114395767450, -0.064311459661, 0.036890760064, 0.086773842573, -0.152168571949, -0.019545704126, -0.095691323280, 0.101677194238, 0.068155452609, 0.063189968467, -0.005237013102, -0.022327467799, 0.049740329385, 0.052667602897, 0.154551759362, -0.053624086082, -0.107368431985, 0.122835353017, -0.088288217783, 0.017700463533, 0.033660441637, -0.115175500512, -0.114073202014, -0.101793527603, 0.073328003287, 0.036077544093, 0.032225221395, 0.079192116857, 0.053823426366, 0.132471993566, -0.046431332827, -0.052385546267, 0.063358470798, -0.016047239304, 0.078107163310, -0.074938438833, -0.145222321153, -0.066282309592, -0.102707996964, -0.116418048739, 0.009769216180, -0.085966587067, -0.058229267597, 0.069409191608, 0.116163536906, 0.057280391455, 0.017875298858, 0.139666423202, -0.001674175262, -0.010621696711, -0.022000625730, 0.079587876797, -0.081536971033, 0.049508675933, 0.095519468188, 0.047445580363, -0.071524120867, -0.150683224201, -0.133774295449, 0.151936605573, -0.083251364529, -0.149211630225, -0.107628658414, -0.002687513828, -0.118477821350, -0.004260584712, -0.094823338091, 0.010233417153, -0.087048992515, -0.057563722134, -0.122603267431, 0.028671309352, 0.077515721321, -0.095938540995, -0.035501196980, -0.030999690294, 0.025019198656, 0.107389166951, 0.131803587079, 0.019999623299, 0.045324623585, 0.121362015605, 0.019356533885, 0.015861809254, -0.006644934416, -0.055390998721, -0.041497811675, -0.089699409902, 0.033907949924, 0.059474185109, 0.035590723157, -0.088815301657, -0.118355534971, -0.051943317056, 0.127870276570, -0.104430422187, -0.125800594687, -0.028743848205, -0.041539773345, 0.090003296733, -0.049290254712, 0.003716766834, -0.138439178467, 0.104089424014, -0.130626976490, 0.062326654792, 0.057198435068, 0.140058472753, 0.154480889440, 0.019257172942, 0.076049193740, -0.119656316936, 0.105237051845, -0.065314926207, 0.108663812280, -0.120890185237, 0.124489530921, 0.047116175294, 0.123149409890, 0.031628742814, 0.022620186210, 0.155859276652, -0.134445115924, -0.041691198945, -0.054212018847, 0.049653917551, 0.071644529700, -0.155434697866, 0.089609950781, -0.017662122846, 0.131382331252, 0.116844490170, -0.070999145508, -0.010189384222, -0.123587504029, 0.100802317262, 0.091742485762, 0.014149218798, -0.036489576101, -0.146520003676, -0.120913177729, 0.046875372529, 0.016040533781, 0.117237046361, -0.039162658155, -0.027418375015, 0.151694521308, -0.094076104462, 0.109448537230, 0.107344880700, 0.082580462098, -0.023815706372, 0.009950757027, -0.039934925735, 0.120762422681, -0.052209310234, -0.081775031984, 0.017969384789, -0.103634819388, 0.092311277986, -0.122210986912, -0.019758284092, 0.154443338513, 0.068582862616, -0.048368148506, 0.085589274764, 0.128566220403, -0.081668645144, 0.051021695137, 0.051545202732, -0.043844543397, 0.068989574909, -0.010136201978, -0.144713282585, 0.116590961814, 0.091108053923, -0.019161194563, -0.141488924623, -0.137786075473, 0.011267527938, 0.062770918012, 0.117371514440, -0.045512534678, -0.078173883259, 0.096176847816, -0.146284431219, -0.050204418600, -0.072456486523, -0.117680527270, -0.086466081440, -0.043356478214, 0.006272748113, 0.017079249024, 0.047590643167, 0.135655507445, -0.136777102947, -0.009965732694, 0.094270423055, -0.050477080047, -0.064511477947, -0.005940720439, -0.143647819757, -0.088003754616, -0.112897343934, 0.126179710031, 0.117486193776, -0.099512882531, -0.130121082067, 0.098315879703, 0.100872471929, -0.033027917147, -0.054341018200, -0.036474727094, -0.119415998459, 0.026887595654, -0.134885981679, 0.024556010962, 0.093895688653, 0.068269252777, 0.041116625071, 0.114552453160, 0.049545839429, -0.130407541990, 0.138963028789, 0.021945133805, 0.046787768602, -0.105213165283, -0.077649548650, -0.134604081511, -0.079535655677, 0.058430910110, -0.076123453677, 0.054304033518, -0.119004227221, -0.050113491714, 0.017464399338, 0.094205304980, 0.077284678817, 0.090478241444, -0.002371579409, -0.009771481156, -0.142420917749, -0.095020763576, 0.119129940867, -0.150109052658, -0.054617337883, -0.146389156580, 0.124129965901, 0.109154328704, 0.140003457665, -0.098022073507, -0.099763303995, 0.140181824565, 0.035464286804, -0.128849670291, 0.143773272634, 0.070984750986, 0.010027095675, -0.093954794109, 0.044827923179, -0.110460326076, -0.010397970676, 0.069091141224, 0.025552019477, 0.019387453794, 0.013054266572, -0.032929718494, -0.002389743924, -0.027118191123, 0.064630225301, -0.036266446114, 0.107589945197, 0.098683282733, 0.062117666006, -0.117079749703, -0.016195923090, 0.032616630197, 0.138991340995, 0.073881223798, 0.044871762395, -0.119723007083, -0.108146056533, -0.079861700535, 0.071201130748, 0.117871269584, 0.141490921378, -0.078308083117, -0.095869593322, 0.092321410775, -0.130830094218, 0.073816791177, 0.040352195501, -0.120773702860, 0.027496173978, -0.119639575481, 0.135993525386, -0.128224566579, -0.038774259388, 0.067024648190, -0.038944914937, -0.121319822967, -0.057767622173, 0.024943470955, 0.021475270391, 0.007862746716, 0.002436786890, -0.046673879027, -0.036698989570, -0.046657331288, 0.144192501903, -0.045569688082, 0.091979637742, 0.142352029681, 0.038004368544, -0.001405924559, -0.053746230900, 0.140934929252, 0.042027086020, -0.055873677135, 0.124405339360, 0.118712559342, 0.073062241077, 0.118729099631, 0.148555949330, 0.001376211643, -0.136584579945, 0.148235335946, -0.075297921896, -0.122459754348, 0.056320205331, 0.091473177075, -0.156199872494, -0.147261291742, 0.043607279658, 0.095114395022, 0.117383912206, -0.060246556997, -0.136192351580, -0.109255149961, -0.154302537441, -0.130639910698, -0.098352745175, -0.150165140629, 0.109806761146, -0.061483405530, -0.088136896491, -0.021604582667, 0.015480473638, 0.113832071424, 0.041048049927, -0.065629541874, 0.023677244782, -0.088472329080, 0.024916097522, -0.038685671985, 0.097937628627, -0.124347060919, 0.021081149578, 0.090297549963, -0.072885930538, -0.089738011360, 0.070523440838, -0.138746529818, -0.074809551239, -0.118443295360, 0.084436491132, 0.092153117061, 0.155779287219, -0.056746967137, -0.106716915965, -0.043569922447, -0.134792193770, -0.041781485081, 0.155883774161, -0.111191242933, -0.085341721773, -0.023754641414, 0.110580757260, 0.143190428615, 0.109215006232, 0.026785388589, 0.145834758878, 0.054577529430, -0.035035334527, -0.111720323563, 0.093662843108, -0.127729862928, 0.021379336715, -0.007060706615, -0.058936014771, -0.152385249734, 0.152370467782, 0.157998070121, -0.003041863441, 0.064879819751, 0.058422461152, 0.156841441989, -0.053295671940, -0.039906650782, 0.086939364672, 0.042632997036, 0.121843710542, -0.023608982563, -0.074339352548, 0.141277417541, 0.057301267982, 0.150690540671, -0.064659252763, -0.083132430911, 0.027223616838, 0.132395699620, 0.035093456507, 0.128360256553, 0.039890483022, -0.156907424331, -0.045578546822, -0.092919059098, 0.149446532130, -0.142129927874, -0.032574221492, -0.098740652204, 0.011067852378, 0.004081338644, -0.106607288122, -0.016944810748, -0.011197492480, -0.134353965521, -0.054780036211, -0.048698827624, 0.039050623775, 0.104194685817, 0.126499310136, -0.060236342251, 0.138887777925, 0.098345324397, 0.059743076563, -0.094473809004, 0.096107497811, -0.042342349887, 0.056259691715, 0.118595227599, 0.122754886746, 0.016785323620, 0.028829336166, -0.010434791446, 0.148448929191, -0.071256771684, -0.131788775325, 0.023431882262, 0.032028853893, -0.026823580265, 0.128395929933, -0.115961529315, 0.036134928465, 0.023265451193, 0.118733152747, 0.110890462995, -0.128271847963, -0.154007434845, -0.062962502241, 0.146141365170, -0.007657229900, 0.149169817567, -0.133477315307, -0.113420091569, -0.049906611443, 0.124213829637, -0.025828674436, 0.035725414753, -0.045650884509, 0.065793111920, 0.124166384339, -0.078450426459, -0.060334131122, 0.143646046519, -0.000984132290, -0.077366329730, -0.091572478414, -0.053064398468, -0.132313966751, 0.108305349946, 0.067123413086, -0.091968037188, 0.084978088737, -0.085513316095, 0.034129276872, 0.060257121921, -0.035037443042, -0.101663321257, 0.149356946349, 0.151037380099, -0.106882929802, 0.028808340430, -0.080070920289, 0.087453603745, -0.077044546604, 0.056634366512, 0.080042839050, 0.128318503499, 0.000919029117, 0.028214767575, 0.143001154065, -0.121955208480, -0.076376251876, -0.034027643502, 0.043274000287, 0.073309957981, -0.091091081500, -0.035047881305, -0.001191914082, 0.151413038373, -0.103319972754, -0.004421696067, -0.148122891784, 0.041376352310, 0.019298642874, 0.041451826692, -0.021376743913, 0.068983659148, 0.114759698510, 0.009640485048, 0.117152735591, -0.131059706211, -0.109368875623, -0.137089803815, 0.020773008466, 0.124447599053, 0.118123009801, 0.084033921361, -0.153367832303, 0.054848000407, -0.129575043917, -0.000819653273, -0.038723409176, 0.138425067067, 0.004161447287, -0.021705791354, 0.015136748552, 0.147627189755, 0.052858799696, 0.057182490826, 0.038199037313, 0.120881661773, 0.090149328113, 0.075363665819, 0.145497515798, -0.105411335826, -0.041380122304, 0.031501322985, -0.017756327987, 0.063021719456, 0.076958328485, -0.094696298242, 0.126930847764, 0.086289837956, 0.072256311774, -0.098767384887, -0.029918789864, -0.144942596555, -0.125327274203, 0.103322938085, 0.147693440318, -0.071230344474, 0.057585582137, 0.119124040008, 0.080360963941, 0.101231828332, -0.042389616370, -0.048742704093, 0.094181463122, 0.019644543529, -0.017781928182, 0.133161529899, 0.026319220662, -0.115265220404, -0.031377002597, 0.108631268144, -0.102352276444, -0.003739953041, 0.004429474473, -0.122078597546, -0.119420066476, 0.088973775506, -0.060971893370, -0.124524772167, 0.112064376473, -0.028876841068, 0.140618547797, 0.017865002155, 0.130692675710, -0.121229305863, -0.108615040779, 0.049969896674, 0.155562296510, -0.049022682011, 0.057804599404, -0.066925615072, -0.001464203000, 0.029851168394, -0.001983523369, 0.018510580063, -0.070790417492, -0.049240723252, 0.155498847365, 0.012177541852, -0.012673899531, 0.122592970729, -0.074337884784, 0.016510650516, 0.089776203036, -0.134584218264, 0.065748184919, -0.004895403981, -0.102138429880, 0.150820180774, 0.033898457885, 0.008321747184, 0.017172917724, -0.102272480726, 0.040221720934, 0.089110612869, -0.113493904471, -0.027908623219, -0.092639803886, 0.154219225049, 0.050883531570, 0.118404164910, -0.152613773942, -0.034336268902, 0.116286590695, 0.027815550566, -0.090111970901, 0.027923777699, 0.014747411013, -0.108466215432, -0.076604843140, 0.085557654500, -0.123599149287, -0.124403536320, -0.002358272672, 0.031236991286, -0.000061184168, -0.069116465747, -0.031222477555, -0.110377579927, 0.083888754249, 0.151891365647, 0.007185295224, -0.075687408447, -0.004925072193, 0.152486190200, 0.134311094880, 0.088408097625, -0.100989110768, 0.082365706563, -0.137410536408, -0.040830872953, 0.112364038825, 0.062047585845, 0.110265895724, -0.062904633582, -0.050774060190, -0.082155697048, 0.113816782832, -0.013170495629, 0.045946165919, 0.131584689021, -0.075009420514, -0.131779462099, -0.124294929206, -0.033041477203, 0.084327250719, 0.019641071558, -0.110314697027, 0.148388013244, -0.036189019680, 0.111490771174, 0.014219343662, -0.154488608241, 0.059033647180, 0.013489827514, 0.056629315019, 0.093656793237, 0.125104561448, -0.117812499404, -0.014518126845, -0.055462546647, -0.015650257468, 0.073165535927, 0.062328010798, -0.076383598149, 0.045137718320, 0.065747499466, 0.044975697994, -0.130105480552, -0.151219457388, 0.023474708200, -0.006561473012, -0.005093395710, -0.047921396792, -0.144848093390, -0.116215720773, -0.144556730986, -0.156743019819, 0.045690849423, 0.062777668238, 0.115999743342, -0.035982549191, 0.144563868642, -0.079899020493, 0.021850556135, -0.077782355249, 0.066568136215, 0.006671473384, -0.082472957671, -0.123697653413, 0.060968995094, -0.055845968425, 0.100992426276, -0.039247021079, 0.029940992594, 0.156764671206, 0.156680569053, -0.074522785842, 0.012295573950, 0.155920609832, 0.111743077636, -0.043329976499, 0.116057321429, 0.074104085565, -0.102701470256, -0.009343430400, -0.075885392725, -0.150845617056, -0.107925713062, 0.065115958452, -0.048800870776, -0.025486275554, -0.119239047170, -0.017818868160, 0.061721429229, -0.045871376991, 0.118032380939, -0.139793008566, -0.047205783427, 0.081183329225, 0.031196996570, 0.150285050273, 0.041033834219, 0.042556196451, 0.114657565951, -0.087242759764, -0.156101375818, 0.118033215404, -0.058893755078, -0.134700655937, 0.112024322152, -0.133997946978, 0.075580686331, 0.009613826871, -0.011020272970, 0.059116125107, 0.079040318727, -0.014054492116, 0.151045784354, 0.052165284753, 0.091760322452, 0.152072444558, 0.010481879115, 0.118080183864, -0.056798428297, 0.155709251761, -0.133807241917, 0.086925461888, -0.051002092659, 0.048937037587, 0.067014053464, 0.013037875295, 0.149356350303, 0.074152827263, 0.029800906777, 0.107643857598, -0.135371565819, 0.010793745518, -0.023258551955, 0.053398996592, 0.044106915593, -0.050717361271, -0.010649219155, -0.053433001041, -0.088667452335, 0.037653252482, -0.006230652332, 0.128114446998, -0.026084065437, -0.010762318969, 0.020444139838, 0.011855036020, -0.144120693207, -0.088593110442, -0.027696505189, -0.130224257708, -0.065996378660, -0.037778183818, 0.124423161149, -0.011264398694, 0.023683816195, -0.087998740375, -0.081300422549, -0.026201650500, 0.104818299413, -0.105144105852, -0.052311882377, -0.085384428501, -0.056534059346, -0.051824681461, 0.115027979016, -0.112549513578, -0.053815513849, -0.155634418130, 0.038452133536, 0.038802415133, -0.141508147120, 0.023084416986, 0.151632085443, -0.150739580393, -0.074767634273, 0.109412446618, -0.136779591441, 0.129083022475, -0.126583427191, -0.154623031616, 0.123828843236, -0.154991984367, 0.042226433754, 0.056746333838, -0.034307055175, 0.157839611173, -0.123857080936, 0.139006331563, -0.042525894940, -0.140502050519, 0.120367363095, -0.064588271081, 0.135671898723, -0.021271556616, 0.144674524665, -0.144900336862, -0.106563217938, -0.103686161339, -0.047744818032, -0.100040227175, 0.131947889924, 0.086965456605, 0.033598467708, -0.134115457535, -0.016301512718, -0.032338172197, -0.120168998837, 0.040822207928, -0.027395904064, -0.041942380369, 0.004590466619, 0.125940307975, 0.147502020001, 0.005942255259, -0.033803343773, 0.135604217649, -0.101029820740, 0.050196692348, -0.054498367012, 0.022991269827, -0.134886249900, -0.040697574615, 0.088825434446, 0.103014007211, 0.110146567225, 0.133216634393, -0.051500827074, 0.124016031623, 0.087414577603, -0.060242787004, -0.086884893477, -0.088930353522, -0.114126920700, 0.020486325026, -0.044031068683, 0.084812566638, -0.034522533417, -0.117601856589, 0.085761219263, -0.060651242733, -0.079314112663, -0.092348173261, 0.026529312134, -0.003962844610, -0.018002450466, -0.091497235000, 0.087554708123, -0.124732628465, 0.005555152893, 0.026007890701, 0.101777896285, -0.030803844333, -0.106630809605, 0.007548958063, -0.009694680572, -0.122669160366, -0.071390971541, 0.002073317766, 0.123050734401, -0.060103803873, -0.129390582442, -0.014271929860, -0.130833178759, -0.010636180639, -0.071978144348, -0.100157022476, -0.148951739073, 0.141664221883, 0.150070384145, -0.057302363217, 0.155242070556, -0.011029317975, -0.140362307429, 0.023492529988, 0.142483726144, -0.020760118961, -0.129629731178, -0.109473638237, 0.029186785221, 0.052929222584, 0.134174481034, -0.140911221504, -0.096014954150, -0.058534465730, -0.022462904453, 0.094798699021, 0.110661283135, -0.104504942894, -0.150648608804, -0.102186448872, 0.156612053514, -0.048620112240, -0.053458184004, 0.113249555230, -0.157459989190, 0.058028414845, -0.096664063632, -0.018689259887, -0.049290597439, 0.025812119246, -0.040775157511, -0.111354470253, -0.099343962967, -0.113274127245, 0.078176856041, 0.092853769660, 0.129608556628, -0.027016595006, 0.152917489409, 0.044667020440, 0.081921026111, -0.141815379262, -0.108128823340, -0.043063499033, -0.008631542325, 0.007569834590, -0.026645615697, -0.131815880537, 0.098857626319, -0.106666430831, 0.003841310740, -0.001796394587, 0.021367505193, 0.107887521386, 0.058103993535, 0.126790329814, 0.100013688207, 0.011643260717, -0.005389660597, -0.038407318294, 0.113986656070, -0.069469235837, -0.056112527847, 0.025833755732, -0.042679399252, 0.081947982311, 0.105905696750, -0.033243656158, 0.135941728950, -0.129038870335, -0.000464692712, 0.006899923086, 0.039687931538, 0.142700031400, -0.025892421603, 0.062281161547, 0.088193446398, 0.105301186442, 0.153718933463, 0.025636792183, 0.100600108504, -0.140050053596, -0.013095244765, 0.139416530728, 0.064504504204, -0.150383606553, -0.072140730917, 0.106610730290, -0.115487523377, -0.069280982018, -0.046156443655, 0.137980893254, 0.049817189574, -0.010663732886, -0.015155702829, 0.099225178361, -0.141072407365, 0.005316078663, 0.154139503837, -0.092807933688, -0.119356438518, 0.008823692799, 0.155189111829, 0.152691766620, -0.155824258924, 0.134261712432, -0.043451666832, -0.028402984142, 0.071635469794, -0.117804780602, 0.134957090020, -0.144963562489, -0.122679635882, 0.057792246342, -0.056476980448, 0.010934546590, -0.086702249944, 0.086186334491, -0.148573413491, 0.108360245824, -0.010495483875, -0.097016908228, -0.155801758170, -0.019961237907, -0.133465588093, 0.114566877484, -0.107556015253, 0.099001064897, 0.072673276067, 0.037341162562, 0.043397799134, -0.066429629922, 0.005860224366, -0.096211314201, 0.052739366889, -0.119983643293, 0.130803540349, -0.011013269424, 0.115562275052, 0.155789241195, 0.154039785266, -0.103640474379, 0.126523807645, 0.045767262578, -0.072808012366, -0.082174316049, -0.048307456076, 0.053019091487, -0.051223039627, 0.103055104613, -0.144278481603, -0.100571572781, -0.066019788384, -0.115824915469, -0.152912631631, 0.103536918759, -0.049620226026, -0.082452110946, 0.054714113474, 0.037673607469, 0.050154089928, 0.059847310185, 0.078946113586, 0.071291372180, -0.010018661618, -0.076866425574, 0.085805132985, -0.008150041103, -0.014841869473, 0.021757662296, -0.069293305278, -0.101455688477, 0.086941599846, 0.130188629031, -0.094178982079, -0.095219202340, 0.094534829259, 0.097986564040, -0.098485365510, -0.143882408738, 0.125491455197, 0.062623292208, -0.047883957624, -0.095918074250, -0.150537744164, -0.047395855188, -0.107339143753, 0.112083032727, 0.076382622123, -0.041983731091, 0.006432890892, -0.157616883516, -0.012469321489, 0.028911069036, -0.101521015167, -0.035909719765, 0.125829324126, -0.066452473402, 0.004063501954, -0.135694548488, -0.015612065792, 0.106730297208, -0.158080175519, 0.054613754153, -0.152091026306, 0.085808455944, -0.093838199973, -0.013375103474, 0.061628058553, 0.062492489815, -0.017216354609, 0.130795851350, -0.016944363713, -0.010955438018, -0.152688443661, -0.001816481352, -0.069725766778, 0.148361489177, 0.070342153311, -0.020923495293, -0.078632429242, 0.136945769191, 0.018645912409, 0.028002828360, -0.089375138283, -0.113230019808, 0.148443654180, 0.013175055385, -0.117738425732, -0.051001600921, 0.073913976550, -0.017769932747, -0.129945933819, 0.133433207870, -0.070524573326, -0.020417153835, 0.054697066545, 0.046246543527, -0.067332141101, -0.148080408573, 0.061392366886, -0.060209505260, -0.085910193622, 0.128911003470, 0.052665904164, -0.009781584144, -0.143890246749, -0.116052001715, -0.137773588300, -0.048118397593, -0.136894047260, -0.015568599105, -0.087680235505, -0.066446974874, 0.095723524690, -0.011894509196, 0.022275030613, 0.074237346649, -0.124030105770, -0.042007371783, -0.041621044278, 0.117511376739, 0.117125198245, 0.120223119855, -0.136351019144, -0.089503236115, 0.082216799259, 0.014093428850, -0.080966912210, 0.088187709451, 0.089833810925, -0.059967823327, -0.046954646707, 0.006618246436, 0.152044519782, 0.091930314898, 0.145968630910, 0.154706165195, -0.095837250352, 0.055290609598, 0.157264336944, -0.029825195670, 0.008010789752, 0.045460209250, -0.035618051887, -0.118309736252, 0.031286522746, 0.024844214320, -0.106811121106, 0.024799987674, -0.120723754168, 0.106982901692, -0.063291706145, -0.048393063247, 0.144949361682, 0.058680728078, -0.016983568668, -0.116820499301, -0.090190082788, -0.107758298516, -0.073575831950, 0.038040488958, 0.117708489299, -0.058496199548, -0.093872465193, 0.039772152901, 0.060747638345, 0.059763059020, 0.007550686598, -0.050467431545, -0.018201336265, 0.114135012031, -0.094533599913, 0.072001248598, 0.007631510496, -0.068103767931, -0.134107917547, 0.020563378930, 0.013624772429, -0.101036235690, -0.078926093876, 0.015824154019, 0.026644438505, -0.035041362047, 0.074044853449, 0.127195194364, 0.068497925997, 0.033363536000, -0.044570028782, 0.157239690423, 0.062553703785, -0.053104318678, 0.082854643464, 0.143864378333, -0.089072093368, 0.069921836257, -0.137726321816, -0.047926820815, -0.137817025185, -0.144972950220, 0.104437813163, -0.005730584264, 0.025600120425, 0.070410236716, -0.019415646791, -0.012363359332, 0.040225148201, 0.133121833205, 0.065292447805, -0.136992394924, 0.100648477674, 0.128910139203, -0.067366257310, 0.123606666923, 0.129667058587, 0.138583704829, -0.112479209900, 0.067380815744, -0.129170089960, 0.083605498075, -0.133885875344, -0.114783942699, 0.008393004537, 0.097684070468, -0.050690069795, 0.154931589961, -0.033355310559, 0.118905112147, 0.033695876598, 0.036789536476, -0.021739915013, -0.152752503753, -0.138315647840, -0.087167702615, 0.092883631587, -0.084850035608, 0.057778701186, -0.105992108583, 0.017076864839, 0.090297669172, -0.099005445838, -0.151094719768, -0.067920863628, 0.097058102489, -0.133563831449, 0.131160572171, -0.031623467803, -0.071756899357, -0.148271203041, 0.002598091960, -0.064085125923, -0.029789865017, 0.047328680754, -0.105024226010, 0.044501349330, 0.087918817997, -0.025614812970, 0.065132662654, 0.031313925982, 0.045452669263, 0.031174078584, 0.020434007049, -0.074214912951, -0.071092672646, 0.013525485992, 0.049128606915, -0.000136166811, 0.080674037337, -0.126388370991, -0.009309276938, -0.002090469003, 0.075426995754, 0.092743799090, -0.018123164773, -0.039850331843, -0.069146849215, 0.042276948690, 0.128803297877, 0.005855590105, 0.015177980065, 0.143866494298, 0.081165954471, 0.018917560577, -0.073600254953, 0.081984028220, 0.082595467567, -0.135463804007, 0.022220700979, 0.027294725180, -0.081225782633, -0.112765252590, -0.119329556823, -0.094464048743, -0.027130618691, -0.012399196625, 0.147863224149, 0.021387591958, 0.085396751761, -0.085607223213, 0.140610530972, -0.058087296784, -0.048606693745, -0.063392698765, 0.034516051412, -0.108588881791, 0.109909877181, -0.083021529019, 0.014746919274, 0.106203243136, 0.096241936088, 0.032149523497, -0.085710741580, 0.011726155877, -0.075780183077, -0.110223442316, -0.074292570353, -0.115023016930, 0.120483621955, 0.053145214915, 0.133162900805, 0.007182806730, 0.053701937199, -0.043153218925, -0.151592135429, 0.141553774476, 0.081380069256, -0.026073589921, -0.084685295820, -0.073845177889, 0.040940761566, -0.096891224384, 0.151035979390, 0.060067906976, -0.025185704231, -0.125792458653, 0.049914330244, -0.013010352850, 0.067374140024, 0.012349560857, 0.077746361494, -0.106059320271, 0.097707405686, -0.058384768665, -0.009542807937, 0.088828831911, -0.131248414516, 0.059898570180, 0.005499318242, 0.128628417850, -0.028755068779, -0.039617210627, -0.019985437393, 0.093647912145, -0.156341701746, 0.071659907699, 0.009978815913, -0.016551449895, 0.060261934996, -0.150021851063, 0.003111198545, -0.070956513286, -0.038424052298, -0.057945214212, 0.077256888151, 0.038851201534, -0.021657168865, -0.147004872561, -0.100565582514, 0.001836612821, -0.118265323341, 0.010626524687, 0.052205309272, -0.096934393048, 0.140504792333, -0.109388820827, 0.134661898017, -0.123103275895, -0.122616268694, -0.149445652962, -0.123682610691, -0.011657431722, 0.127670332789, 0.136272087693, 0.024400770664, -0.100207149982, 0.092431649566, 0.088817328215, -0.045034237206, 0.149741873145, -0.110159501433, -0.113914117217, -0.037858709693, 0.050761312246, 0.053850606084, -0.064034231007, -0.080032922328, 0.017860934138, 0.101685151458, 0.060688823462, -0.110463529825, 0.092450514436, 0.138856336474, 0.104616597295, 0.119483903050, 0.109558299184, -0.095114290714, -0.137096822262, 0.087032973766, 0.054560750723, -0.072246477008, 0.128587141633, -0.124249354005, -0.036554381251, -0.025635242462, 0.120174780488, -0.007743433118, 0.079302117229, -0.113430760801, -0.155457243323, -0.007839754224, -0.076001197100, 0.124965265393, -0.117736995220, 0.040615290403, 0.012283742428, -0.068739794195, 0.067229196429, 0.057009413838, -0.020380511880, 0.054812982678, -0.045070081949, -0.068734101951, -0.147868633270, -0.064789272845, -0.153692334890, -0.077945284545, 0.071793615818, -0.031003713608, -0.065637648106, 0.122616752982, 0.032206937671, -0.116264805198, -0.104968249798, 0.058851376176, -0.032174825668, 0.084631919861, 0.063442721963, -0.035479292274, 0.121453717351, 0.014722824097, -0.113188937306, -0.130907520652, -0.156729072332, 0.099545612931, -0.156493231654, -0.120889246464, -0.144285574555, -0.149890288711, -0.019467249513, -0.144594088197, -0.093728840351, -0.101542390883, 0.083276554942, -0.028604432940, -0.042874403298, 0.110876247287, 0.030617997050, -0.049989692867, 0.101163521409, -0.046747274697, -0.045711956918, -0.131142452359, -0.134516507387, -0.001768872142, 0.080699756742, -0.112154975533, -0.107013434172, 0.102587714791, 0.074996605515, -0.037116900086, -0.062731303275, -0.110500097275, 0.106913194060, -0.153706729412, 0.095537021756, 0.052793502808, -0.097074627876, -0.031878292561, -0.058963686228, -0.034565173090, -0.027286425233, 0.105408743024, 0.017902135849, 0.096046641469, 0.117221519351, -0.105044171214, 0.049755781889, 0.093622013927, -0.044687911868, 0.120467647910, -0.057348050177, -0.049821414053, -0.061685808003, -0.142346724868, -0.021327316761, -0.073857352138, -0.019700869918, -0.061447486281, 0.144686535001, 0.088013514876, 0.138809934258, 0.113364562392, 0.053910776973, 0.115859434009, 0.123400911689, 0.046416401863, -0.109975613654, -0.003238230944, -0.043200299144, 0.089156836271, 0.072586759925, -0.118065677583, 0.014678224921, -0.139792278409, 0.103788837790, 0.023153558373, 0.152422800660, -0.140721976757, -0.097642943263, -0.013774961233, 0.042140409350, -0.015685319901, 0.127100035548, -0.066809847951, 0.134395435452, 0.032099351287, 0.043161392212, 0.103460118175, -0.023111298680, -0.027461946011, -0.138909757137, -0.014824271202, 0.064131677151, 0.145320400596, -0.140441089869, -0.021030411124, -0.127547711134, -0.018578618765, 0.015301823616, -0.042171694338, -0.153945848346, 0.047672212124, -0.117251567543, -0.018719375134, -0.107494682074, -0.148150935769, 0.139243558049, 0.021029621363, -0.152933940291, 0.074173972011, -0.088621385396, 0.118294164538, -0.094354197383, -0.041491217911, -0.100171118975, 0.057029843330, -0.023325353861, -0.137259215117, -0.021606683731, 0.151805385947, -0.035851024091, 0.068196013570, 0.143347188830, 0.032709300518, 0.019804954529, 0.034114047885, -0.012397244573, 0.097555682063, -0.089099124074, 0.156069889665, -0.013519674540, -0.064309157431, 0.068957388401, -0.129464015365, 0.019628748298, 0.098178848624, 0.152134224772, 0.060258403420, 0.087460458279, 0.094314530492, 0.152573212981, 0.028276175261, 0.154092982411, 0.091665178537, -0.060220547020, -0.127711430192, 0.049697503448, -0.022431880236, 0.049932286143, 0.086692973971, 0.002769395709, 0.146472468972, 0.064194038510, 0.144218221307, 0.128930464387, -0.066205970943, 0.014138966799, -0.129406794906, 0.012753263116, -0.009458705783, 0.140074327588, -0.156989976764, -0.008692473173, -0.107687391341, 0.033262878656, 0.105546936393, 0.132343068719, -0.020863756537, -0.103449121118, 0.056320801377, 0.074124068022, 0.041189268231, -0.093048363924, -0.123419106007, 0.113577023149, 0.041026413441, -0.152238339186, -0.031233370304, 0.097560957074, -0.130053490400, 0.128080442548, -0.002901792526, 0.013136178255, -0.103616312146, 0.059908792377, 0.009504586458, 0.133600249887, 0.065484553576, 0.076551273465, 0.136374935508, -0.056779392064, 0.100683018565, -0.107983313501, 0.043177530169, -0.000770419836, 0.051983311772, 0.104497209191, -0.065898887813, 0.099561676383, 0.015984252095, -0.125503212214, -0.016088977456, 0.048716962337, 0.003564283252, -0.128759309649, -0.147542804480, 0.137954279780, -0.052949644625, -0.115651093423, 0.048231378198, -0.106607735157, -0.059541434050, 0.062530979514, 0.032178372145, -0.079530797899, 0.090918958187, 0.116785511374, -0.148313909769, 0.070788189769, -0.011073961854, 0.045729219913, 0.042755469680, 0.152631655335, 0.071944147348, 0.025550350547, -0.093806684017, -0.013150513172, 0.041949838400, -0.080385357141, -0.149046361446, 0.144761309028, -0.113570429385, 0.057006061077, -0.128551974893, -0.147297739983, 0.120712921023, -0.003382354975, 0.131825193763, 0.099122002721, 0.084294036031, -0.104267604649, -0.052442543209, 0.028512641788, -0.134622097015, -0.121252000332, 0.048277929425, -0.140183433890, 0.134003654122, 0.073301360011, 0.008719682693, 0.083075553179, 0.038118898869, -0.123914107680, 0.138314589858, 0.111167475581, -0.111623510718, -0.115926206112, 0.144106104970, -0.031908825040, 0.078895941377, -0.132147163153, -0.101113095880, 0.113836809993, -0.036549217999, -0.137725338340, -0.031865283847, -0.026685044169, -0.065047532320, -0.089447252452, 0.013003975153, 0.018244698644, -0.132584452629, -0.094813197851, -0.143190279603, 0.091419771314, 0.045680448413, 0.000714331865, -0.092420592904, -0.021497324109, -0.069688037038, -0.001267537475, -0.058348804712, -0.098611354828, 0.041710957885, 0.139184460044, -0.099484987557, -0.120642475784, -0.083398044109, 0.124463394284, -0.078209616244, -0.132401734591, 0.148462519050, -0.039828091860, 0.013615399599, 0.022798717022, 0.118768051267, -0.044443368912, 0.049988329411, 0.079429760575, 0.151434406638, 0.060104519129, 0.044930487871, -0.099176548421, -0.011458277702, -0.139731258154, -0.094390347600, 0.072068169713, 0.059759885073, -0.063244923949, -0.103681787848, 0.102477446198, -0.151146441698, -0.144280180335, -0.049861259758, -0.036428958178, 0.107544973493, -0.002775192261, -0.044454865158, -0.033338911831, -0.058810070157, 0.154822215438, 0.127340689301, -0.120079770684, 0.140029773116, 0.119537845254, -0.109773784876, 0.096181169152, -0.092667020857, -0.099459394813, 0.009695366025, 0.147427842021, 0.119421258569, 0.141105875373, 0.131790325046, -0.037145473063, -0.034901201725, -0.073296949267, 0.013508036733, 0.030009075999, -0.098160564899, 0.094326570630, -0.137534067035, -0.039184711874, 0.078898504376, 0.014955952764, -0.090308301151, 0.008275792003, 0.144782736897, 0.121912494302, 0.120841190219, 0.007035702467, -0.120861724019, 0.083697214723, -0.154166266322, 0.144120529294, -0.147082418203, 0.018811240792, 0.085692122579, -0.129358321428, 0.030996099114, 0.111269310117, 0.101345703006, -0.066307231784, 0.016462177038, 0.090896755457, 0.092942699790, 0.137783274055, 0.061576828361, 0.103940084577, -0.087091177702, -0.038431100547, -0.119436576962, -0.102869257331, 0.106829330325, 0.132975742221, -0.058204345405, -0.042569361627, -0.124317392707, -0.079164944589, -0.112146258354, 0.122421756387, 0.118563458323, -0.056384019554, 0.127606496215, 0.030098035932, -0.109382562339, -0.035574100912, 0.144213840365, -0.063234336674, -0.017159849405, 0.081294357777, 0.063119173050, -0.073562897742, 0.006220430136, -0.044358208776, -0.101231008768, 0.028081238270, 0.060610935092, 0.022044688463, -0.045720398426, -0.081526413560, 0.051480993629, 0.113094046712, 0.033396214247, -0.110647454858, 0.130644276738, 0.074946761131, 0.143736913800, 0.117844685912, -0.090776346624, 0.004515230656, 0.020325511694, -0.073845438659, 0.144821003079, -0.041650868952, -0.144488573074, -0.044981040061, -0.020503103733, 0.119943574071, -0.110194899142, 0.031869545579, -0.038152292371, -0.013634994626, 0.101849034429, -0.020033061504, 0.061598688364, 0.065596640110, -0.033029764891, 0.043649956584, -0.039022572339, -0.150941595435, 0.116583183408, -0.105951204896, 0.020672068000, 0.035094663501, -0.099968224764, -0.058395355940, 0.066407471895, -0.144981697202, -0.121232852340, -0.139420062304, -0.037870131433, 0.085523307323, 0.149942800403, 0.029701799154, -0.125890135765, -0.086553610861, 0.130475744605, -0.033226579428, 0.036501303315, 0.050349056721, 0.106601700187, -0.028991207480, -0.124283954501, 0.112133398652, 0.129462912679, 0.025005817413, -0.084559462965, -0.051526613533, 0.127587720752, 0.130535706878, 0.112729921937, 0.010297730565, 0.038893610239, 0.152388140559, -0.076602056623, -0.065632447600, -0.127912402153, -0.056626752019, 0.046976357698, 0.134594574571, 0.101246342063, -0.078431352973, -0.154384985566, 0.132037773728, -0.114781111479, -0.115907169878, -0.030848965049, -0.013614222407, -0.037805818021, 0.102494165301, 0.040118992329, -0.031264439225, -0.062648482621, 0.061537057161, -0.124308727682, 0.137140020728, -0.143903255463, -0.105588063598, -0.086383298039, -0.027244925499, -0.092502884567, -0.101168960333, 0.079044088721, 0.022734180093, 0.037213146687, 0.066388621926, -0.128155395389, -0.089877568185, -0.093875102699, 0.068324178457, 0.150598809123, 0.073921024799, -0.148426249623, -0.146315038204, 0.077075719833, -0.129691213369, 0.054462105036, -0.080514281988, -0.067227117717, 0.137494638562, -0.033104896545, 0.135191515088, -0.075998067856, 0.077427059412, -0.029778257012, 0.017020210624, 0.127740338445, -0.027697145939, 0.093376591802, 0.020969420671, -0.000668868423, 0.052194312215, -0.124670468271, -0.144411101937, 0.010721787810, 0.008020669222, -0.082608513534, 0.052685320377, -0.153790608048, 0.020028561354, -0.039489381015, 0.063376188278, -0.100194752216, -0.067356720567, -0.127889290452, -0.077794797719, -0.144773647189, 0.042312756181, -0.077288180590, 0.030567750335, 0.014794111252, -0.071685351431, -0.067539438605, 0.080571010709, 0.116930976510, 0.109093651175, -0.116933822632, 0.066417753696, 0.050392523408, -0.097933590412, 0.046127915382, -0.105122804642, -0.020975902677, 0.147109016776, 0.042136222124, -0.129057794809, -0.132735878229, -0.112590715289, -0.091554082930, -0.093944244087, 0.074882790446, -0.014869019389, 0.117322996259, 