//Numpy array shape [84, 10]
//Min -0.188625112176
//Max 0.188741102815
//Number of zeros 0

#ifndef W17_H_
#define W17_H_

#ifndef __SYNTHESIS__
model_default_t w17[840];
#else
model_default_t w17[840] = {0.135526403785, 0.095061257482, 0.186024621129, 0.183544680476, 0.114104375243, 0.056075617671, 0.180733725429, -0.033394441009, -0.042355090380, 0.188135042787, -0.131119385362, -0.004457518458, -0.002144128084, -0.050581663847, -0.109753504395, 0.141735002398, 0.069444313645, 0.144207403064, -0.137101680040, -0.101472318172, 0.157411649823, 0.154803618789, -0.148379951715, -0.026996865869, -0.151965707541, 0.178893283010, 0.030246227980, -0.159700125456, 0.025531291962, -0.025879085064, 0.135275647044, -0.165412172675, 0.140413835645, -0.013726443052, 0.102358415723, -0.088616915047, -0.174756020308, -0.093595474958, -0.023869872093, 0.135412231088, -0.185553312302, -0.086993560195, -0.105483822525, 0.169077411294, -0.091773778200, 0.099702790380, -0.007429480553, -0.085804015398, -0.074006639421, -0.146329224110, -0.034763008356, 0.165023550391, 0.030958533287, 0.165488258004, 0.006014645100, -0.167085453868, 0.188741102815, 0.069845154881, -0.015665560961, -0.014850527048, -0.176584020257, 0.042363777757, -0.163484543562, 0.042134255171, -0.105019286275, -0.137177556753, -0.152824223042, -0.164378792048, -0.044369757175, 0.159155830741, -0.163310140371, -0.065018877387, 0.128430709243, 0.066781237721, 0.186330989003, 0.094487056136, 0.011290177703, -0.093146078289, 0.064211770892, -0.107865124941, -0.051669731736, 0.045733809471, -0.148613348603, -0.008680477738, -0.099067002535, 0.102780058980, -0.104385428131, -0.151827573776, -0.005732357502, 0.086520478129, 0.146009370685, 0.061171635985, -0.134141713381, 0.182544603944, -0.059455424547, 0.159886851907, -0.094364374876, -0.058046862483, -0.049749866128, -0.085971720517, 0.056929633021, -0.063081473112, -0.152389645576, -0.056684210896, -0.058475807309, 0.153193607926, 0.148627534509, 0.033470273018, 0.097296312451, 0.042743474245, 0.091078117490, 0.153489634395, -0.167340695858, -0.134912446141, 0.027019530535, -0.014160797000, 0.113839700818, 0.050713226199, 0.102218493819, 0.012713968754, 0.080879256129, -0.148626595736, -0.168767020106, 0.120046243072, -0.141010493040, -0.014683037996, -0.138091444969, -0.014949783683, 0.017437860370, -0.068458922207, 0.081584855914, -0.119330249727, -0.130171656609, -0.161686867476, 0.122216448188, 0.154818400741, 0.086082652211, -0.017348423600, 0.015729084611, 0.041460841894, 0.099652513862, -0.147508502007, -0.164779081941, -0.172452390194, 0.090689942241, -0.153876751661, -0.057267203927, -0.019600823522, 0.160873129964, 0.019363462925, 0.096218988299, 0.098187729716, -0.183967500925, 0.103371635079, -0.027464419603, -0.034702181816, -0.066659532487, 0.146150454879, -0.065035052598, -0.120646856725, 0.133207097650, 0.188179269433, -0.074614234269, 0.137136176229, 0.106404200196, -0.035107776523, -0.162248283625, 0.056902647018, 0.108914330602, 0.108288154006, -0.155680060387, 0.181550189853, 0.010619685054, -0.023631513119, 0.001534685493, 0.032787889242, 0.174446716905, -0.182459399104, 0.085548594594, -0.037011519074, -0.099986881018, -0.049478933215, -0.102924190462, 0.072756454349, -0.046710774302, 0.114939287305, -0.103310324252, -0.060803800821, -0.187055960298, -0.044047743082, -0.084973305464, -0.171396628022, -0.039093732834, 0.129664048553, 0.118618592620, 0.025002017617, -0.138915985823, 0.181762859225, 0.157777413726, -0.171846747398, -0.159242168069, -0.153022438288, -0.023937821388, -0.115550205112, -0.133266702294, 0.124020323157, -0.015708759427, -0.079063326120, 0.068079546094, 0.115172490478, 0.000003963709, 0.074166670442, 0.180896505713, -0.062064275146, 0.131239131093, -0.026031062007, -0.082694277167, -0.005523696542, 0.106188341975, 0.099473997951, 0.029133692384, 0.072540953755, 0.064524009824, -0.084404416382, 0.075468376279, 0.111218377948, 0.103074267507, -0.158550769091, -0.169319733977, 0.111967906356, 0.024273768067, 0.034118965268, -0.135858371854, -0.154353231192, -0.126114636660, 0.000455081463, -0.142867192626, 0.100195899606, -0.000044152141, -0.078446723521, -0.038374587893, -0.000491842628, -0.157614946365, -0.093414120376, -0.045987844467, -0.133719116449, -0.065903067589, -0.039174973965, -0.050167992711, 0.148048415780, -0.171612307429, 0.075166955590, 0.033626392484, 0.102896645665, -0.097073689103, -0.063927099109, -0.038096129894, 0.033408090472, -0.115515649319, 0.087404266000, 0.087542071939, 0.133548572659, 0.034998834133, 0.018961057067, 0.122140124440, 0.052267819643, 0.184622034431, 0.071295484900, 0.029842704535, -0.084530346096, -0.004538670182, -0.139508664608, 0.074828103185, 0.106617823243, 0.152166202664, 0.047486573458, -0.005474686623, 0.185432597995, -0.036281868815, -0.018472194672, 0.124698832631, -0.172983840108, 0.159314051270, -0.131058424711, 0.054909199476, 0.085436120629, -0.031110644341, -0.013562977314, 0.052668824792, -0.133326411247, 0.155011877418, 0.098523840308, -0.079112395644, 0.000737398863, 0.028766065836, -0.018303632736, 0.061696067452, -0.139992073178, -0.186974048615, -0.059863284230, 0.149387285113, 0.040977016091, 0.001998588443, 0.180951699615, -0.011924892664, 0.003885164857, -0.022994637489, 0.151181355119, 0.101951673627, 0.007672056556, -0.128370687366, -0.118904821575, -0.163821667433, 0.035968229175, 0.145839497447, 0.021590799093, -0.054385498166, 0.174392446876, -0.137920320034, 0.153960868716, 0.102897003293, -0.144028365612, -0.161819785833, 0.036132052541, -0.107975378633, -0.150637298822, -0.178057566285, 0.008641496301, 0.015327081084, -0.021862313151, -0.165711700916, -0.124363057315, 0.046747773886, -0.101432621479, 0.072586640716, 0.059507116675, -0.020390585065, 0.113346710801, -0.076557308435, 0.050396069884, -0.055452719331, 0.101072892547, 0.170050516725, -0.156061694026, 0.149592921138, 0.028361856937, -0.073317445815, -0.149516284466, 0.057255208492, -0.016090348363, 0.039376065135, -0.134150624275, 0.184233322740, 0.064971640706, 0.163266435266, -0.085222601891, -0.135810345411, -0.020291954279, -0.160290956497, -0.033926069736, -0.042303308845, -0.093071512878, -0.179607197642, 0.048487916589, 0.020892068744, 0.039025738835, -0.046965569258, 0.016922995448, -0.132900923491, 0.014906570315, -0.097669698298, 0.031347915530, 0.108438298106, 0.082577481866, -0.119525574148, 0.095250591636, -0.036778569221, -0.039047464728, 0.102467074990, 0.182801410556, 0.185583278537, -0.188625112176, -0.005020320415, 0.114031746984, 0.050356149673, -0.108794778585, -0.023974493146, 0.043939054012, 0.078356072307, 0.003275766969, 0.049182012677, -0.074875876307, 0.134217724204, 0.019369855523, -0.161247387528, -0.076068170369, 0.023603677750, 0.055552691221, -0.095778435469, 0.167668089271, 0.111162170768, -0.043764784932, -0.044517681003, 0.080031827092, -0.183313131332, 0.168765768409, -0.075091339648, 0.135747656226, 0.097867533565, -0.093023747206, -0.026799559593, -0.164102554321, 0.000620350242, -0.084955908358, -0.093346312642, 0.185008302331, 0.066440418363, -0.060939282179, -0.141558378935, 0.101610854268, -0.183792307973, -0.151892095804, -0.056771084666, -0.123943127692, -0.122130580246, 0.076998189092, -0.117550373077, 0.014255583286, -0.168429225683, -0.017975434661, -0.083881981671, 0.147256508470, -0.026500284672, 0.117023602128, 0.128810748458, 0.115302696824, 0.051686763763, -0.123952813447, 0.062764272094, 0.163712933660, 0.051339790225, 0.163742676377, 0.024941280484, 0.079983040690, -0.084916755557, -0.178605318069, -0.023637056351, 0.129235431552, 0.077670291066, -0.007601633668, -0.184763014317, -0.060998857021, 0.142410621047, -0.176839947701, -0.185918182135, 0.109618052840, -0.036143541336, 0.187377676368, 0.073773249984, 0.069831892848, 0.084004536271, 0.148874983191, 0.064418569207, -0.159866392612, -0.132474824786, 0.063673749566, -0.037189722061, 0.069336190820, 0.015569046140, -0.149378240108, -0.007837012410, 0.104628428817, 0.108080193400, -0.117045015097, -0.108296096325, -0.105641521513, 0.124542161822, 0.174700096250, -0.105733886361, -0.081897944212, -0.007557436824, -0.062522277236, 0.184824600816, 0.180984690785, 0.106164947152, -0.179080173373, -0.050626397133, -0.170145347714, 0.068179473281, 0.075429365039, -0.132172763348, 0.136489883065, -0.144091665745, -0.036275789142, -0.092701457441, -0.113299570978, 0.178790107369, -0.180143207312, 0.031573161483, -0.153041630983, -0.001960605383, -0.054505705833, 0.155066207051, 0.007618665695, 0.165247753263, 0.034506350756, -0.121781297028, 0.042742669582, 0.135546848178, -0.023167833686, -0.179032370448, -0.134419351816, 0.148968920112, 0.065226718783, -0.122433945537, -0.058029115200, 0.121931776404, -0.165029406548, 0.169838920236, -0.142758116126, -0.025462582707, -0.117472693324, -0.032826319337, -0.005903795362, 0.160828366876, -0.186039477587, 0.060723915696, 0.158611431718, 0.039603367448, 0.122314646840, 0.170026257634, 0.051375240088, -0.131007194519, -0.101877741516, 0.005440354347, -0.117735013366, 0.046759888530, 0.138617262244, 0.036030039191, -0.069460533559, 0.169659361243, -0.127434179187, 0.166948512197, 0.146433308721, -0.047781690955, -0.080901831388, -0.086713440716, 0.084817185998, -0.149936303496, -0.106426365674, -0.083992592990, -0.015177369118, -0.091962121427, -0.114255227149, -0.071638092399, -0.033621132374, 0.029683873057, 0.010382324457, 0.057853981853, -0.084923923016, 0.008097484708, 0.037429779768, 0.181575700641, -0.059802815318, -0.036834627390, -0.144822359085, 0.120891198516, -0.043157950044, 0.153825834394, 0.032255992293, 0.103268012404, -0.038397744298, -0.111431919038, -0.146460443735, 0.077710434794, 0.078394398093, 0.168414130807, 0.067778155208, -0.123766638339, 0.050161227584, 0.115433588624, -0.002404689789, 0.084954962134, 0.133267566562, 0.187114998698, -0.153221905231, 0.024242669344, -0.182196483016, 0.102243736386, 0.030854448676, 0.136919274926, -0.131318539381, 0.103398725390, 0.014041036367, 0.043992131948, 0.075663253665, -0.144380256534, -0.012011662126, -0.039594769478, -0.170066460967, 0.067270264030, -0.063391059637, -0.177959337831, 0.030888468027, 0.161016598344, 0.075989142060, -0.154312089086, -0.008546471596, -0.086798690259, -0.007474884391, -0.016139909625, 0.072588071227, 0.026723951101, 0.149494394660, -0.040899977088, 0.112520590425, -0.121146000922, 0.099399521947, -0.074096389115, 0.142508223653, -0.030701041222, 0.017855003476, -0.057866588235, 0.001841381192, -0.038992226124, 0.154894128442, -0.180531993508, 0.000799447298, -0.062589138746, -0.160065367818, -0.109144061804, 0.132630035281, 0.150554880500, 0.099867299199, 0.078032925725, 0.158265873790, -0.079273656011, -0.073594503105, -0.149614334106, 0.174441829324, -0.156247735023, 0.181220814586, -0.071723967791, 0.181745782495, 0.142464533448, 0.113165691495, -0.187264174223, 0.075966879725, -0.069106616080, -0.024009957910, -0.159162700176, 0.089384689927, -0.159591719508, -0.019998759031, -0.036239787936, 0.145278051496, -0.046838194132, -0.132762372494, -0.058412089944, 0.000136747956, -0.008645147085, -0.102909997106, -0.002371340990, -0.022438779473, 0.174273863435, -0.050307437778, -0.042987048626, -0.009533539414, 0.148254290223, 0.008482947946, 0.165757611394, -0.042394101620, -0.037397876382, 0.091477528214, -0.012427628040, 0.123854860663, 0.165509983897, -0.049130022526, -0.086672171950, 0.165869578719, 0.119782611728, 0.151593014598, 0.003604367375, -0.029269799590, -0.110310047865, -0.117247000337, -0.022863969207, 0.137629196048, -0.005446791649, 0.111142978072, 0.017546549439, 0.083570465446, 0.180498257279, 0.081332877278, -0.062150776386, 0.124514177442, -0.105990529060, -0.049749419093, -0.042111918330, -0.049626275897, -0.147512376308, 0.064111754298, 0.150150284171, -0.017514601350, 0.165607407689, -0.159101054072, 0.099335804582, -0.097413413227, -0.061562746763, -0.105210103095, 0.097515210509, 0.062166228890, 0.076198831201, -0.121910385787, -0.085694439709, -0.003881603479, -0.051362320781, 0.119538769126, 0.006844267249, 0.114592388272, 0.159537240863, 0.042356699705, 0.012271419168, 0.121353611350, -0.120731838048, -0.080570660532, -0.064894475043, -0.123378299177, -0.111677519977, 0.088242724538, -0.133130818605, 0.027668699622, 0.026938691735, 0.134500995278, -0.145281702280, -0.088288269937, 0.148588523269, 0.159906402230, 0.051200374961, 0.045527443290, 0.139762297273, 0.106927320361, 0.110759720206, 0.026319429278, -0.145761281252, 0.084860518575, -0.127302110195, -0.042521297932, 0.095641359687, 0.169788673520, 0.147235587239, 0.150122210383, 0.177138552070, 0.089648142457, 0.172968849540, -0.145917862654, 0.139026686549, -0.133151128888, -0.031901940703, -0.179442211986, -0.179163709283, -0.152509778738, 0.086346313357, 0.053868964314, 0.140412583947, -0.094085246325, -0.074387729168, 0.135150179267, 0.035022035241, 0.171143040061, 0.099718347192, 0.113257125020, -0.011236056685, 0.102028325200, -0.027484789491, -0.097202911973, 0.033046290278, 0.129658624530, -0.010537534952, 0.144982382655, 0.181027337909, -0.187772318721, 0.130958274007, 0.132112696767, -0.003832355142, 0.061860606074, -0.027992084622, 0.150565251708, 0.159438118339, 0.080272421241, 0.054674044251, 0.159543290734, -0.099117107689, 0.102282300591, 0.043514221907, 0.117200955749, 0.039180919528, -0.050765767694, -0.028479412198, -0.135516703129, -0.038568094373, 0.031997904181, -0.009989693761, 0.102606132627, -0.093550190330, 0.124157056212, 0.051706463099, -0.047820255160, 0.061720475554, -0.145137116313, 0.133250877261, -0.077174454927, -0.080494515598, -0.061222478747, -0.064186714590, 0.012921541929, -0.106621913612, -0.004869922996, 0.107780471444, -0.040095388889, 0.156915441155, 0.064383521676, -0.140714332461, -0.078543864191, -0.182932764292, 0.046756878495, -0.173442572355, 0.053861171007, -0.008596584201, -0.027602285147, -0.061415404081, 0.145404532552, -0.161135509610, -0.164306476712, 0.087467387319, -0.019104257226, -0.044415533543, -0.118597850204, -0.146561592817, 0.182196483016};
#endif

#endif
