//Numpy array shape [84, 10]
//Min -0.188487052917
//Max 0.188142552972
//Number of zeros 0

#ifndef W17_H_
#define W17_H_

#ifndef __SYNTHESIS__
model_default_t w17[840];
#else
model_default_t w17[840] = {-0.1159431040, -0.1612584740, 0.0235080570, -0.1667949706, 0.0459404439, -0.1536030322, 0.0464875698, 0.1508506089, -0.1539642513, -0.1183338165, 0.1858013421, 0.1832363456, -0.1477701515, -0.1798610985, -0.0179326385, 0.0547642410, -0.1264593750, 0.1303170472, -0.0213266313, 0.0571992099, -0.0403445512, 0.0015788376, 0.1188071817, -0.1248079091, 0.1798020750, 0.1545853764, -0.1584974676, -0.1092695445, 0.1282270104, -0.0714879110, -0.1107842699, -0.0835089982, 0.0540443212, 0.1852610856, -0.0659678653, 0.0577959865, -0.0467860252, -0.0472665131, 0.1089961082, -0.0221025646, 0.1657554954, 0.1487950236, 0.0952552408, 0.1694687456, -0.0761457160, -0.1280056834, 0.0272843242, -0.1260818839, -0.1308508515, -0.1749009192, -0.1212755367, -0.1854038686, -0.1053774431, -0.0294911712, 0.1794902831, -0.0910717919, -0.0809435919, 0.1638195366, 0.1790928394, 0.0278926790, 0.0944589823, 0.0972156078, 0.1609494239, -0.0732763559, -0.1711292565, 0.1087221950, 0.1637379080, -0.1347473264, 0.0337553918, -0.1291557550, -0.0716525987, -0.1539579928, 0.1145500690, 0.0615227371, 0.0145295411, 0.1074211746, 0.0289256126, -0.0302086473, -0.0113987178, -0.0380389094, -0.0094030052, -0.0036608279, -0.1678563207, -0.1830281466, 0.1866130084, -0.0753774047, -0.0659679547, -0.1419215798, -0.0922321901, 0.1517046839, -0.1709223986, 0.1228562742, 0.1856342703, 0.1196234375, 0.1650971323, 0.0285815150, -0.1421924233, 0.0172301084, -0.0750981420, 0.1125022322, -0.0794076547, -0.0714997649, 0.0329050422, -0.1152248010, 0.0305224359, -0.1668576002, -0.1122852042, 0.0714311749, 0.0068923086, 0.0280201882, -0.1401102990, -0.1762341559, -0.0951683670, -0.0244045556, -0.0268613845, -0.1339828819, -0.0376426280, -0.0319718122, -0.1804443151, 0.1298156232, -0.1790089458, -0.0206611454, -0.0062969625, -0.0844775885, 0.0350043774, -0.1031465456, -0.0809855014, -0.1758840233, -0.1673432142, 0.1583339721, -0.1134640276, 0.1480662972, 0.1547373980, -0.0411472023, 0.0216054469, 0.0146515071, 0.0515245199, -0.0943151265, -0.0031380802, 0.1637021750, -0.1737640500, -0.1502577364, 0.0791113228, -0.0160582662, 0.1313980967, -0.0317586958, 0.0289870650, -0.1278348714, -0.0019965172, -0.0479067266, -0.0288092792, -0.0291673392, 0.1215362400, 0.0285505205, 0.1524056941, -0.1777614057, 0.0005907863, 0.0126986951, -0.0472351015, -0.1385237575, -0.1197757274, -0.0360457748, 0.1142878979, -0.1005155370, -0.0616098195, 0.1202478856, 0.1633698195, 0.0442932993, 0.1699043959, 0.0996763855, -0.0710070655, -0.1774632633, -0.0840227827, -0.1799852252, -0.1191698462, -0.0045058280, -0.1469491273, -0.0189629048, -0.0418226868, 0.1142157465, -0.0394746512, 0.0256040692, -0.1214316115, 0.0998650044, -0.0124854445, 0.1087885648, -0.0718862191, -0.0516127348, -0.0112844110, 0.1497464329, 0.0617750138, -0.0386511832, -0.1485381424, -0.0940733477, 0.0404101610, 0.1665148884, -0.1500072777, -0.1136570498, -0.1827249080, -0.1536853909, 0.1142500788, -0.1599612385, -0.0044846386, -0.0230912417, -0.0370872170, 0.0355939865, -0.1096727625, -0.0499267131, -0.1850594431, 0.1818123311, -0.0417120755, 0.0311916620, -0.1096169800, -0.0741259530, -0.1451867670, 0.1312714964, -0.0652789846, 0.1666946560, 0.1226135939, 0.1790564805, -0.0470390618, 0.1402498037, 0.0051450878, 0.0894698054, 0.0508875102, -0.1104253903, 0.0870303661, -0.1589156389, 0.0099827945, 0.0322966278, -0.1055683494, -0.1031804681, -0.1712052226, 0.0637358874, 0.1390766054, 0.0828685015, 0.1496253163, 0.0048909187, -0.1666798443, 0.1287128180, 0.1629415303, 0.1373714358, 0.1741726547, 0.0970785171, -0.0168930888, 0.1535077244, 0.0808469802, 0.0316965729, 0.1392463893, 0.1129638106, -0.0435732901, 0.0584939122, 0.1060385555, -0.1208319068, 0.0630263537, -0.1334120929, 0.1157659441, 0.0750278085, -0.0828454047, 0.0664977878, -0.1207553968, -0.0925324038, -0.0042391270, 0.1235605627, -0.1366417706, 0.0123723447, 0.0453893095, 0.0516043603, 0.1599532515, -0.1187120229, -0.0517844111, -0.1015334129, 0.1499452144, 0.1401990205, 0.1854095906, 0.1430837065, -0.0107059628, -0.1235050410, -0.1224871129, -0.0566929430, 0.1084428877, -0.1565842181, 0.1221431643, 0.1175222546, 0.1106890291, 0.0262778848, 0.0888457745, 0.1256812364, 0.0802126378, 0.0408940762, 0.0625175387, -0.1458277106, -0.1067985818, -0.1152950451, -0.1648624837, -0.0898833275, -0.1215727329, 0.0968060941, 0.0351322442, 0.1573045999, 0.0026919246, -0.0593033582, -0.1490502208, 0.0449144542, -0.1566723585, -0.0482561886, -0.1572534442, -0.0268969685, -0.0403888524, 0.0289710313, -0.0523827225, 0.1719984859, 0.0649901778, -0.0221990198, 0.0250035524, -0.1681072414, -0.0615762174, 0.0483647734, 0.1571549624, 0.0491732657, -0.0102469772, 0.0842392892, -0.1492981166, 0.1125989407, 0.1644640416, -0.0336252749, 0.1474526376, 0.1606233567, -0.0775468946, -0.1707750261, 0.1030181795, 0.0538043529, -0.1232183874, -0.1689296216, 0.1422227472, -0.0050480366, 0.0766839236, 0.1122719496, 0.1323968917, -0.1742711216, 0.0049504936, 0.1637852639, -0.1568930447, 0.1290816814, -0.1785922945, 0.1480736881, -0.1570497453, 0.1309639961, -0.0762118101, -0.0807180852, -0.1881987005, 0.0484115779, -0.0923324451, 0.1113858372, -0.0423662663, -0.0439284742, 0.0582270920, -0.1660859883, 0.1579113752, 0.0759463459, -0.1266994774, 0.1594545692, -0.1758056581, 0.0404080451, 0.1332821995, 0.0473425239, -0.0649669692, 0.1611203104, -0.0223104507, 0.1163452417, -0.0880571306, 0.0269056708, 0.0160077661, 0.1709483415, -0.0583017468, 0.0544115454, 0.0965373367, -0.0118128359, 0.0576248169, 0.1791664213, -0.0240092278, 0.1378228515, -0.1537126154, -0.0653976649, -0.0152863115, -0.1687431335, 0.0146445185, 0.0706719011, -0.1692219526, -0.1562590450, -0.0180506408, -0.1214704514, -0.1467365026, 0.0485082269, -0.1812862009, 0.1298942715, -0.0564489663, 0.0306858569, 0.0479833186, 0.1248926073, -0.1627483219, 0.1113290042, 0.1297385842, -0.0443903953, -0.1626131088, 0.1360486001, 0.0147282779, -0.1034396812, -0.0519181788, 0.1862656623, -0.0350920111, -0.0838692263, -0.1023713872, 0.0281127840, -0.0208823681, -0.1387637854, -0.1559266150, 0.0770715922, -0.1827870011, 0.0026180297, 0.0250533372, -0.0968172252, 0.1044271439, -0.1577039361, 0.1651035398, -0.1472265422, -0.1504273415, -0.1146918684, 0.1094108373, -0.0799347758, -0.1195190400, -0.0422822684, -0.1056367904, -0.0572351217, 0.1054928452, 0.1446290463, -0.1663601249, -0.0549248308, -0.0785171911, 0.0761042088, -0.0010990202, -0.0621833950, 0.1180573553, -0.0067481697, 0.1686779410, -0.0904831737, -0.0522455126, -0.0059353858, 0.0430482924, -0.1884870529, -0.0965294018, 0.0965814739, -0.1394300759, 0.1700530201, -0.0900237709, -0.1140946448, -0.0256558806, -0.0006811321, -0.0591415614, -0.1045499742, -0.1075477004, 0.0889378935, -0.0493277758, -0.1610505283, 0.1601878852, -0.0910753980, -0.0128324181, 0.0297875106, 0.0564273447, 0.0731825978, 0.1628203541, 0.1331547052, -0.0534426421, -0.1311433911, 0.0304516405, -0.0641150773, 0.0569174290, -0.1226782501, -0.0297611952, 0.1089043170, -0.0140344948, 0.1222175807, 0.0285822302, 0.0578671247, 0.0997539014, -0.0730426461, 0.1001512855, -0.0934290811, 0.1806153208, 0.1001038402, 0.0869030505, -0.0603737831, -0.1793724597, -0.1571315676, -0.0454627424, 0.0344105214, -0.0964892954, -0.1445654333, -0.0511956066, 0.0896538943, 0.0591379106, 0.1297128946, -0.1019217148, -0.1880221665, -0.1539780498, -0.0167606175, -0.0342898071, 0.0882365853, -0.0357033312, 0.1856104583, -0.0493845493, 0.1644391268, 0.1295724362, -0.0143325478, 0.1477552503, -0.0207260698, 0.1052823812, -0.1489765495, 0.1167957932, 0.0054130852, 0.1881425530, -0.0659672767, 0.1400004178, -0.1653244048, 0.0956299752, 0.1523096412, -0.1076627299, 0.0389743745, 0.0609658211, 0.1641535610, 0.0029936731, -0.1535023749, -0.1875173450, 0.0060642064, -0.1631616652, 0.0393499285, -0.1654848009, 0.0349558443, 0.1540620178, 0.0090216100, 0.1534186155, -0.0170518607, 0.0780937821, -0.0076110512, 0.0891834944, -0.1574134976, 0.0776607841, 0.1359020025, -0.1830494553, 0.1217906326, 0.1639160961, 0.0277159214, -0.1658381373, -0.0717497841, -0.0161710083, -0.1631691456, -0.1874964386, -0.1666519493, 0.1283181459, -0.0238108933, -0.1316055059, -0.1512047946, -0.0711262897, 0.0647051483, 0.0337355733, -0.0757740363, -0.0813413113, 0.0635590702, 0.1275834888, -0.0165749341, 0.1175151914, 0.0253707618, 0.1011636406, -0.0119776428, -0.1382230520, 0.0351694524, 0.0710436553, 0.0333200097, -0.0851386189, 0.0174771547, 0.1022212952, -0.0768039972, 0.0378894061, -0.0246026814, 0.1190090925, 0.1150460094, 0.1265813857, 0.0014245659, -0.0906894431, 0.0209855139, -0.0948891491, -0.0636537373, -0.0730213374, 0.0465556979, -0.1664350927, -0.0633350462, 0.1046606749, -0.1760685295, -0.0381171703, 0.0946380049, -0.0834242031, -0.1620634049, -0.0534840375, 0.0754055232, -0.1763827503, 0.0975563675, -0.1734864563, 0.1453010291, -0.1298963130, -0.0719210878, 0.0395864248, -0.0802562088, -0.0781421363, 0.0418132693, -0.1259810925, -0.0976016596, 0.1043475717, 0.1311797053, -0.0402094275, 0.1798355132, -0.1324354112, 0.1366826445, 0.0042390823, 0.0921511203, -0.0723074079, 0.0750218183, 0.0743972510, -0.1715392321, -0.1784934849, -0.0211748332, -0.1253634542, -0.0942982286, 0.0622422546, 0.1326560527, -0.1506914496, 0.0542866439, -0.1494041830, -0.0217834264, 0.0736590177, -0.1221505851, 0.0740872473, -0.1810826361, 0.1244787127, 0.0539379865, -0.1738142371, 0.0005762279, 0.1699588150, -0.1679667234, 0.1052732319, -0.1035905331, 0.1560979337, -0.1701334119, 0.0657896549, 0.0611317307, 0.1093569547, 0.1460934430, 0.1670378298, -0.1648029089, -0.1007314026, 0.0665143579, 0.0772236139, 0.1017050892, -0.0677247196, 0.1235492378, -0.1050908789, 0.0849451274, 0.0378672332, -0.0817518234, 0.1487557143, 0.1324324757, 0.0274209827, 0.1325530559, -0.0930463672, -0.0863113105, -0.0989597216, 0.0162181705, 0.1864722818, 0.1816998571, -0.0719733089, 0.0057277679, 0.0097938329, -0.0945474803, -0.0999638587, 0.0127820522, -0.0159627050, 0.1013093144, 0.1813741177, -0.0278696120, -0.0105270445, -0.0051022470, 0.0933976322, 0.1686652452, -0.0605590940, -0.0151006281, 0.0807366818, 0.0996784121, 0.1683924943, -0.0747406185, 0.1440330297, 0.1053189188, -0.0857647732, -0.0846750289, 0.1357536763, 0.0851857513, 0.0702539831, 0.0890823454, 0.0752869695, 0.0211376250, 0.0502661318, 0.1731716543, -0.1749648154, 0.0968905240, 0.0282266885, 0.0544539392, -0.0104890168, 0.1333125681, 0.0251325518, 0.1472339779, 0.0818608254, -0.0433338135, -0.0769642144, 0.0188799500, 0.0362605602, 0.1333061308, -0.1362937987, -0.0556717813, -0.0274762213, 0.0002122670, -0.1400200129, 0.0620191246, -0.0692399368, -0.1345170289, -0.0121806711, 0.1102145761, -0.1531192660, 0.0881646425, 0.0808511823, 0.1009862572, 0.1179890782, 0.0532744825, -0.0821318328, 0.1134107560, -0.1300390065, -0.1536830962, 0.0451902449, -0.0438344330, -0.0951571912, 0.0787180513, 0.1316870600, 0.0053398758, -0.0774368644, -0.1761480570, -0.0396100879, 0.1550492197, 0.0181541294, 0.0316972882, 0.0487886667, -0.1708588302, -0.0046134144, 0.1789762229, 0.1066940874, 0.1640071124, -0.1751488298, -0.0280375034, 0.0141109079, 0.0643735379, 0.0991526693, 0.1761130840, -0.1404776573, -0.0551214069, 0.1606332511, 0.0317853242, 0.0730317086, 0.0435590446, -0.1429876387, -0.1437250823, -0.0655279681, -0.1878001690, 0.1538882405, 0.0828316957, -0.0804390013, -0.0752668381, -0.0728046149, -0.0112200230, -0.0788861662, 0.0761184245, 0.0732714385, -0.1037109718, -0.0088708848, -0.0120564103, 0.1152682751, 0.0929699987, 0.1722951084, -0.0372737050, -0.1032959521, 0.1770724505, -0.1743258685, 0.1484030336, -0.0495650023, 0.0237996280, -0.1400795728, -0.0033951253, 0.0533032268, -0.1483881921, -0.1818747818, -0.0971213579, 0.0624683946, -0.1743066609, -0.0922740474, -0.0849905163, 0.1166599542, 0.1619334966, -0.1043440178, -0.1492398083, -0.1021299213, 0.0370643735, -0.1391282380, 0.1583219320, 0.0016718358, -0.1421674639, 0.1773027331, -0.0372551382, 0.1112477630, 0.0521704555, -0.1595238149, -0.1433151513, 0.1748648733, -0.1441590190, -0.1261006743, -0.0022589266, -0.0971001834, -0.1061553061, -0.0528393686, -0.1737105697, 0.0605263859, -0.1506999731, -0.1778680980, 0.0969422609, 0.0194646567, 0.1628022045};
#endif

#endif
