//Numpy array shape [4, 4, 1, 8]
//Min -0.200464680791
//Max 0.203703999519
//Number of zeros 0

#ifndef W3_H_
#define W3_H_

#ifndef __SYNTHESIS__
model_default_t w3[128];
#else
model_default_t w3[128] = {0.0692690015, 0.1678345799, -0.0274070054, 0.0107738525, 0.0883197784, -0.1209157184, 0.1727648079, -0.0538309515, -0.1024980843, -0.0208037794, -0.1276368797, 0.1485739052, 0.1265161633, -0.0642207712, -0.1115282923, 0.0233578235, 0.1542240977, 0.0205238461, -0.1738427728, -0.0166796446, 0.0166962892, -0.1248298064, 0.1977156401, 0.0940996706, 0.0942828953, -0.0473950356, -0.1817857623, 0.1531914771, -0.1473307908, 0.0443667769, -0.1517399251, -0.0705143809, -0.1036412716, -0.0273979604, -0.0152090192, 0.0580664277, 0.0985561907, 0.1245419383, -0.0851322934, -0.0949597582, -0.1084419787, -0.0201323181, 0.0330495089, 0.0396507531, 0.1074540913, -0.0855555981, -0.0959459990, -0.0343699008, 0.0610099137, 0.1266074777, 0.1687377989, -0.1265915632, -0.0860595927, -0.1062367782, -0.1909449399, 0.1600342393, 0.0660273731, -0.0434497446, -0.1589873731, -0.0231105983, 0.2037039995, 0.0540405214, 0.1488416493, 0.1027725637, -0.0851523429, -0.1249352247, 0.1331124306, -0.0391269922, -0.0672026873, -0.0629805326, 0.1614394486, 0.1669938266, 0.1038163304, -0.1526399255, -0.1524728090, 0.0361487716, 0.1935786903, -0.0788883120, -0.1046080887, -0.1144785360, -0.1139623746, -0.0934297219, 0.1930023432, -0.0378439873, 0.1465085149, -0.0586680621, 0.1784616113, -0.1831984222, 0.0332270414, -0.0284539312, -0.1564818919, 0.1734510660, -0.2001981437, -0.0483854562, -0.0660003722, 0.2027331889, 0.2011039853, -0.0320927650, 0.1844275594, -0.0500251949, 0.0786553025, 0.0422485024, -0.0460473448, -0.1277175099, -0.0948983431, 0.0203451812, -0.0249718130, -0.1939448118, -0.1736559421, -0.0555212498, 0.0276640207, -0.1106070280, -0.2004646808, -0.1021037325, -0.1357299387, 0.1562291086, 0.0083434731, 0.0765256286, 0.0691477060, -0.0149906427, -0.1878684461, 0.1939565539, -0.1495480239, 0.0164392292, -0.0493850261, 0.1534563601, 0.1549175978, -0.0016618818};
#endif

#endif
