//Numpy array shape [2, 2, 8, 16]
//Min -0.249121904373
//Max 0.249570906162
//Number of zeros 0

#ifndef W7_H_
#define W7_H_

#ifndef __SYNTHESIS__
model_default_t w7[512];
#else
model_default_t w7[512] = {0.2062711120, 0.0786967278, -0.0367625952, -0.1172171235, -0.0576430559, -0.1919775009, 0.2212558389, 0.2214972973, 0.2351205349, 0.0849211216, -0.0252798796, 0.1369253397, 0.0072176456, 0.0250067711, -0.2244468927, 0.1490698457, 0.2241400480, 0.1885102391, 0.2292526364, 0.0004792213, 0.2072006464, -0.2290676832, -0.0556336045, -0.1867077947, -0.0348520279, -0.1275417209, -0.1196771264, -0.2082149982, -0.1863918900, -0.2088745236, -0.2208533883, -0.1858772039, -0.1466374397, -0.0381171703, 0.0786334872, 0.2007316947, -0.1819471121, -0.1921755075, 0.1540480852, -0.2267223597, -0.0824804902, -0.0475134850, -0.0761643648, 0.0982960463, 0.0063982010, -0.1065922379, 0.2358110547, 0.0744493604, 0.1063994169, 0.1115310192, 0.1872261763, -0.2098792195, 0.1629736423, 0.0591803193, -0.1277534962, -0.1531487703, -0.0877183676, 0.2175544500, 0.2266833782, 0.0696277022, 0.1509492993, 0.1683245301, 0.1803647876, 0.2467792630, 0.2453196049, 0.0275031924, -0.1155440211, -0.0740379691, 0.0348966718, -0.2389014959, 0.1190487146, -0.0447664261, -0.2185886502, 0.1127541661, -0.2262682319, -0.0553052425, -0.2331675887, 0.2211142778, -0.1938479543, 0.1407064199, -0.2025362253, -0.0065464377, 0.1535869837, -0.0576077104, -0.1606070399, 0.1484379172, 0.0323616266, -0.0775552988, 0.1072432995, -0.2479284406, -0.0270425677, 0.0987537503, -0.1051996350, -0.2464880347, 0.1367686391, 0.2168252468, -0.1763180494, 0.0036708713, -0.1241217852, -0.0001787543, 0.1678895950, -0.0111152530, 0.2084408998, 0.1780813932, 0.0541904569, 0.1547154188, 0.0552238822, 0.1610202789, 0.2162650824, -0.0739581585, 0.0288721323, -0.2491219044, -0.0613110065, 0.0983474851, -0.1190840602, 0.1889711022, 0.2425312400, 0.1589822769, -0.1245749593, -0.2353411317, 0.0561330318, 0.0036663413, -0.0775299668, 0.0140816569, -0.1997506022, -0.1665664315, -0.1151223183, 0.1054147482, -0.0927460194, -0.2193618417, 0.1934449077, -0.0970185995, 0.2081702352, -0.0318201184, -0.1014113426, 0.1224069595, 0.0929294229, -0.1189920902, -0.0567812324, -0.0753434896, 0.0152271986, 0.1079038382, 0.1624358892, 0.2261223197, -0.1709657907, -0.0064423680, -0.1043847203, -0.1556797624, 0.1910621524, -0.1378890276, -0.0053455234, -0.1656988859, -0.1658517122, -0.0021357536, 0.0433478355, -0.0947781801, -0.1738203764, -0.1154569983, 0.2182314992, 0.0596745610, -0.1198618412, 0.2050899267, -0.0393322706, 0.1365842223, -0.0737298727, 0.1033542752, 0.1285156608, -0.1328904629, -0.0337862968, 0.0398294330, -0.0760141611, 0.2375391722, 0.2202907801, -0.0089969635, -0.0029541254, 0.2314665914, -0.1137562394, 0.0123956800, -0.1131832600, 0.2222208381, -0.1420959234, 0.1930025220, 0.2338498831, -0.0226965547, -0.2470775247, -0.1349148750, 0.1800292134, 0.0322291255, -0.0318353176, 0.0837411284, 0.0742746592, -0.1361219883, -0.2477989793, -0.2035221457, 0.2378171086, -0.1518808603, 0.2040818930, -0.0476379395, -0.0337995291, -0.1162041426, 0.2232939005, -0.1865484118, 0.0841724873, 0.1748032570, -0.0547559261, -0.0638145804, 0.1023373604, -0.0608047247, -0.2062559128, -0.0208121538, -0.0035097599, 0.0842209458, -0.2303191423, -0.0551705956, 0.1858180165, 0.1950002909, 0.0417245030, -0.1410633326, 0.1802874804, 0.2228871584, -0.2020664811, 0.2495709062, -0.0635251403, 0.0025356412, 0.1615096331, 0.1624811292, 0.2229664922, 0.0113304257, 0.0975372195, 0.0004500151, -0.1683979630, -0.0609077811, -0.1499603391, -0.1254375577, 0.1137436032, -0.0744165182, 0.1653028727, 0.0235278010, -0.0368900895, -0.1149523258, 0.2177692652, -0.1533596516, 0.1236737370, 0.2105392814, -0.1262404919, -0.0460343361, -0.1330872774, -0.0883671641, 0.0344754457, -0.2393672466, -0.0356148481, -0.0822917223, -0.1974529028, 0.1183876395, 0.0026898980, -0.1288246512, 0.2244074345, 0.1059118509, -0.2050799727, -0.0713788867, 0.0312876105, 0.1595233083, -0.1585810184, -0.1245078444, 0.0860618949, 0.1357488036, 0.2218411565, 0.2070710659, -0.0811282396, -0.2235026956, -0.0886482000, 0.2019259334, 0.0800331831, -0.1664959192, 0.2192627788, -0.1216399670, 0.0024943948, -0.0954434276, -0.0415469408, 0.2377943993, 0.0477803349, -0.0167005062, 0.0766248107, 0.2005155683, 0.0411157012, -0.0100952387, 0.0387418270, 0.0798247457, 0.0963034034, -0.1717621088, 0.2032632232, 0.0546855330, -0.2101787925, 0.2338463664, 0.0806176066, 0.0919403434, 0.1341587305, -0.0069550872, 0.0979452729, 0.0698591471, -0.0733810663, -0.0357995033, -0.1979783773, -0.1288628578, -0.1920163631, -0.0184118152, 0.0483654737, 0.2107502222, -0.1129888296, -0.0957379937, -0.1144657135, 0.2266858816, -0.0830150247, -0.0994321704, -0.1043671966, 0.2353371978, -0.1612263918, -0.0974918008, 0.0389063358, 0.1880122423, 0.0847848654, 0.0985867381, 0.0520889163, 0.0064185262, -0.0245515704, -0.1258850098, -0.2081971765, -0.2168903947, -0.1452845931, 0.0021346211, -0.2300254703, -0.0868343711, 0.0511374474, -0.2214643359, -0.1135600209, 0.2384238839, 0.2284026742, -0.2316107750, 0.0921485424, 0.0653414726, 0.2152019739, 0.0729072690, -0.0269962549, -0.0080522299, 0.1499742270, -0.0619914532, -0.2476235032, 0.0511272550, -0.0960088372, 0.0132758617, -0.1909574270, 0.0454797745, -0.2421845794, -0.1014363766, -0.1818389893, -0.1832385659, 0.1958390474, 0.1529377103, -0.0516138077, -0.2291772962, -0.0076866150, 0.1040410399, -0.1783969402, 0.0290933847, 0.2358371615, 0.2428660989, -0.2232874632, 0.1970355511, 0.1778885722, 0.1972299218, 0.0556275845, -0.2448791862, -0.1518315673, -0.1383263469, 0.1089996696, -0.1646299958, -0.1456633210, 0.1311720014, 0.0917015076, 0.1894617081, 0.1191630363, 0.1104825139, 0.1966600418, -0.1689327955, 0.0155827999, 0.0146231055, 0.1508802176, -0.1782240868, -0.0302950144, -0.0908556581, -0.1901053786, -0.1348800659, 0.0278357267, 0.0369656086, 0.1902506351, 0.1016768813, 0.1960504651, -0.1219192147, -0.1574200988, 0.0528691411, -0.1997734308, 0.1192875504, 0.0718372464, -0.0804694295, 0.0733549595, 0.2067252994, 0.0865796208, 0.2124659419, -0.1592460871, 0.0227907300, 0.1304246187, -0.1555157304, 0.1666185856, 0.1226305962, 0.1104595661, 0.0834063888, 0.1401695013, 0.2072657347, 0.0944755673, 0.1358332634, 0.1682774425, 0.1377041936, -0.1758794785, -0.1798910499, 0.2382977009, -0.1457602382, 0.1325165629, 0.1815468073, -0.2089698911, 0.2033490539, -0.1664994955, 0.1080828905, -0.2382459044, -0.0844711065, 0.1580100656, 0.1006072760, 0.0104064941, 0.2226570249, -0.2415292859, 0.2286955714, 0.1507663727, -0.2051874399, 0.1658801436, 0.0632322431, 0.2102504373, 0.1345428228, 0.1103984714, -0.1984733343, -0.1305767894, -0.0668502450, -0.0619711280, -0.1556141973, -0.2174990773, 0.1456658840, -0.1244581938, 0.2306155562, 0.1925449371, -0.0932129025, 0.2082408667, 0.0953957438, 0.2494628429, 0.2040054798, -0.0947178006, -0.0837376118, -0.2284055352, 0.1002118587, -0.2085120082, -0.0290661454, -0.1259044409, -0.2044594288, -0.1728652120, 0.1332458258, 0.0333719850, 0.2084979415, -0.1401903629, 0.2236472964, -0.0130230784, 0.1901278496, 0.0278109312, 0.0340261459, 0.1981890798, 0.2388178706, 0.0662869811, -0.1732873917, 0.2075900435, 0.0951457024, 0.1788056493, 0.0814882517, 0.2410176992, -0.1731852293, 0.1420332789, -0.1821719408, 0.1460089684, 0.2017930746, -0.1195685267, 0.0137320161, -0.0645617247, 0.2289268374, -0.0448996425, -0.1684156060, 0.1626621485, 0.0827904344, 0.1892608404, 0.0766364336, 0.0694429278, -0.1638821959, -0.1200732589, 0.1452049017, 0.2273166776, -0.1981223226, 0.0739777088, -0.2427236438};
#endif

#endif
