//Numpy array shape [2, 2, 8, 16]
//Min -0.247634768486
//Max 0.248779833317
//Number of zeros 0

#ifndef W7_H_
#define W7_H_

#ifndef __SYNTHESIS__
model_default_t w7[512];
#else
model_default_t w7[512] = {-0.029379904270, -0.101500213146, 0.195738971233, -0.052944839001, 0.246243417263, 0.020489990711, 0.165331542492, 0.186139047146, 0.239496886730, -0.243144452572, -0.059918642044, -0.113038599491, -0.117352306843, -0.130599498749, -0.169521570206, -0.051619946957, 0.105566859245, -0.032522141933, -0.051431357861, 0.057012736797, 0.238411486149, 0.090024113655, 0.224989950657, 0.210077643394, -0.143493890762, -0.136240184307, 0.009944915771, 0.228130280972, -0.045830309391, -0.247634768486, -0.121437370777, 0.012432038784, 0.118089020252, -0.194665312767, -0.173235356808, 0.122476160526, -0.007717192173, -0.189262807369, -0.144507348537, 0.172153890133, 0.097232282162, -0.028432667255, 0.177189648151, -0.156610906124, -0.081910431385, -0.173780798912, -0.241472005844, 0.190826773643, -0.240888595581, -0.123775184155, -0.202656865120, -0.036174893379, 0.042529642582, -0.018640697002, -0.111369609833, 0.217358231544, -0.192167043686, -0.226098716259, 0.237733781338, 0.050664424896, -0.202322483063, -0.041336476803, -0.122175395489, -0.137283742428, -0.218694627285, -0.133099257946, -0.147117733955, 0.106831610203, -0.175510168076, 0.138052225113, 0.244163036346, -0.181507647038, 0.095476150513, -0.187662363052, 0.217544376850, 0.132173299789, -0.074663937092, -0.196221649647, 0.036335766315, 0.173884928226, -0.166342437267, 0.115491211414, -0.072773873806, 0.120980799198, 0.014499247074, 0.000274658203, -0.004813909531, 0.090931057930, -0.168995499611, -0.129492104053, -0.045041322708, 0.227133929729, -0.145004868507, 0.216776192188, -0.015876889229, 0.214096605778, -0.210977315903, 0.053551375866, 0.188520967960, 0.197585344315, -0.139690458775, 0.181050539017, 0.140740752220, 0.000767529011, -0.126869440079, -0.217071056366, -0.047188341618, 0.057578444481, -0.076743066311, 0.126636266708, 0.183900833130, -0.048442006111, 0.054478764534, 0.148764789104, -0.131023406982, 0.104912638664, 0.241228103638, -0.118261396885, -0.198758363724, 0.127080976963, -0.121091246605, -0.232980072498, -0.138915359974, 0.235728740692, 0.053761363029, -0.047403931618, -0.118146538734, -0.157116413116, 0.014597058296, 0.201324939728, 0.231160938740, 0.209033548832, -0.074205517769, 0.176250576973, 0.002572178841, 0.248779833317, -0.224300861359, -0.144453346729, 0.047130227089, 0.114949703217, 0.224869370461, 0.095777392387, -0.059528589249, 0.191206514835, 0.001800060272, 0.133851230145, -0.086807549000, 0.016086339951, -0.233429193497, -0.058432459831, 0.197151660919, 0.234874486923, -0.141428470612, -0.047175824642, 0.180827796459, 0.205746233463, -0.131782174110, -0.097225904465, 0.069057285786, -0.005008220673, -0.243522107601, 0.089366853237, 0.099445223808, 0.207894980907, 0.139185369015, 0.051030218601, 0.226652503014, -0.153937280178, 0.235979497433, -0.202334880829, -0.242984294891, 0.231789290905, 0.057440340519, 0.050396323204, 0.095552980900, 0.130595564842, -0.066138446331, 0.115598738194, 0.040800690651, -0.035678207874, 0.052305102348, 0.067647993565, 0.024980425835, 0.141397297382, -0.119760096073, 0.163159370422, 0.079130232334, -0.000338971615, -0.197409629822, 0.050921499729, 0.081420898438, -0.157789349556, -0.200960040092, 0.137615740299, 0.177874088287, -0.226471841335, 0.218143820763, -0.201540231705, 0.162416756153, 0.171003162861, -0.078733026981, 0.101001143456, 0.178528308868, -0.013677179813, 0.193875193596, 0.183763265610, -0.171481907368, 0.054878592491, 0.210712790489, -0.182886958122, 0.007331550121, -0.222555696964, -0.084247827530, 0.029343485832, -0.077219605446, 0.207400500774, 0.215580284595, -0.103034675121, -0.065016925335, -0.063427150249, -0.164543986320, -0.098740220070, -0.108722448349, 0.109970211983, 0.247154772282, 0.012989938259, 0.214662194252, 0.171803057194, -0.150612056255, 0.227565705776, 0.067415297031, -0.022797882557, -0.120760023594, -0.124983012676, -0.070367097855, 0.228725850582, 0.062521696091, -0.123587191105, -0.147714495659, -0.088015019894, 0.038096249104, 0.188533425331, 0.033745169640, -0.188955187798, -0.092229604721, -0.116904377937, 0.009588062763, 0.118062198162, 0.174312889576, 0.195120632648, -0.114616096020, -0.204494714737, -0.164739489555, 0.168087959290, 0.104968547821, 0.067245841026, -0.001799941063, 0.068411231041, -0.069243788719, 0.137562215328, -0.218033790588, -0.020818173885, 0.070441305637, 0.035662293434, -0.031469166279, 0.074026107788, -0.006379425526, 0.094912350178, -0.183813631535, 0.115045905113, 0.184777081013, 0.109439432621, -0.231297671795, 0.221629321575, -0.136838555336, -0.120062887669, 0.008442699909, 0.001097738743, -0.191417932510, -0.150252938271, -0.168577253819, 0.057031810284, 0.037958145142, -0.236718177795, -0.237784206867, -0.046909749508, -0.133229255676, 0.010662794113, 0.065480649471, 0.016731739044, -0.194990813732, -0.171374499798, 0.017604649067, 0.221631646156, -0.078038811684, -0.043485581875, -0.182965695858, -0.188944935799, -0.123799204826, -0.013577520847, 0.153458833694, -0.021654367447, 0.146812915802, 0.160251080990, -0.008443892002, -0.182668566704, 0.098230957985, 0.151034057140, -0.058674693108, 0.095371901989, -0.083381593227, 0.007337093353, 0.030220091343, -0.093325674534, -0.135837137699, 0.014652490616, 0.140604376793, -0.222893893719, -0.184493422508, 0.084605991840, -0.167500615120, -0.112061321735, -0.116549432278, -0.177663266659, -0.201028347015, 0.199476420879, -0.184425294399, -0.214092314243, 0.172500967979, -0.123100996017, -0.076518714428, -0.217594087124, 0.154091835022, -0.200787603855, -0.063053786755, -0.242578029633, 0.174870967865, -0.142661452293, -0.119468569756, 0.043002486229, -0.061650872231, -0.067038774490, -0.158593118191, -0.160456955433, 0.191087722778, -0.079122245312, -0.116994500160, 0.064419209957, -0.033815562725, 0.212452232838, 0.003631234169, -0.222512722015, 0.108561396599, -0.169587075710, -0.143759310246, -0.193341732025, 0.102865874767, -0.100802719593, -0.105657517910, -0.194582402706, 0.221373736858, 0.064255714417, 0.018780589104, 0.230122447014, 0.202135860920, -0.089179396629, 0.166069507599, 0.011378407478, -0.040078461170, 0.059708237648, -0.179498672485, 0.080099761486, 0.215278387070, 0.105018556118, -0.199973523617, 0.080989480019, -0.080718934536, 0.037669539452, 0.100849568844, 0.196436345577, 0.073274850845, -0.082976937294, 0.122178435326, -0.219992399216, 0.221893429756, 0.191430270672, 0.100844800472, -0.210269093513, 0.096028387547, -0.009188711643, -0.134509921074, 0.152065515518, -0.247455894947, -0.091437637806, 0.173110783100, -0.039592862129, 0.207853436470, 0.227158188820, -0.122789978981, 0.079140245914, -0.203001558781, 0.218368947506, -0.245882928371, -0.116643607616, -0.082420766354, 0.125144362450, 0.114199578762, 0.221287190914, -0.115523219109, 0.106307029724, -0.062554657459, 0.048613786697, 0.171513557434, -0.177912116051, 0.211267352104, 0.022988140583, 0.089287519455, -0.052107572556, 0.093817770481, -0.111257493496, -0.170795321465, -0.074123144150, 0.062168598175, 0.106840848923, 0.156978189945, 0.085391163826, -0.215534925461, -0.133848428726, -0.025226235390, -0.137032032013, -0.041661322117, 0.056631207466, -0.205045342445, 0.036509096622, 0.119726359844, 0.188458383083, -0.149959146976, -0.105041086674, -0.008384883404, 0.087221086025, -0.100156009197, 0.057907104492, 0.098566055298, 0.242953538895, 0.185509681702, 0.008542180061, -0.179512262344, 0.043225526810, -0.044945478439, -0.235303223133, -0.101374387741, -0.245886802673, 0.161388516426, -0.076473534107, 0.172356605530, 0.210355043411, -0.137905180454, 0.046511888504, 0.130072891712, 0.064611494541, -0.211726903915, 0.025601923466, -0.229682385921, 0.145685017109, -0.125643134117, -0.047448575497, 0.041566550732, -0.133459568024, 0.034189701080, 0.063432574272, -0.177243888378, -0.218742668629, 0.143856942654, -0.019478738308, 0.145582437515, 0.036401629448, -0.207917332649, -0.075927078724, -0.136584937572, 0.054807305336, 0.229326605797, -0.105779290199, 0.120759010315, -0.229158580303, 0.055529057980, -0.163910925388, -0.175317704678, 0.051380395889, -0.192841351032, -0.032336652279, 0.132369458675, 0.218389928341, 0.213506817818, -0.068226218224, -0.222906708717, -0.097027659416, 0.230365812778, 0.234884262085, 0.038622558117, 0.124779939651, -0.132510721684, -0.158770561218, -0.008564054966, -0.140925168991, -0.161867201328, -0.223439157009, 0.202033162117, -0.215855419636, 0.025557100773, 0.126077771187, 0.135536313057, 0.068886637688};
#endif

#endif
